1431655766
32927
1
0
-0.843109
-0.160664
0.779371
0.603296
-0.132764
0.772749
0.619339
-0.310783
-0.270125
0.384404
0.350396
-0.529661
-0.298134
-0.543137
0.566887
0.651442
-0.211787
0.636324
0.814734
-0.156922
-0.99561
0.0166872
-0.361652
0.37905
-0.676347
-0.525255
0.180528
0.593997
0.289376
-0.618469
-0.461433
-0.782148
0.830232
-0.020081
0.119459
0.0560473
0.645825
0.445379
-0.31629
0.921686
-0.356969
-0.359795
0.974179
-0.598226
-0.582063
0.818119
0.303472
-0.961621
0.220264
0.303277
-0.61334
0.983016
0.638151
-0.49567
0.377752
0.265578
0.239079
0.860351
-0.523026
0.165912
-0.658316
0.562442
-0.243785
0.476246
0.123533
0.600236
0.545321
0.793011
-0.0833669
0.448419
-0.529125
-0.743512
0.865512
-0.413872
-0.314204
-0.644818
0.676498
-0.232876
-0.335876
0.796436
0.985081
-0.960374
-0.239428
0.0361527
-0.0892198
0.858653
-0.499439
-0.311708
0.308301
0.32381
-0.301812
-0.755828
0.12378
0.988885
-0.21494
-0.892854
0.408495
0.0922085
0.493758
0.419587
-0.896623
0.208833
0.89339
0.443557
-0.164926
0.416708
-0.573617
-0.792367
-0.308464
-0.281539
0.531632
0.759856
-0.663579
0.693372
0.426998
0.336619
0.472897
-0.897582
0.212714
-0.108074
0.205494
0.770665
0.476602
0.209132
-0.568184
0.770016
0.643493
0.873049
-0.78647
-0.628324
0.786819
-0.692609
0.00491131
-0.151089
-0.0115585
-0.61039
0.303651
-0.150798
0.344827
-0.865605
-0.302449
-0.508631
0.2673
0.421731
0.050558
-0.604966
0.0529472
0.662801
-0.196795
0.49698
0.534268
0.445535
0.231632
0.749808
0.298469
-0.803788
0.907988
0.260069
0.535747
-0.720775
-0.173583
0.845192
0.582908
0.313676
-0.938216
-0.901812
0.203051
0.966085
-0.549286
0.00673161
-0.78832
0.28841
-0.0203273
0.511646
-0.656179
0.796004
0.842739
0.673822
0.78068
0.188689
0.658232
0.443651
-0.0500254
0.95866
-0.569202
-0.479776
-0.0810395
0.431491
-0.507545
-0.892958
0.657663
0.162427
-0.0128042
0.206147
-0.187766
-0.852101
0.452029
-0.729947
0.6643
-0.548674
0.226861
0.820319
0.74486
0.994793
0.107398
-0.476557
0.330706
0.573105
-0.60701
-0.783351
-0.21873
-0.827139
-0.549849
-0.364292
-0.683742
0.780471
-0.105588
-0.0833251
-0.0431731
0.430262
-0.412331
-0.174655
-0.569877
0.589121
0.193579
-0.706498
-0.0253953
0.0676943
-0.514204
-0.324351
-0.857883
-0.0552141
0.21144
0.600145
-0.0196758
-0.460232
-0.219726
-0.771934
-0.571079
0.886764
0.864969
0.161338
-0.560431
0.479386
0.92709
-0.175113
0.828429
0.197623
-0.72409
0.707883
0.818378
-0.363089
-0.647063
0.865154
0.783831
0.777663
0.125407
0.186397
0.0638513
-0.288035
0.148653
-0.340454
0.428685
0.579734
-0.460645
-0.196963
0.324523
0.133386
0.5186
-0.609238
0.326617
-0.0441545
-0.0138616
-0.764948
0.991467
0.635563
0.69996
-0.611234
-0.447094
0.829417
-0.678429
-0.424514
-0.0340109
-0.977288
0.296453
-0.654028
0.339708
-0.53413
0.928994
0.305131
-0.891266
0.714597
0.871843
0.801669
0.0606166
0.90773
-0.631514
-0.292837
-0.866959
-0.965369
0.61455
0.537575
0.0792204
0.50518
0.657055
-0.825417
0.178177
0.904494
0.856858
0.0940501
-0.693529
0.98727
-0.470377
-0.646576
0.211146
0.869946
-0.2074
-0.0412289
-0.291135
-0.328995
-0.377483
-0.262973
-0.0819484
0.220134
0.824294
0.905456
-0.127714
-0.699535
-0.873757
0.0778341
0.000507446
-0.806785
-0.285416
0.933586
-0.350094
-0.744713
-0.102455
0.936149
-0.899138
0.594026
-0.253429
0.744263
-0.063003
-0.307387
-0.270189
-0.133281
0.966999
-0.798212
0.64849
0.53495
-0.605202
-0.58371
0.152737
0.278443
-0.5347
0.213548
0.284308
-0.64094
-0.0435206
0.430103
0.249853
-0.338495
0.250146
-0.712785
0.0761263
-0.357619
0.998229
0.404818
0.971074
-0.871255
-0.90483
0.171983
0.176347
-0.845854
0.537724
-0.561493
-0.556572
0.557455
-0.650162
-0.521603
-0.376115
0.085267
0.902441
-0.569716
-0.607197
0.476448
-0.72273
-0.422896
0.012303
-0.882165
0.150659
-0.297174
-0.821399
-0.98972
-0.100142
-0.796948
-0.437337
-0.55026
0.832876
0.400417
-0.0812339
-0.620193
0.678303
0.641115
0.978487
-0.595089
-0.42127
0.278606
0.43035
0.929676
-0.38033
0.861591
-0.428676
0.41044
0.0103253
-0.796211
0.073682
0.278479
-0.374094
0.726869
0.728375
-0.465766
-0.0900039
0.207249
0.155641
-0.683103
0.398872
-0.954079
0.447487
-0.968447
0.613406
0.623168
0.878462
0.399911
-0.112569
-0.816716
-0.299428
-0.345117
0.389499
0.28578
0.791301
0.119699
-0.420408
-0.792087
-0.127321
-0.274309
0.461318
-0.881288
0.14281
-0.712298
-0.0123278
-0.521545
0.59394
0.26156
0.00490448
-0.950507
0.342181
0.823987
0.475049
-0.768923
-0.764685
0.728842
-0.795798
-0.573611
-0.521251
-0.305896
0.743703
-0.509551
0.50621
0.547046
0.108239
0.492779
-0.644033
0.998489
0.0464531
-0.711447
-0.569243
0.172278
0.527668
-0.520174
-0.615739
-0.684498
-0.817996
0.0474417
-0.0290661
0.290526
0.776303
-0.599237
-0.468963
-0.988976
-0.83781
-0.82195
0.898109
-0.203916
0.740505
-0.407425
-0.382954
-0.467689
0.381488
-0.922473
-0.0663449
-0.436259
0.986932
-0.538121
0.828601
0.0390771
-0.925247
-0.158741
0.968988
-0.142342
0.534978
0.0303466
0.669373
-0.151812
0.207251
-0.75934
-0.597805
-0.977727
-0.64692
0.0700376
-0.0930578
0.968007
0.959351
0.161831
0.574463
0.802258
-0.952177
0.889953
-0.918139
-0.987069
-0.467268
-0.628789
-0.629619
-0.6518
-0.637176
0.766331
-0.854204
0.403273
0.605393
0.389121
-0.404369
0.789297
-0.22185
0.129693
-0.240607
0.784899
0.562031
0.802206
-0.971
0.0338613
0.892088
0.113954
0.181447
0.283148
0.916447
0.855301
-0.246291
-0.102125
-0.536979
-0.651996
0.510662
-0.85106
0.813725
0.695917
-0.650473
-0.968852
-0.733838
-0.478521
-0.24552
-0.0975108
0.32912
-0.260541
-0.705799
-0.412562
0.773016
0.64306
0.481145
0.0889348
0.118145
0.814895
-0.671596
0.816348
-0.372963
-0.183912
-0.701497
-0.418256
0.652804
-0.73661
0.471317
0.0950742
-0.571384
0.336166
-0.891803
0.365856
-0.106734
0.267098
0.109034
-0.766892
-0.677254
-0.137238
-0.593847
-0.57934
-0.0202637
0.054553
0.444523
0.287073
0.0597705
-0.136349
0.0240162
0.389676
0.0874682
0.581854
0.226789
-0.711315
-0.66576
0.217815
0.272218
-0.445373
-0.644671
0.182645
-0.906629
0.672487
-0.386615
0.176498
-0.802923
-0.544722
0.0730565
-0.858096
-0.0125473
0.307272
-0.897289
0.980265
-0.735255
0.23824
0.772867
0.150915
0.653216
0.856449
0.24512
-0.89016
0.890523
-0.00227553
0.230339
0.276035
0.384802
-0.575313
-0.928029
0.472274
-0.596063
-0.195181
0.50872
0.772121
-0.135089
-0.57507
-0.495181
-0.101655
0.771306
0.29193
-0.415215
0.743036
-0.582688
0.192435
0.60812
0.0910738
0.0705076
0.376949
-0.22275
-0.49721
-0.136265
-0.136307
-0.357285
0.936948
0.130091
-0.0362954
0.802048
-0.0974885
0.923503
0.741096
0.0990201
0.999832
-0.516986
-0.0722079
-0.246109
0.833977
0.255034
0.312441
0.407757
-0.22075
-0.586715
0.221334
-0.538115
0.14943
0.964527
0.938321
-0.544785
-0.0306677
0.00913882
0.335264
-0.92464
0.0174814
0.705291
-0.299724
-0.827913
0.165832
-0.713987
-0.115192
-0.324675
0.610657
0.0784764
0.100698
-0.643657
0.480272
0.00903136
0.67419
-0.938731
0.358879
-0.0872463
-0.663024
-0.973841
0.447227
-0.805921
0.29195
0.348521
0.825918
-0.610793
0.497784
0.669061
-0.16335
-0.678079
-0.690691
0.0553107
0.105964
-0.718703
0.884115
-0.0518141
0.485828
-0.247734
0.530773
0.414968
-0.0153755
-0.634945
-0.152907
-0.623063
-0.890783
0.49453
-0.22856
-0.46088
0.422347
-0.841658
0.957854
-0.701222
0.994393
-0.51401
0.0491201
-0.162452
-0.195185
-0.23537
-0.685604
-0.0574513
-0.354316
-0.60201
-0.250588
0.918958
-0.277183
-0.190392
-0.226441
0.846079
-0.128985
0.929763
0.921604
0.0177875
0.436437
0.256796
0.896995
0.854687
0.675524
0.189564
0.663244
-0.93131
-0.373583
0.343476
-0.719045
-0.808963
0.121883
-0.617792
-0.0634173
0.498462
0.80229
0.498403
0.833127
0.823867
0.322775
0.768939
-0.306505
0.414901
-0.949738
-0.918762
-0.951255
-0.580577
0.636405
0.692881
0.0382804
-0.203618
0.824735
0.648273
-0.76969
0.75597
0.961421
0.667438
-0.254694
0.873183
-0.323531
-0.408856
0.778728
0.238306
0.300205
0.163534
0.869478
-0.490907
-0.661768
-0.211714
0.152463
0.866072
-0.720211
-0.973846
0.353607
-0.845849
-0.27578
-0.46412
0.701252
0.0866509
-0.626426
-0.671287
-0.712052
0.61426
-0.0166567
0.446813
-0.948802
-0.600338
-0.453915
0.231969
0.562218
0.923632
-0.506353
-0.626376
0.479856
0.610631
0.87108
-0.2363
0.970821
0.324203
-0.946744
-0.562913
0.37428
-0.278766
-0.181506
0.0974784
-0.0384919
0.395424
0.4484
0.908334
0.0150548
0.996458
0.845081
-0.0100692
0.203311
-0.406882
0.460373
0.388234
-0.107366
-0.530622
-0.871657
0.665777
0.643062
-0.230832
0.622564
-0.147992
-0.842016
0.314696
0.410697
0.637429
-0.022648
-0.699602
-0.581959
0.784216
-0.962586
0.114673
-0.507477
-0.210848
-0.513495
0.751005
0.695744
0.936988
0.871627
0.906354
0.194265
-0.380448
0.926014
0.476718
0.214595
-0.205055
-0.968516
-0.422453
-0.267261
-0.119756
0.245265
0.0516157
-0.0704142
-0.600289
0.219563
-0.51189
0.571551
-0.752234
-0.930742
-0.0399569
0.572325
0.581187
-0.561131
-0.870505
-0.684242
-0.181178
0.0209456
0.374417
-0.86929
-0.0908067
-0.681358
-0.789535
-0.693207
-0.272653
0.179847
0.529284
0.0449289
0.384367
-0.683428
0.372134
-0.635049
-0.0510691
-0.945812
-0.251047
-0.199889
0.73602
-0.150112
0.86564
-0.786729
0.900577
0.815368
-0.0361836
0.073698
-0.249066
0.397228
0.289231
-0.758351
0.321755
0.0430315
-0.393705
-0.293144
0.828798
-0.324174
0.692459
0.0839904
-0.165996
-0.789025
-0.19114
0.0321585
-0.398417
0.303227
-0.909223
-0.533528
0.202311
-0.332616
0.877117
0.579104
0.559062
0.362051
-0.647265
0.375293
-0.322456
0.61257
-0.416422
-0.432472
-0.147179
0.0699413
-0.961723
0.384919
0.965421
-0.617128
0.628647
-0.431465
0.617683
0.447828
-0.182034
0.8151
0.186347
0.442452
-0.0269273
0.765464
0.916344
0.783538
0.604307
-0.0379981
0.107019
-0.359398
-0.367384
-0.636279
0.91607
-0.850004
-0.443683
0.780468
0.90714
-0.511121
-0.86552
0.751459
-0.401959
-0.516729
0.45247
0.6837
-0.366875
0.293461
0.0209329
0.102018
0.291636
0.953025
-0.0529997
0.669619
-0.378422
-0.199488
-0.198701
0.148077
0.104556
-0.042056
-0.78643
0.0163258
0.241246
0.455937
0.621418
-0.69639
-0.589054
-0.983531
0.160435
0.961983
-0.754496
-0.305294
-0.828078
0.140387
0.366375
-0.266491
0.770427
-0.346782
-0.752637
0.0761452
-0.903834
0.887581
0.402801
-0.408046
-0.921095
-0.00417168
0.17469
0.399157
0.295742
-0.281315
0.0987754
0.188923
0.752003
0.297033
-0.0757149
-0.111433
0.496011
0.897633
-0.146009
0.165876
0.858837
-0.71036
0.270929
0.472859
0.0560647
0.802092
0.204141
-0.914741
-0.258533
-0.328806
-0.445269
0.118885
-0.784343
-0.716698
-0.225622
0.781578
0.876135
-0.900442
-0.2133
-0.581924
0.314624
0.306805
0.899132
0.272857
-0.454459
-0.396326
-0.892906
0.663494
-0.835717
0.658781
-0.712525
-0.464724
0.920563
-0.640696
0.46501
-0.610533
-0.450397
0.0413461
0.223442
-0.330101
0.117599
0.597164
0.531439
-0.64941
0.581751
-0.121626
0.620099
0.231496
0.308367
0.893966
0.199572
-0.313425
0.299908
-0.859179
0.834252
0.818172
-0.632391
0.288215
0.258954
-0.426136
-0.498717
-0.390754
0.885245
-0.60333
-0.803796
-0.747319
0.630415
-0.513903
0.789053
0.82626
-0.456275
0.0558161
0.739808
-0.546756
0.113288
0.721197
0.979464
-0.678676
-0.354646
-0.044454
0.410626
0.776726
0.780406
-0.556829
-0.832808
-0.107503
0.64293
0.0619046
0.859118
-0.0192335
0.941142
-0.514616
0.578893
0.202764
0.69726
-0.749643
0.539051
-0.107669
0.387855
-0.763106
0.716557
0.0467971
-0.499377
-0.130299
-0.723178
0.514094
0.899688
0.915321
0.176394
-0.770587
-0.401601
0.319497
-0.885142
-0.93031
0.828646
0.131656
-0.724972
0.935464
-0.691809
-0.0084784
0.612214
0.815649
-0.583517
0.0286619
-0.650613
0.819874
-0.147978
-0.949485
0.704728
-0.76859
-0.000893444
-0.761571
0.103454
0.58391
-0.646401
0.024716
0.568935
0.339638
0.198389
-0.374981
-0.473453
-0.849507
-0.366744
0.382528
-0.993415
0.902293
-0.43957
-0.791701
0.725364
0.0451252
-0.527561
-0.929261
-0.812094
0.146829
0.205018
0.824252
-0.370698
0.502993
-0.816491
-0.669736
0.0390422
-0.89348
0.241013
0.502787
-0.156206
-0.288168
-0.284592
0.611619
-0.17389
0.115795
-0.667166
-0.850407
0.296028
-0.110748
-0.416205
0.798945
0.411422
-0.325108
-0.525976
-0.402888
0.604494
-0.661372
-0.632954
0.457599
-0.308773
-0.164321
0.0129769
-0.788441
0.925551
-0.0455225
-0.311892
0.126005
0.959645
0.219245
-0.681317
0.741379
-0.612025
-0.173182
-0.491726
-0.575398
-0.944922
0.258665
0.0895042
-0.287308
0.438393
0.72594
-0.117293
0.180202
-0.788941
0.493149
0.252758
-0.789312
0.609862
-0.590256
0.578317
0.354377
0.0761776
0.590543
0.433962
-0.266724
0.429748
0.463055
-0.0348109
0.689746
0.734676
0.586783
-0.779596
0.199798
0.213574
-0.603243
-0.938992
0.985321
-0.220928
-0.219976
0.887514
-0.382456
0.144902
0.743416
0.197484
0.457538
-0.134445
-0.723014
0.94625
-0.666938
0.887433
0.643906
-0.706007
-0.505002
-0.901221
-0.206602
0.215079
-0.177774
-0.963542
0.645836
-0.00577091
-0.608198
0.199223
0.591048
-0.0419361
0.38954
-0.918678
0.866825
-0.152496
-0.0222089
0.525317
-0.46418
0.824132
0.0655015
-0.990131
0.740461
0.0990677
0.145695
0.390505
0.320382
0.695373
-0.5364
-0.0912234
0.289769
-0.570227
-0.977631
-0.856194
0.188471
0.258332
-0.628479
-0.67785
0.0678235
-0.488591
-0.914058
0.0058801
-0.492005
-0.0100081
0.441862
0.779365
-0.722216
-0.441328
0.91533
-0.57673
0.943612
-0.739116
-0.193189
-0.978534
0.350337
-0.663439
-0.978371
0.277172
-0.030241
-0.199171
-0.5057
-0.105156
-0.653765
-0.53921
-0.162065
-0.949499
-0.829795
0.0757401
0.216278
-0.48405
0.355852
-0.269249
0.251937
-0.985821
0.48989
0.919971
0.897072
-0.836069
-0.307331
-0.472703
-0.891804
-0.89109
-0.150494
0.992057
0.0765897
0.382271
-0.975123
-0.761156
0.739857
0.435355
0.518538
-0.533095
-0.042699
-0.952888
0.470409
0.69989
0.0976674
0.295138
-0.163714
-0.312902
0.793844
-0.540672
0.761282
0.94952
-0.396635
-0.024881
-0.649015
0.636152
0.520076
-0.0337199
-0.783667
0.58778
-0.638492
-0.175798
-0.14003
-0.761832
0.317307
0.565057
0.793006
-0.791315
0.259771
0.826757
0.913139
-0.537066
0.904583
0.178579
0.998906
-0.425959
0.611755
0.798955
-0.916109
0.566806
-0.121411
0.268496
0.774851
0.978199
0.440536
-0.293694
0.778177
0.188352
0.267738
-0.253736
-0.343083
0.646901
0.696817
-0.462726
-0.826335
-0.5322
0.586238
0.683718
0.656843
-0.941568
0.505183
0.494775
0.864354
0.339343
-0.906556
-0.796723
0.795567
0.209138
-0.572157
-0.528407
0.0877444
0.380905
-0.405169
0.955388
0.0750793
0.884294
-0.173833
-0.216161
-0.382342
0.36959
-0.836928
-0.718818
-0.464867
0.0015138
0.363567
0.249687
-0.486367
-0.701672
0.982107
-0.12159
0.714929
0.71518
0.541188
0.445165
0.663488
-0.849496
-0.817053
0.970705
0.350053
-0.421759
-0.161842
-0.295803
-0.00923656
-0.00212738
-0.240886
0.591238
0.774074
-0.247766
-0.918865
0.522009
-0.802528
0.642157
-0.811271
-0.149424
0.772006
0.805627
-0.248871
-0.992011
0.527329
0.757883
-0.428162
-0.270522
-0.195616
-0.801912
-0.572599
0.86772
-0.746152
0.882828
-0.294729
0.00305263
-0.61479
0.533162
-0.10075
-0.847925
0.45918
-0.852226
0.549422
0.414066
0.91678
-0.211198
0.844184
-0.993034
0.229685
0.719267
-0.686684
-0.0105054
-0.717536
-0.687061
0.467794
0.232873
-0.191404
0.181022
0.321638
0.175378
0.615137
0.555174
0.545076
0.447938
-0.284748
0.709004
0.659654
0.260793
-0.233699
0.54839
0.661243
0.285571
0.601384
0.565789
0.0807138
0.912401
0.638266
0.618242
-0.361539
-0.263132
-0.523854
-0.406988
-0.604398
0.520555
-0.171551
0.119306
0.596206
-0.614009
0.728684
-0.0863222
0.41938
0.218412
-0.807116
-0.776594
0.696171
0.615194
0.803872
0.741671
-0.500912
-0.397378
-0.467152
-0.570161
-0.632021
-0.761348
0.0969382
-0.578962
0.0624802
0.305405
-0.636852
0.0271035
-0.822694
-0.111284
0.876564
-0.334293
-0.947871
0.722519
0.17181
-0.989651
0.264212
0.878033
-0.188773
-0.00689061
0.419719
-0.998209
-0.507351
0.301591
0.515378
-0.0466988
-0.29174
-0.574495
-0.69193
0.467
0.427237
0.866958
-0.300781
0.873667
-0.344166
0.127523
0.868702
0.539454
-0.494182
0.965865
0.17888
-0.274597
-0.0624374
-0.67434
0.453959
0.254821
-0.719583
-0.146121
0.634075
0.690773
-0.156462
0.59211
-0.547121
0.84617
-0.426396
0.718887
-0.0136746
0.412004
0.922154
-0.167185
0.808428
0.000324546
-0.291714
0.227843
0.685999
-0.556065
0.811764
0.98777
-0.725726
0.541988
0.673375
0.1127
-0.929521
0.138637
-0.364193
0.912633
-0.719325
-0.699393
-0.39207
-0.279117
0.500799
-0.969586
-0.98705
-0.217963
-0.1439
-0.813788
-0.692526
-0.222551
-0.32364
-0.959274
0.963436
0.681111
-0.393056
0.514043
-0.0743174
0.819453
0.58057
0.811397
0.440581
0.493956
-0.727151
0.789922
-0.966896
0.451539
-0.971829
0.836289
0.970892
0.120737
-0.117422
-0.799176
0.958653
0.0636003
0.12078
-0.814605
-0.445628
-0.83487
-0.873106
0.801248
-0.485335
0.656926
-0.867435
-0.465834
0.866701
0.615946
-0.0919431
0.220906
-0.826695
0.446383
-0.985229
-0.128111
0.192734
0.552409
0.505969
-0.903996
-0.797503
-0.892056
-0.978049
-0.974172
-0.293473
0.84892
-0.796552
-0.856657
-0.593058
0.132296
0.900881
-0.0884166
-0.693093
-0.740987
-0.523334
0.776956
-0.472502
0.0123748
0.0363124
0.803845
0.976772
0.891488
0.705465
0.608709
0.129892
0.186275
-0.712332
-0.628833
-0.825721
-0.311684
0.863296
0.898695
0.619143
-0.294147
0.713899
-0.72641
0.982954
0.0631763
0.194649
0.515819
0.779606
0.364171
0.895724
0.913281
0.487785
0.0819242
-0.520681
0.487156
-0.00662521
-0.152122
0.585465
0.952972
-0.661798
-0.968973
0.58195
-0.689983
-0.0464899
-0.974918
-0.455096
0.875913
0.522333
-0.914176
0.706705
-0.755925
0.226872
-0.150516
-0.637044
-0.124936
0.32664
0.364853
0.712457
0.465468
-0.881541
-0.583038
0.79202
0.0281042
0.594536
-0.280089
0.196334
0.954516
0.190096
-0.00992694
0.103383
-0.0670877
-0.0644118
0.454203
-0.214653
0.000703845
-0.759355
0.249214
0.167486
0.201799
-0.217257
-0.945024
0.0464223
0.558453
-0.0574227
0.398838
-0.279732
0.428538
0.131125
0.533309
-0.0146267
0.0636899
0.418772
-0.17219
-0.457617
-0.335615
0.654559
-0.576536
-0.274817
-0.160252
0.782594
0.420636
0.873629
0.318019
-0.49553
-0.965274
0.0148571
-0.526349
-0.961393
0.97928
-0.996305
-0.907647
-0.977068
0.936049
0.886346
-0.704046
0.160846
0.874566
0.260907
-0.139369
-0.882533
0.620734
0.862086
0.607145
0.560908
0.282788
0.825781
0.0988021
-0.230188
0.667828
0.203451
0.686558
-0.416903
-0.186515
-0.264512
0.688797
0.782207
0.871601
0.273607
0.364234
0.0670114
-0.584127
0.297245
-0.97314
0.758095
0.863081
0.895629
-0.45038
-0.181844
0.123266
-0.222214
0.290498
0.521537
-0.503294
-0.0664982
-0.920079
0.653771
-0.623125
-0.659539
-0.626066
-0.949202
0.455664
-0.13538
-0.880313
-0.436965
0.908556
0.309714
-0.617257
0.899242
0.528055
-0.94019
-0.743376
-0.636972
-0.294197
0.560905
0.718873
-0.905615
-0.429306
0.622915
-0.598912
0.0795338
-0.463663
-0.782671
-0.529591
0.560698
-0.407825
-0.969969
-0.474256
0.38543
-0.484677
0.841121
0.423504
0.76128
-0.0569489
-0.91177
0.876315
0.46075
-0.881886
0.377151
-0.342148
-0.593476
-0.955421
0.821694
-0.209767
0.458156
0.585761
-0.706627
0.571881
-0.868514
-0.214222
-0.912413
-0.989331
0.839754
0.538153
-0.854131
0.364577
0.215478
0.828563
0.71952
-0.328835
0.613032
-0.56228
-0.964805
-0.163877
0.644814
-0.0385674
-0.835653
-0.00432666
-0.78829
0.0666666
-0.12388
0.701111
0.587259
0.203778
0.292681
-0.215925
-0.787227
-0.109054
0.928231
-0.958259
-0.837262
-0.46955
0.711099
-0.748769
-0.26756
-0.982213
0.426978
-0.99252
-0.449483
0.329543
0.776125
0.910314
0.0768488
-0.853135
-0.964816
0.542296
0.640929
0.36667
0.813486
0.223379
-0.580995
-0.792709
-0.716461
0.851698
-0.975804
-0.667717
0.319974
0.766802
-0.701236
-0.0526376
0.819907
0.920558
0.284692
-0.471305
-0.946315
-0.216885
-0.215917
-0.332252
-0.0158955
0.406908
0.581136
-0.0878681
0.714007
-0.911665
0.285174
0.839147
0.460664
0.666
-0.977091
0.642056
-0.54034
0.913891
0.135542
0.885218
-0.79311
0.642174
-0.0723368
-0.721371
0.180411
0.206597
-0.852546
0.547217
0.917546
-0.78026
-0.863175
0.430506
0.910429
0.386909
0.0949882
-0.969654
-0.765086
0.620651
-0.325072
-0.104148
0.809349
-0.483501
-0.889005
-0.0556264
0.513504
0.525454
-0.404792
0.395252
0.562406
0.894223
0.924041
0.950689
0.159765
-0.148306
0.176826
-0.778944
0.38781
-0.157956
0.320313
0.918076
0.201792
-0.485623
0.375858
0.101935
-0.0832337
-0.923097
-0.948207
0.366682
-0.104445
-0.995527
-0.800604
-0.983767
-0.0514252
0.190123
0.817828
0.875419
-0.434611
0.86543
-0.563655
-0.0354969
0.249444
-0.80261
-0.828065
-0.94009
-0.911178
0.116599
0.43949
0.593059
-0.514076
0.596196
-0.0713354
0.793959
-0.179212
-0.327362
0.383982
-0.27611
-0.0588044
-0.668721
0.465579
-0.0188656
-0.255743
0.481861
-0.90823
0.930685
0.0063243
0.78723
-0.732945
-0.265118
-0.920299
0.405289
-0.39283
0.0848308
0.435768
0.737783
-0.755357
0.0963821
0.406156
0.184851
-0.776675
-0.51016
0.954998
-0.750939
-0.527714
-0.910599
-0.0239923
0.0205322
-0.703542
0.411291
-0.814427
-0.88437
-0.576582
0.194855
-0.126634
0.998112
0.743412
-0.582084
0.279003
0.0773168
-0.463825
0.534919
0.112568
-0.783988
-0.0820751
-0.824358
-0.253829
-0.456788
0.346711
-0.710693
0.82349
-0.537271
0.54323
-0.393192
-0.949645
0.634033
-0.719393
0.979696
0.706447
-0.319311
0.406088
0.406988
0.134381
-0.841675
0.0336716
-0.586922
-0.263163
-0.624915
-0.900787
0.956358
-0.129616
0.770344
-0.935619
-0.175546
0.397943
-0.728926
-0.684557
-0.864981
-0.111772
-0.810424
0.205593
0.269226
0.774229
-0.587231
0.370215
-0.49232
0.854174
0.569936
-0.245589
-0.805817
0.536345
0.894125
0.071267
-0.423807
-0.404953
0.734289
0.0375707
-0.479252
0.636467
-0.919611
0.0652923
-0.14634
0.7637
-0.647543
0.768466
-0.582429
-0.734907
-0.252168
0.396861
0.532534
-0.356754
0.640777
-0.112254
-0.968468
-0.451153
0.0822896
-0.534306
0.686649
0.918908
-0.619513
0.201872
0.869674
0.853775
0.341384
-0.45005
0.53821
0.849751
0.944473
0.81062
-0.541366
-0.532275
-0.863248
0.727154
0.480083
0.927125
0.577797
0.248019
-0.174791
-0.435414
0.989073
-0.0419505
-0.914139
0.714915
-0.90943
-0.892721
0.883773
-0.983619
0.691339
-0.332582
-0.887605
0.102593
0.4879
-0.867511
-0.187136
-0.892652
0.339867
-0.427514
-0.170266
-0.0532338
-0.0459371
0.0245018
-0.842071
-0.0374116
-0.652444
0.622622
0.30386
0.209428
0.449708
0.447003
-0.757069
-0.494994
0.91873
0.622729
-0.0401822
-0.70249
0.296027
-0.225196
0.531295
0.259225
0.714238
-0.0841208
0.00197906
-0.462956
-0.583307
-0.129208
0.880581
0.050122
-0.370411
0.263611
0.816879
-0.689842
0.740797
-0.733916
0.612711
-0.19581
0.314012
0.350286
0.660155
0.033004
-0.731454
0.228344
-0.0456407
0.506483
0.178905
0.929859
0.54595
0.182499
0.721579
0.901152
-0.491308
0.477039
0.977273
-0.64634
0.813472
-0.2953
-0.225445
0.492244
-0.317607
0.81225
-0.0783431
-0.743549
0.274408
-0.980824
0.0848981
-0.883397
0.951382
0.485805
0.315451
0.769637
-0.309176
0.0394228
-0.880708
-0.5943
0.353957
0.00562647
-0.406396
-0.722566
-0.821145
-0.43274
-0.999642
0.555952
-0.70564
-0.298335
0.35226
0.0788363
0.149655
-0.4517
-0.287186
0.737262
-0.00648184
0.231731
-0.696482
-0.918244
0.281113
0.524517
0.934316
0.968769
0.537889
-0.514154
0.081998
-0.743566
-0.111135
-0.658901
0.644816
0.251941
-0.307385
-0.357517
0.166467
-0.0892524
0.934344
-0.779679
-0.529237
0.816119
-0.930597
-0.0714596
0.158528
0.384652
-0.388398
0.817733
0.425094
-0.761206
-0.919893
-0.841673
-0.472569
-0.0486024
0.481679
-0.988769
-0.450208
0.151233
0.954834
-0.930134
0.0347636
-0.574695
-0.761359
-0.771094
0.218383
0.0390808
0.983322
0.299059
-0.121328
-0.777943
-0.519638
0.467646
0.756512
-0.346765
0.577661
-0.968796
0.201926
-0.120148
0.0144933
0.177105
0.780783
0.798462
-0.0560049
-0.115656
0.845527
-0.849596
0.292151
0.0797788
-0.439913
0.244687
-0.824994
0.816342
0.278582
-0.326003
-0.106683
-0.946802
-0.00373055
0.643562
-0.88945
0.639883
0.586814
0.354065
-0.70833
-0.731203
0.261377
0.490905
0.963601
-0.199089
-0.0378335
0.751441
-0.988319
-0.267701
0.847389
-0.875911
0.239359
-0.695425
-0.213836
0.528505
0.609405
-0.488445
-0.572913
-0.0418042
-0.30927
0.727405
-0.864324
0.793535
0.224215
-0.091254
-0.368808
0.409892
-0.215228
0.161181
0.295993
-0.465401
-0.208234
0.0105475
-0.339858
0.504295
0.0183352
0.516045
-0.331248
-0.493882
-0.910402
-0.97961
0.282076
-0.298083
-0.817518
0.856625
0.320894
0.99901
0.894443
-0.238763
0.358171
-0.655548
0.847284
-0.853888
-0.433316
0.987497
0.389042
-0.709353
0.880544
-0.836824
0.261375
-0.505385
-0.858381
-0.633708
0.477961
-0.622231
0.511474
-0.141538
0.233409
0.950636
0.173431
-0.38877
-0.589319
-0.529234
-0.0281239
0.646968
0.312637
-0.870812
0.287437
0.515345
-0.910993
0.401205
0.503832
-0.816341
0.346863
-0.966943
0.722027
-0.853671
0.19672
-0.963012
0.176202
0.939691
-0.692194
0.245377
-0.750079
-0.000102814
-0.470448
-0.814018
-0.818765
0.0567555
-0.708813
-0.36672
0.293826
0.408102
0.354948
-0.160881
-0.728139
-0.538962
-0.732495
0.395254
-0.118682
-0.79875
-0.185742
-0.133441
0.0193922
0.462289
-0.978434
-0.229476
0.706546
0.953965
0.477889
-0.980454
-0.344105
-0.408022
-0.557492
0.597369
-0.573546
-0.224991
0.147567
-0.324243
0.486016
0.812385
0.424499
0.414383
0.402952
-0.947099
0.129414
0.804497
-0.987622
-0.352285
0.415289
0.750017
0.950194
0.947701
-0.673403
0.594111
-0.580848
-0.860657
0.844956
-0.176411
-0.807025
0.398048
0.882158
0.0954898
-0.612195
-0.39684
-0.458642
-0.267364
0.595836
0.0973036
0.0608836
0.836493
0.888945
0.122203
-0.402963
-0.333931
-0.663489
-0.130867
-0.865959
-0.148502
0.0277003
0.669225
-0.254649
-0.486378
-0.0530687
0.340753
0.522473
0.916595
-0.830927
0.738237
0.520338
-0.852072
0.615614
0.111193
-0.365945
0.704482
0.398124
0.511848
0.539652
0.750084
-0.91947
-0.244459
0.226468
-0.531787
-0.816882
-0.56942
-0.346939
-0.589558
-0.74905
-0.697026
0.509465
-0.631875
0.796121
-0.176112
0.71072
-0.817583
-0.468271
0.0133423
0.230108
-0.2574
0.448838
0.336572
-0.0166709
-0.73793
0.440938
0.270735
-0.970966
0.947326
-0.771707
0.306872
0.341501
-0.634636
0.133499
0.00990404
0.793287
-0.0224488
-0.121597
-0.394973
0.266096
-0.130559
-0.689417
0.292681
0.0030833
-0.918932
-0.943073
0.52793
-0.613389
-0.976472
0.183563
0.665333
-0.695802
-0.140884
0.592789
-0.0801501
0.341963
0.0774903
-0.117968
-0.793055
0.937942
-0.955337
-0.567877
0.954229
-0.629562
0.654068
0.0688117
-0.567392
-0.886414
0.395158
-0.48008
-0.797091
-0.74084
0.106319
0.619732
-0.263362
-0.992596
-0.266522
-0.377801
0.625409
-0.171607
-0.182419
-0.313384
0.677384
0.978723
-0.166351
0.543716
0.486255
-0.0980972
0.346765
-0.542055
-0.364301
0.352464
0.845343
0.310841
0.191557
-0.86295
0.0566621
-0.419644
0.590078
0.873047
0.8751
0.450503
0.0614865
-0.622128
-0.665253
-0.378914
0.603581
-0.481959
-0.472644
-0.000597855
-0.913828
0.617344
0.92079
0.363505
-0.145203
0.533834
0.917588
0.341736
0.449255
-0.00356455
0.118661
-0.769345
-0.326175
-0.257521
-0.519733
0.196348
-0.543505
0.770794
0.906567
-0.608661
-0.299365
0.131005
-0.63039
-0.00349747
-0.0682946
0.274335
-0.510689
-0.403973
0.0227488
0.416772
-0.235206
-0.54847
-0.0243995
-0.409515
-0.0164585
0.903043
-0.248699
0.218594
0.435636
-0.55992
0.240114
-0.124321
0.932833
0.64769
-0.987854
-0.831662
0.910561
0.676709
0.34757
0.910391
0.840505
-0.648532
0.791727
-0.685433
0.495327
-0.967674
0.23586
-0.191627
0.209535
-0.174486
0.76753
0.685583
-0.0941644
-0.888226
-0.178994
-0.296346
-0.0899369
-0.360002
-0.165098
-0.434077
-0.970746
0.233606
-0.864584
0.570264
-0.719802
0.831649
0.263241
0.454156
-0.555855
0.639804
0.963542
0.324809
0.140874
0.631936
0.180454
0.0184889
-0.628333
-0.414977
0.6657
0.0531145
-0.857912
0.844771
-0.843132
0.0712629
0.663863
0.733132
0.842459
-0.852869
0.229377
0.0803654
0.25217
0.161993
-0.21314
0.982666
0.442438
0.160163
0.530881
0.810445
-0.727466
0.945617
0.562452
0.70408
0.0948147
-0.62074
0.609288
-0.194657
-0.310046
-0.261119
-0.346368
-0.675703
-0.688025
-0.501221
-0.908677
-0.820376
-0.00240018
0.902528
0.0232248
0.75169
-0.46812
0.825597
0.418979
0.788434
0.832766
0.831292
0.943622
-0.0402479
-0.458242
0.418277
-0.823862
-0.599532
-0.169197
-0.220078
-0.675768
-0.291775
0.318929
-0.124442
0.556517
0.624286
-0.931125
0.370547
0.718255
0.531977
0.468708
0.561244
-0.262578
-0.874522
0.491791
-0.805888
0.512891
0.452997
0.497411
0.953364
0.836129
0.00166148
-0.957895
0.0726091
-0.956731
0.701469
-0.192242
0.173556
0.367586
-0.981712
0.473354
-0.0625536
-0.894546
-0.955779
0.179127
0.055874
-0.284454
0.28283
0.15225
-0.178799
0.492497
-0.409643
-0.34211
-0.176434
-0.333033
0.465429
0.0644423
-0.641614
0.3078
-0.526284
0.779004
0.436516
0.306661
0.082643
-0.665327
-0.743247
0.892463
0.829608
0.802713
-0.80155
0.859994
0.781459
-0.0213204
0.663877
-0.658594
0.745068
-0.244254
0.313337
0.40761
0.364008
0.60425
0.42417
-0.32184
0.57071
0.13364
-0.66791
-0.531566
0.624838
0.987584
-0.224535
-0.256627
-0.294453
0.637232
0.0872146
0.615625
-0.431827
-0.529898
-0.27696
0.566859
0.735719
0.557378
-0.231697
0.634581
-0.61985
0.965187
-0.0881505
-0.450376
0.0496678
-0.01814
0.36925
0.0432063
-0.805025
-0.333608
0.541138
0.703158
0.151796
-0.253799
0.857309
-0.0557962
-0.215803
0.601816
-0.543876
0.649757
-0.537202
-0.150709
-0.335664
-0.3846
-0.262527
0.981733
0.762501
0.187565
-0.973309
0.407582
0.542641
0.957071
-0.399689
0.85327
-0.627487
-0.812157
0.599197
-0.773055
0.782871
-0.295382
-0.228171
0.873315
-0.655973
-0.23711
-0.865492
-0.326515
0.30558
-0.455779
0.402894
-0.0742927
0.304384
0.456053
-0.76962
0.431898
-0.277018
0.494291
0.860914
-0.959216
0.982291
0.207314
0.504533
-0.827105
0.31311
0.971206
-0.276516
-0.816695
-0.0320725
0.162034
0.568641
-0.568053
-0.174925
0.295825
-0.290183
-0.773986
0.706841
-0.522219
0.92647
-0.958193
-0.117047
-0.940081
0.0236565
-0.636176
0.320852
-0.618219
0.334432
-0.945529
-0.0183404
0.0628031
0.766705
0.437111
-0.564369
-0.651211
0.967592
-0.467006
0.830188
0.00904709
-0.201931
0.72756
0.969278
-0.0799693
0.180209
0.930362
0.518857
0.61129
0.752836
0.208275
-0.155183
-0.456436
0.682217
0.532749
0.203012
-0.253176
0.486856
-0.285912
0.703717
-0.666096
-0.554689
-0.269256
0.213813
-0.85459
0.690134
-0.162783
0.969132
-0.147712
-0.392233
0.294627
-0.241732
-0.12136
0.852973
0.963584
-0.428945
-0.999874
-0.200032
-0.132227
0.886428
-0.455486
0.868451
-0.979025
-0.671929
-0.466758
-0.879544
0.638313
-0.589371
-0.095322
-0.607866
-0.410565
-0.257702
-0.874656
0.422638
-0.417709
0.487029
-0.713535
0.133464
-0.235361
-0.263532
0.891719
0.865199
-0.94517
0.32341
-0.654038
0.714345
0.259026
0.257172
0.476059
-0.316178
0.450352
-0.427704
-0.702032
0.838608
-0.710891
0.775955
-0.106058
0.39613
-0.514729
0.375243
-0.333519
-0.810601
0.00953052
-0.311165
0.659098
-0.614643
0.0428246
0.729717
0.12682
-0.956182
0.143556
0.224841
0.431736
0.0422637
0.36476
-0.442216
-0.25782
0.203289
0.759786
-0.267945
-0.713509
0.320866
-0.0641956
0.0953299
-0.587542
0.571222
-0.714659
0.896792
0.172508
0.927563
-0.413414
-0.0337883
0.626703
-0.640321
0.682314
0.0518688
-0.067315
0.233744
-0.666823
-0.2433
0.891712
0.827733
0.564713
-0.572983
-0.355727
-0.47892
-0.49018
0.571711
-0.254746
-0.0737118
0.191736
-0.735261
-0.389806
0.647257
0.695143
0.450844
0.257491
-0.640933
0.488742
-0.391815
-0.356159
-0.788129
-0.85504
-0.145055
0.320825
0.653792
-0.638782
-0.61536
-0.345176
-0.588176
-0.311722
-0.327672
-0.618036
0.114558
0.537042
-0.161726
-0.847561
-0.283833
0.344138
-0.954995
-0.801443
-0.901205
-0.136387
-0.972422
-0.0115527
-0.125351
0.142417
-0.375276
-0.303382
-0.957274
-0.336075
-0.430629
-0.138441
-0.910432
0.187118
-0.572724
0.280187
-0.0128999
0.10419
-0.390481
0.882538
0.376733
0.209611
0.377311
0.782341
0.117822
0.698271
-0.0312583
0.630772
-0.00364473
0.710163
-0.721829
-0.821929
0.183719
0.962511
0.936377
0.55608
-0.364916
-0.139104
0.903873
0.789323
-0.969267
0.861994
-0.545243
0.540789
0.404052
-0.522931
0.547483
0.134318
-0.113999
0.643658
0.0619339
0.532991
0.0531277
-0.979359
-0.105007
0.78775
-0.873854
-0.372253
0.271865
0.129657
0.0667667
-0.0152041
-0.673905
0.520951
0.705878
0.119755
0.662421
0.293765
-0.943218
-0.834247
-0.599289
-0.465767
-0.788172
0.479623
0.77888
-0.111228
0.641518
0.330287
-0.337087
-0.0381433
-0.202402
-0.981958
-0.984711
0.599538
0.550221
-0.713578
0.387156
0.96279
-0.110988
-0.797028
0.287377
-0.194705
0.714308
0.383396
0.59482
0.832168
-0.426996
-0.121594
-0.468515
0.633858
-0.283528
-0.182262
0.160423
-0.114611
-0.598623
-0.858171
0.380387
-0.396042
-0.317181
0.770555
0.1639
-0.378931
-0.403656
0.479319
-0.686802
0.558763
0.155397
-0.899006
0.5569
-0.331033
-0.900538
-0.120494
0.42816
-0.777093
-0.0575811
0.704983
0.382409
0.702413
-0.751328
0.305577
0.141106
0.981478
0.895947
-0.592287
0.344168
0.679604
-0.214275
-0.411109
-0.538808
-0.213782
0.926699
-0.681238
0.221232
-0.839087
-0.269316
0.60479
-0.344691
-0.167954
-0.522247
0.0165855
-0.926111
0.765828
-0.0479047
0.0100815
0.752535
0.224552
0.951528
0.88879
0.706287
-0.723897
-0.958988
-0.364121
0.689791
-0.76971
0.346773
0.390174
-0.671243
0.31956
0.815203
0.931359
0.8467
0.0766728
-0.698545
0.198337
-0.151717
-0.705231
-0.0400384
0.623176
-0.323747
0.672567
-0.307148
0.985632
0.998205
-0.983516
0.538368
0.175787
-0.566053
0.741325
0.672199
0.321658
-0.458127
-0.788225
0.628642
-0.646969
-0.412258
0.809666
0.0604601
0.421657
0.87188
-0.137866
-0.610627
-0.862781
-0.597973
0.547794
0.669665
-0.0209442
-0.291813
-0.210667
0.0598342
0.439719
-0.836352
0.724104
-0.832592
-0.650828
-0.032152
0.0230509
0.801697
0.917983
-0.240465
0.601827
0.470739
0.465501
0.261837
0.136453
-0.751105
0.689868
0.41382
-0.481857
0.329816
-0.764927
-0.311484
0.870293
0.717246
-0.130493
-0.561583
0.131233
-0.731953
0.869053
-0.401837
0.682284
-0.107045
-0.450743
0.443974
0.191032
0.127287
0.825208
-0.075484
0.270059
-0.226412
-0.63942
0.434241
-0.846905
0.940024
0.620939
-0.0753202
-0.798207
0.882118
-0.0504014
-0.400156
0.421017
0.712585
-0.228385
0.808398
0.429197
0.787977
-0.33283
-0.00588648
0.348143
0.55953
-0.622752
0.556144
0.489682
-0.579493
0.957697
-0.50765
-0.610932
0.6895
-0.0925409
-0.428474
-0.991798
-0.0735326
-0.642115
-0.0302525
-0.457495
0.457726
0.389175
-0.889606
-0.955162
-0.0198163
0.548183
-0.0213896
-0.658958
-0.531453
0.702707
0.280277
-0.604803
-0.367852
-0.399103
0.806437
0.472552
0.870939
0.393231
0.480646
0.266904
0.134595
-0.376103
0.662295
-0.359673
0.91389
-0.705504
0.363509
-0.169114
0.814757
0.313559
-0.223408
0.514154
0.714517
0.51906
-0.274367
-0.416151
0.714471
0.328119
-0.171873
-0.896066
0.22749
0.539741
-0.0847908
-0.231414
-0.77602
0.315563
-0.214774
0.903322
0.108165
-0.538988
-0.73925
0.283046
-0.649284
-0.599329
-0.357468
-0.20397
0.572785
0.353706
0.213377
-0.0318376
-0.135103
-0.561142
-0.762234
0.872361
0.541596
0.408432
-0.690159
-0.120111
0.820525
-0.155351
-0.155231
0.953466
0.287682
0.173159
-0.0496852
-0.876632
0.296366
0.270287
0.744607
0.710221
0.185944
0.965718
0.701932
-0.687396
-0.144468
0.675267
-0.984105
0.917303
0.320074
0.858328
-0.745101
-0.775008
-0.0233298
0.506915
-0.983898
0.580143
0.512988
-0.13051
0.909704
-0.926508
0.824161
0.931022
0.355623
-0.573254
-0.372043
-0.445043
-0.539306
0.307414
-0.630378
0.793472
-0.324403
0.0590507
-0.452583
-0.291639
-0.253876
-0.984838
-0.699979
-0.371091
0.956759
-0.436914
0.06892
-0.192799
0.0533325
-0.976613
-0.459069
0.0933111
-0.069383
0.218173
0.665615
0.203214
-0.0667632
-0.40609
-0.97643
-0.689446
0.303916
0.0409672
0.438655
0.108625
0.613482
0.0296478
-0.597319
-0.989302
0.385355
-0.392645
0.235312
0.944284
0.974631
0.444288
-0.805829
0.173964
0.673372
0.180815
0.834037
0.791136
-0.391621
0.304728
0.799344
-0.998029
0.301085
0.438478
0.586862
-0.277324
0.702762
0.794149
0.457816
0.880828
0.439967
-0.51266
0.0892858
0.381236
0.149191
0.00164102
-0.6318
-0.886024
-0.203651
-0.214392
-0.744358
0.238771
-0.618326
0.32279
-0.881866
-0.837106
-0.545384
-0.202261
0.799519
-0.35347
0.909213
-0.643346
0.0547124
-0.31692
-0.717962
-0.158669
0.582599
-0.216742
0.223897
-0.587711
0.198211
-0.427693
-0.356916
0.0649619
0.366308
-0.531971
-0.307666
0.442626
0.380329
0.591794
-0.680524
0.50119
-0.00879284
0.350536
-0.561903
-0.749341
-0.439673
0.757851
0.583635
-0.811973
0.034789
-0.109582
0.735343
0.265878
0.207688
-0.588405
0.370139
-0.164733
-0.901288
0.00340464
0.86594
0.392321
-0.080033
-0.846606
0.21685
-0.016754
0.308548
0.02253
-0.68142
-0.473796
-0.577631
-0.790773
-0.480739
-0.758759
-0.0327776
-0.498316
-0.0863048
0.929046
0.89774
0.769434
0.243444
-0.606499
0.155627
-0.465888
-0.211645
-0.15596
-0.73912
0.305529
-0.10786
0.757956
-0.466708
-0.845598
0.672139
-0.963363
0.136356
0.73967
-0.636351
0.120354
-0.366308
0.973244
-0.783288
-0.490323
-0.192429
-0.448454
0.33742
-0.00333718
0.543343
-0.800483
-0.416776
-0.705924
-0.42453
0.869418
0.0897974
-0.109918
-0.740598
0.0189213
-0.920821
0.882261
0.897725
0.946914
-0.714997
0.322853
-0.465575
-0.241206
0.296598
0.832628
0.469159
-0.585443
-0.808117
0.540598
-0.627766
0.312797
-0.522144
0.93912
0.0445152
-0.406794
-0.778268
0.198312
0.215246
-0.234481
-0.308249
0.62658
0.580749
0.861275
-0.669603
-0.370201
0.589116
-0.673498
0.0219671
-0.515476
0.649054
0.889415
-0.943081
-0.0171781
-0.208686
0.645014
-0.169997
0.911349
0.797216
0.816597
0.0597727
-0.432785
0.486259
-0.519044
0.032849
-0.567254
-0.337247
-0.328558
-0.670994
-0.702704
-0.861014
0.817588
-0.304869
-0.236638
0.186402
-0.705812
-0.240275
-0.119792
0.735517
-0.300262
0.31999
-0.0355003
-0.816977
0.483147
-0.0230778
0.00395159
0.335198
-0.785998
0.207882
0.56258
-0.0839654
0.577039
0.599602
-0.86279
-0.676612
0.903755
-0.752387
0.432876
0.585134
0.477416
-0.628024
0.164424
0.439266
0.112446
0.768074
-0.603487
0.544038
0.357712
0.672031
0.263378
-0.473177
-0.594519
0.711523
-0.938286
-0.23757
-0.142396
0.68913
-0.625178
0.799902
0.300803
-0.0552487
0.612097
0.831357
0.870527
0.594319
-0.710987
-0.289918
0.693931
0.708559
-0.669475
-0.631276
0.433725
0.635764
-0.638111
0.478072
0.996011
-0.511556
-0.741408
0.267725
-0.551917
-0.0498445
0.377657
-0.926287
0.491411
-0.615632
0.591151
0.238651
-0.515846
-0.639028
-0.0244345
0.476834
0.0707436
-0.816561
0.545504
0.395938
-0.450765
0.732258
0.305519
0.360954
0.817062
-0.723897
0.960199
0.773078
-0.759124
0.0852359
-0.519049
0.75137
0.285638
-0.637576
-0.643391
-0.729063
-0.560958
-0.0671521
-0.258252
-0.428795
0.156509
0.569659
-0.642054
0.966211
0.49338
-0.577151
0.127624
0.111991
-0.568883
0.0586399
-0.315992
-0.857151
-0.366845
-0.183093
0.550751
-0.588654
-0.797819
0.173319
0.215282
0.361703
-0.786564
-0.666356
0.262735
0.289798
-0.926792
-0.699778
0.557685
-0.353659
0.764019
0.182273
0.419699
0.317326
-0.980237
0.651067
0.0427227
-0.827361
-0.221365
0.701401
0.176887
-0.904016
-0.60105
0.836621
-0.150314
0.964766
-0.741146
0.54141
0.0834154
0.685916
-0.182259
-0.428433
0.00505084
-0.25686
0.973462
0.831402
-0.812394
-0.116194
0.739891
0.1164
0.658777
-0.0110919
-0.0375123
0.685069
0.992384
0.820032
0.736634
-0.841633
0.814337
0.000136622
-0.966753
-0.30077
0.141581
-0.109512
0.409943
0.920048
0.395641
0.451061
0.737102
0.00739864
-0.121538
-0.283196
-0.671356
-0.638319
-0.40124
0.362897
0.927546
0.0235075
0.651279
0.897489
-0.630284
0.800855
-0.902903
0.34286
-0.251079
0.455024
-0.126398
0.546896
-0.190003
0.123028
0.722199
-0.450645
0.812473
-0.797177
0.49356
-0.669292
-0.28144
0.21539
-0.461397
-0.179277
0.0355472
0.35024
-0.185827
0.171178
-0.467958
-0.679366
0.452528
0.33987
-0.819897
-0.71981
0.0213999
0.235729
-0.337431
0.518446
0.726058
0.687631
-0.148676
-0.480663
-0.249765
0.0971895
0.879122
0.161803
-0.510182
-0.979597
-0.399414
-0.483754
-0.640971
-0.421942
0.578578
0.700914
0.479021
0.406303
0.524469
0.915577
-0.746456
-0.0346021
-0.417158
0.425145
-0.0596141
-0.843435
-0.857821
0.230655
0.155041
-0.498055
-0.00964014
0.602956
0.741757
-0.924808
0.455805
-0.75082
-0.177268
-0.50049
-0.721659
-0.58646
0.993777
0.619513
-0.285048
0.887161
0.927599
-0.563694
0.923642
-0.297129
0.583931
-0.863821
0.509068
-0.512289
0.974883
-0.362097
0.688044
-0.91276
-0.683478
-0.841166
0.679346
-0.508454
-0.607784
0.514019
-0.615361
-0.605422
-0.805469
-0.0952675
0.356162
-0.366461
-0.701439
-0.808557
0.0441019
0.49866
-0.892319
-0.173419
0.859524
0.390929
0.0949721
-0.284343
0.487828
-0.0947279
0.209809
0.201987
-0.34612
-0.273408
0.438079
0.898991
-0.857654
-0.89156
-0.368088
0.149119
-0.687409
0.838926
0.470767
0.195257
0.376331
0.919151
-0.637883
0.67713
0.39621
-0.71884
0.780475
0.872488
-0.858435
-0.702091
0.201887
0.0982768
-0.442719
0.577348
0.122397
0.724001
-0.30398
-0.794444
0.13964
0.337926
-0.402363
-0.764698
-0.505696
-0.587418
-0.631932
-0.261888
-0.638597
-0.838487
-0.759791
0.487791
-0.619585
0.642934
-0.150306
0.565472
0.0294289
-0.817441
-0.481766
-0.478894
-0.877553
0.374346
0.148518
-0.272743
-0.249553
0.133523
-0.536931
-0.0632767
-0.587042
0.846229
0.0824667
-0.25844
0.393742
0.956159
0.27742
-0.624539
-0.222894
0.836696
0.818225
0.614693
0.232158
0.991281
0.18312
0.0798238
-0.800028
0.940464
0.394132
0.189327
0.311398
-0.481965
0.926561
0.0250896
-0.0451123
0.584872
-0.122867
0.0968021
0.161525
0.454483
-0.0908194
-0.558076
-0.807453
-0.186231
-0.225644
0.203615
-0.477757
-0.397306
-0.0508079
-0.644861
0.831576
0.454758
0.287291
-0.318447
0.596841
-0.0545763
-0.103676
-0.385209
0.711065
0.377851
0.681815
0.704978
0.057731
0.265935
-0.708237
-0.911855
0.217276
0.754044
0.446191
0.338349
0.499417
0.583219
0.0363265
-0.287229
-0.567039
0.559637
-0.285435
0.149925
-0.25113
-0.425785
0.256074
0.701205
0.187052
-0.85348
0.449006
-0.148045
0.214909
-0.118701
-0.278685
-0.752571
0.785953
-0.900797
0.620871
0.596042
-0.171146
-0.133365
-0.933265
0.685896
0.560074
0.842783
-0.328647
0.621141
-0.510958
-0.0680773
0.845737
-0.444083
0.764586
0.92573
-0.452537
-0.77107
0.328367
-0.237316
0.900911
-0.509096
-0.7402
-0.254868
-0.721903
0.436261
-0.687006
0.970822
0.32565
-0.478331
0.586717
0.692585
-0.311111
0.656051
0.691367
-0.438453
0.429076
0.314074
-0.128109
0.386081
0.410759
-0.752889
0.549032
-0.966704
-0.292596
-0.709721
-0.191347
0.247711
-0.883878
0.482976
-0.207749
0.382152
0.681244
-0.27581
-0.510471
0.288647
0.409689
0.951278
0.926255
-0.611128
0.481682
0.780258
0.0822828
0.340952
0.703573
-0.722638
0.671403
0.20469
0.678659
0.256389
0.865131
0.562794
0.518993
-0.525982
0.144762
-0.619773
-0.686581
0.134479
-0.024919
0.993712
-0.757721
-0.579038
-0.737441
0.0517436
0.306316
0.330178
0.100483
-0.963234
0.641818
0.166138
-0.720825
0.291099
0.75754
0.698337
0.773653
0.363692
-0.410655
-0.461831
0.892191
0.654129
-0.230048
0.846951
-0.887977
-0.557174
0.104036
0.241789
0.451841
-0.365993
0.682892
-0.0201058
-0.0137862
-0.696462
-0.358463
0.800772
-0.75639
-0.625939
-0.599597
-0.149033
0.775633
-0.60823
0.169312
0.0993291
0.391678
0.671705
0.682203
0.967401
-0.0690086
-0.0114971
0.00465403
0.13912
-0.944737
-0.551691
0.797301
0.0578001
0.214263
-0.573701
-0.611655
-0.755468
0.0102859
0.988164
0.381742
0.286671
-0.646589
-0.439173
-0.53237
-0.00121615
0.763751
0.631296
0.641229
0.470297
-0.574658
-0.0575111
0.240293
-0.490399
-0.103306
-0.312706
-0.325021
0.305142
-0.7159
-0.600838
0.0745714
0.287932
-0.984371
-0.922216
-0.528866
0.441137
0.727733
-0.793377
0.770308
0.311282
-0.791556
0.0850362
0.0062008
-0.655186
0.288808
0.271065
0.970508
0.378673
-0.693834
-0.631532
0.557004
-0.626947
-0.181621
0.627959
-0.896608
-0.187738
-0.940462
0.723468
-0.457467
-0.273412
0.290595
-0.694521
0.352886
0.654333
0.656981
0.575555
0.144175
0.706667
0.853181
0.0736761
-0.778633
0.515367
0.945797
0.539101
-0.0644323
-0.234252
-0.75655
0.498562
0.315257
0.787127
0.234067
-0.641977
0.729048
-0.175844
-0.543228
-0.787837
0.671509
-0.291178
-0.737915
-0.393223
-0.647403
-0.209522
-0.8278
0.14237
0.931251
-0.713058
-0.179464
0.422216
0.943023
-0.648322
0.970724
-0.463377
-0.134736
-0.200223
0.0401006
-0.666021
-0.570521
-0.367832
-0.180394
-0.0617432
-0.712682
0.203283
0.369601
0.340119
0.980106
-0.393594
-0.896209
0.114591
0.80312
0.978829
0.399937
-0.700694
-0.16179
0.435752
-0.273891
-0.568788
-0.530771
0.673595
0.55228
0.299407
-0.469425
0.297378
0.20111
-0.725014
0.600948
0.330123
-0.623882
-0.306917
0.719133
-0.740605
0.0765089
0.621399
-0.281264
0.49881
0.708024
-0.539809
-0.840623
0.14422
-0.538472
-0.19986
0.959268
0.395049
-0.479938
-0.157974
-0.924198
0.656919
0.966498
-0.612522
-0.514158
-0.0354615
0.0246931
0.280974
0.115586
-0.557622
-0.364683
-0.535973
0.8728
-0.310396
-0.46717
0.143428
0.796934
0.434279
0.52623
0.673082
-0.46689
0.612463
0.91662
0.81363
0.166699
0.922342
-0.802089
-0.445603
-0.235896
0.129406
-0.755618
0.519082
-0.653967
0.0989731
-0.189696
0.443571
-0.0932264
-0.0142596
-0.914449
-0.386619
0.0657812
-0.220278
0.198896
0.766122
-0.783273
0.322356
0.898064
-0.313443
0.679097
0.266984
0.464403
0.241718
-0.961196
-0.995029
-0.219342
0.533761
-0.546519
0.517525
-0.283647
-0.278143
-0.685685
-0.569897
-0.863573
-0.553935
0.824847
-0.49121
-0.958907
0.771329
-0.790301
0.494934
-0.0694055
-0.714398
0.240697
-0.144194
0.436244
-0.909312
0.308322
0.846377
0.703456
0.607306
-0.476626
-0.509975
-0.376921
-0.255383
-0.402352
0.36376
0.198447
-0.053298
0.841473
0.647239
-0.769041
0.724116
0.268567
0.482067
0.243408
0.711106
0.865825
0.0990447
-0.626468
-0.6938
-0.313169
0.782143
0.48096
-0.61418
0.172695
0.578631
0.945159
-0.176052
-0.346804
-0.922492
0.151087
0.474294
0.276419
-0.302523
-0.884614
0.53183
-0.816173
-0.070641
0.379992
0.889092
0.00796707
0.545534
0.896992
0.0927646
-0.24502
-0.460001
0.634887
0.797659
-0.091697
0.522155
0.819572
-0.125909
-0.251022
-0.612693
0.632236
-0.626668
0.0589064
0.664815
0.65106
0.872577
0.714344
0.245106
0.955353
0.940682
0.377357
-0.140268
0.339027
0.502253
0.879608
-0.726366
0.290892
0.811133
-0.0484752
0.657823
0.781356
0.104402
-0.89878
0.29574
0.371545
-0.408038
-0.0122981
-0.549246
-0.816893
0.567571
-0.136341
-0.704875
0.17929
0.207734
0.559009
0.253035
-0.750352
0.507517
0.263639
0.92865
-0.91571
0.514189
-0.150594
0.419295
-0.878694
0.0714085
0.663531
-0.0686237
0.676928
0.587657
-0.238089
0.707046
0.41424
0.097823
-0.214809
0.865897
0.691939
0.0825661
-0.377649
-0.56725
-0.414746
-0.586012
-0.177834
-0.344507
-0.0817631
-0.543038
0.724396
0.842886
-0.671897
-0.896649
-0.531463
-0.970423
0.942372
-0.537435
-0.466917
0.493532
0.838502
0.415694
0.469117
0.0536706
-0.26938
0.130243
0.969744
0.811292
-0.816065
0.747965
-0.625511
0.0756584
-0.385069
0.120787
-0.0658901
-0.806594
-0.696003
-0.198055
-0.342109
0.342249
-0.374602
-0.712947
0.110261
0.802652
-0.667458
-0.0543032
0.401594
-0.343407
-0.977541
-0.885841
0.979529
-0.60662
-0.33729
0.381625
-0.0253381
-0.473878
0.230318
0.250313
0.28242
0.19682
-0.0672502
-0.625206
-0.0237171
-0.273572
0.188593
-0.8938
-0.467237
-0.841406
0.604958
-0.891334
0.473096
0.717988
0.195295
-0.690323
0.93941
-0.421441
-0.337561
-0.268978
0.254201
-0.107873
-0.11475
0.0668657
-0.727356
0.298289
0.98285
-0.119601
0.79729
0.220126
0.413604
-0.791235
0.537372
0.386322
-0.471197
0.200203
0.446295
0.477108
0.030745
-0.941445
-0.299511
-0.656953
0.170882
0.680297
0.0917511
0.225607
0.640031
0.53863
0.870912
-0.611453
0.052602
0.612265
-0.845161
0.112066
-0.379398
0.777079
-0.98341
0.382739
-0.106531
0.158198
0.945955
-0.644503
0.99512
-0.34465
-0.661977
-0.281225
-0.998188
-0.895243
0.170712
0.665561
0.326969
0.85987
-0.812574
0.247735
-0.278152
0.525132
-0.76636
0.736372
-0.0702097
0.257507
0.337835
0.275406
0.469104
0.586661
0.515736
0.930361
0.443835
0.754621
0.856356
0.308966
-0.172351
0.828883
0.369374
-0.863428
-0.340922
-0.875322
-0.479864
-0.607575
-0.094819
0.629846
0.988737
0.536906
0.922925
0.293314
0.736255
-0.438938
-0.291923
-0.800888
-0.235904
0.97471
0.489354
-0.687306
0.886166
0.282747
0.562856
-0.991576
-0.216259
0.652344
0.269181
0.184262
-0.00372185
-0.564288
-0.545825
-0.107909
-0.508613
-0.203195
0.593212
0.399081
-0.778759
0.983032
0.940718
-0.354435
0.653254
0.26485
-0.703527
-0.968351
0.693173
-0.143891
0.744323
0.357836
-0.236785
0.25167
-0.215089
-0.769494
-0.347724
0.307706
-0.799236
-0.856778
0.746423
-0.617877
-0.410494
0.238274
-0.465825
0.191898
0.390604
0.0741224
-0.94817
0.381127
-0.589085
0.30532
0.864772
-0.0899651
-0.3151
-0.0576422
-0.936415
-0.524058
-0.0172992
-0.731916
-0.0596396
0.958734
0.329892
0.736568
0.206284
-0.125396
0.512509
0.838491
-0.3073
0.496041
0.970607
-0.961836
0.658782
0.29657
0.666703
0.74447
-0.781388
0.493965
-0.867426
-0.054131
-0.475279
0.0120677
-0.589806
0.574252
-0.736255
-0.505844
-0.282447
0.471191
0.40783
-0.588492
0.630415
-0.781833
0.376282
-0.647585
-0.504149
-0.954094
-0.694563
-0.18604
0.208015
-0.175364
0.166909
-0.652889
-0.187164
-0.194262
-0.6626
-0.148052
-0.496206
0.665945
-0.114177
-0.157549
-0.829896
0.609284
-0.559829
0.288597
-0.0883767
-0.76515
0.201949
-0.181481
-0.581674
-0.101587
-0.574933
-0.397045
-0.124905
0.0899453
0.58491
-0.894321
-0.338421
-0.991386
0.4559
0.482686
-0.829114
0.759853
-0.133697
0.508423
0.659314
0.488476
-0.831387
0.306832
-0.874007
-0.45435
-0.753556
0.36878
-0.356984
0.807413
0.258479
0.857779
0.664281
0.234163
-0.149584
0.556174
-0.79701
-0.802205
0.501543
-0.970178
0.508452
-0.958016
-0.281177
0.544303
0.0258147
-0.599368
-0.565643
0.959572
-0.947989
-0.994793
-0.0305056
-0.0712407
0.203199
-0.00491378
0.84947
0.0528103
0.210392
0.444107
-0.583679
0.674266
0.818868
0.175401
-0.793662
0.365648
0.872877
0.605608
-0.938241
-0.675986
0.171446
-0.259235
0.895462
-0.768848
0.745049
0.828925
-0.950719
0.432614
0.786506
0.32909
-0.329629
0.215424
0.893596
0.856936
-0.882017
0.903203
-0.99671
-0.883611
-0.993964
0.821963
0.0956124
-0.959526
-0.0778273
0.416302
-0.514381
0.4241
-0.578083
-0.431754
0.726522
-0.683611
-0.332709
0.297055
0.428891
0.350695
0.338738
0.580977
-0.13539
-0.238745
-0.133484
0.246358
0.423412
-0.400286
-0.277924
-0.298009
-0.665905
-0.813019
-0.993427
-0.975333
-0.282064
0.211744
0.304403
0.574452
-0.669297
-0.756581
-0.427815
-0.734687
0.250436
-0.577444
0.452302
-0.050347
-0.584313
-0.584777
-0.0148751
0.00923473
-0.513279
-0.895891
0.590328
-0.697805
0.128541
-0.888491
0.0521889
0.976741
-0.672005
-0.849839
0.418111
0.657084
0.18841
0.592171
-0.113245
0.188189
-0.950062
0.554921
-0.456652
0.318436
0.444046
0.0334323
-0.630726
-0.61947
-0.576369
-0.442651
-0.0254859
-0.97851
0.453945
0.0729356
-0.408842
-0.462786
-0.728718
0.464025
-0.174398
-0.0511095
-0.193991
-0.472493
0.567906
0.354374
-0.870871
-0.837793
-0.667589
-0.0832857
0.903522
0.0246886
0.218529
0.139748
0.769766
-0.382415
0.23029
0.758579
0.0209688
0.527797
0.504783
-0.021073
-0.348658
0.801853
-0.768818
0.177671
-0.98937
-0.131404
-0.116869
0.178027
0.632992
0.753638
0.286242
-0.441461
-0.606825
-0.785301
0.348919
-0.525747
-0.545233
-0.283856
0.340684
0.281853
0.276712
-0.625997
0.232338
0.16943
0.125328
0.710789
0.794269
-0.461722
-0.643944
0.623219
-0.480734
-0.729968
-0.377732
0.0621108
0.1412
0.637004
0.0575207
0.0238378
-0.216377
0.195833
0.0791338
0.270168
0.417448
-0.487242
-0.134941
-0.490086
-0.953535
-0.700208
-0.569668
0.796634
0.226832
0.027991
-0.306746
-0.391986
0.67175
-0.108561
-0.499812
-0.257957
-0.0387461
0.219048
0.703021
0.841561
-0.908333
-0.802097
0.893029
0.372271
-0.261638
-0.26022
-0.967013
0.341131
0.803748
-0.818884
-0.853502
0.346025
0.344894
-0.129108
0.476797
-0.523855
0.856078
0.529194
0.881666
-0.426776
-0.558856
-0.214518
0.593728
-0.999476
0.099175
-0.318314
0.274211
-0.50866
-0.373223
0.224764
-0.892402
0.194271
0.154816
-0.631861
-0.503659
0.132235
-0.654785
-0.704952
-0.491402
-0.790354
-0.457371
-0.972304
0.752217
0.414341
0.0889508
-0.537083
0.905248
0.587115
0.452188
0.51246
-0.805728
0.984598
-0.499779
-0.0423872
-0.289852
0.459842
0.650837
-0.0767186
-0.349301
-0.545307
-0.480412
-0.797963
-0.0227734
0.0705171
-0.384529
-0.16386
0.193439
0.596996
0.431111
0.873782
0.159578
-0.723389
-0.449561
0.689466
-0.769209
0.415562
-0.0629079
0.045382
0.988561
0.277705
0.776792
0.127576
0.0499703
0.0607435
0.470416
-0.28322
0.00196176
0.271172
0.160362
-0.97932
0.234356
-0.364408
0.608759
-0.591137
-0.658549
-0.347611
0.563221
0.605601
0.336525
0.665327
0.344597
0.601917
0.00905836
0.489431
-0.291984
0.558414
0.0946668
0.126753
-0.471275
0.479233
-0.0637857
0.215524
-0.587245
0.507991
0.229886
0.747257
-0.336173
-0.466217
0.625701
-0.203983
-0.728669
0.385616
0.897785
-0.903425
0.244914
-0.495465
0.281715
0.379361
-0.859002
0.6631
0.716681
0.546878
-0.156841
-0.618277
0.107539
-0.283175
-0.68395
0.282205
-0.529078
-0.449057
-0.698395
-0.213179
0.112968
0.741346
0.356398
0.823518
0.751984
0.034996
-0.55986
0.374102
-0.402768
0.904178
0.899477
-0.854094
0.627005
-0.676068
-0.741614
-0.585767
0.571154
0.250128
-0.54528
0.857572
-0.621774
0.147729
0.0252275
0.308854
-0.927609
-0.862672
0.831573
0.155561
-0.470361
-0.267664
-0.739406
-0.248705
0.307191
-0.420712
-0.0132634
-0.927726
0.85761
0.366944
0.605792
-0.837864
-0.0455314
-0.0102872
-0.229996
-0.723458
0.436186
-0.852852
0.939697
-0.909124
0.206266
-0.500108
-0.888363
0.801306
-0.639541
-0.894215
0.516103
-0.23031
-0.825479
-0.393693
0.451622
-0.219776
-0.908597
-0.841978
0.337616
-0.359116
-0.181243
-0.313313
-0.302917
0.431871
-0.6678
-0.460557
-0.765477
-0.76657
0.14251
0.94779
0.609468
-0.344384
-0.898063
-0.759678
-0.263672
0.922804
-0.187959
0.064106
0.786493
-0.336022
-0.353717
-0.724325
-0.982716
0.722969
-0.144146
0.00371629
0.829523
0.187863
-0.149741
0.952047
0.984688
0.49969
0.732689
0.211771
0.284394
-0.795941
0.863324
0.675905
-0.893967
0.960629
-0.987881
-0.196621
-0.647631
0.357607
0.665538
-0.0514512
-0.880463
0.456129
-0.205514
-0.975391
-0.116858
0.908223
-0.695041
-0.046376
0.568369
-0.921021
0.316619
0.502174
0.485653
0.516748
0.0917313
0.821286
0.913296
0.0441815
-0.98195
-0.199834
-0.305049
-0.116518
0.908309
0.590957
-0.673102
-0.574303
-0.918312
-0.694645
-0.0844547
0.745097
0.732073
-0.874389
-0.481553
-0.677313
0.889533
0.527603
-0.692277
-0.86472
0.783194
-0.317627
0.565727
-0.321661
-0.428254
0.263812
-0.754421
0.462521
0.160727
0.607396
0.985635
-0.470226
-0.575142
-0.0763052
-0.237099
-0.661765
-0.0939839
0.285683
0.321764
-0.705857
-0.561195
-0.124136
-0.173724
0.117138
-0.800748
0.11688
0.342819
-0.877711
-0.557551
0.843058
0.533047
-0.945856
0.287598
-0.46808
-0.126814
0.137161
-0.0490761
-0.858153
-0.354688
-0.0083232
-0.0235116
-0.460885
0.480335
0.639794
-0.538576
0.494657
0.110092
0.26375
-0.717728
-0.26359
0.344917
0.417545
-0.687053
0.196061
0.604853
0.900103
0.254896
-0.739328
0.963716
-0.543216
-0.787739
0.104816
0.461
0.724766
0.949399
-0.344625
0.412687
-0.454598
-0.0929523
-0.681402
0.42432
0.345977
-0.927951
0.351016
-0.918164
-0.418392
0.517612
-0.818133
-0.446235
-0.880316
-0.833899
0.295815
-0.823979
-0.972441
-0.406759
-0.503776
-0.66403
0.694281
0.844873
-0.975884
0.744899
0.565182
0.784798
0.670833
0.0128201
-0.738082
-0.399173
0.788875
0.748355
0.548708
0.0880911
0.102493
-0.962835
-0.181773
-0.817353
-0.894537
0.849127
-0.380785
-0.931029
0.297616
0.837683
-0.560149
0.624855
0.823341
-0.225279
-0.819017
0.520292
0.928378
0.000354452
-0.963262
-0.97572
-0.294098
-0.263599
0.20994
-0.109712
0.525309
0.905527
0.540487
0.773953
0.969081
0.949828
0.987658
-0.394584
-0.452036
-0.588012
-0.49163
0.146921
0.28433
0.906829
-0.409715
-0.890671
-0.0919314
-0.688488
0.109528
-0.81139
-0.42399
0.352671
0.342664
-0.911404
0.130666
-0.689766
0.18656
-0.275417
0.810456
0.32396
0.546961
0.839846
-0.978589
0.844126
-0.527566
0.98162
-0.054493
0.708138
0.866407
0.723175
0.215683
0.776952
-0.155734
-0.985425
-0.889355
-0.812544
0.258995
-0.792275
0.348581
0.258594
-0.75196
-0.935162
-0.475977
-0.121126
0.650958
0.412598
-0.810793
0.532159
-0.726398
-0.608724
-0.895191
0.0950024
0.941246
0.00214147
0.49541
-0.414012
0.224252
0.0760134
-0.516839
-0.858984
-0.851512
-0.228923
0.794637
0.0394295
-0.730619
0.132364
0.88014
-0.252282
-0.427661
-0.566441
-0.516726
0.308756
-0.920307
0.313312
0.281753
0.502853
-0.0568645
0.700362
0.552568
0.649516
-0.827797
-0.775704
0.101136
0.0594372
0.526949
-0.649271
0.920997
0.494314
0.0509228
-0.613488
0.485812
-0.285969
-0.665242
-0.796044
0.267448
0.608442
-0.992141
0.870764
0.353083
-0.496791
-0.185759
0.0886856
-0.988243
-0.869434
0.627842
0.589094
0.023371
0.129198
0.257497
-0.876661
0.464507
0.762973
0.012917
-0.20735
0.294282
-0.876956
0.15557
-0.631986
-0.780393
0.292055
-0.364763
-0.705634
-0.387268
0.482631
-0.762509
-0.967749
0.349856
-0.115466
0.438963
0.0448221
0.0241291
0.762783
-0.935661
-0.763373
0.718844
-0.210015
-0.687079
-0.692505
-0.398349
-0.725023
-0.747475
-0.567575
0.90505
0.409011
-0.840957
-0.619901
0.539399
0.595366
-0.035325
-0.328512
0.261432
0.844746
0.576424
-0.279354
0.0191284
-0.125381
-0.395084
-0.312265
-0.255614
0.494718
0.924251
-0.363359
-0.193791
0.923247
-0.0550337
0.684411
-0.186826
-0.52976
0.158947
0.346563
-0.884819
-0.708509
-0.561286
0.698417
-0.0580881
-0.242471
-0.195661
0.788124
0.474733
0.748133
0.195659
0.164108
-0.855836
-0.819676
0.645534
-0.956326
-0.144892
0.284518
-0.461829
-0.024464
0.667297
0.0437924
0.933633
-0.0513456
0.896514
0.188939
-0.906877
0.221735
-0.0174919
0.681967
0.415022
0.337331
0.701261
-0.896192
-0.733861
0.246077
0.795748
-0.51138
0.278753
-0.914961
0.631066
-0.693339
-0.213125
0.282977
0.580048
-0.39087
0.181091
0.814283
-0.921374
0.337339
-0.662168
-0.241513
-0.247987
0.896353
0.97496
0.165753
-0.169828
0.138098
-0.868959
-0.440718
-0.0977922
-0.365294
0.0721043
0.357716
0.593764
0.700119
0.138236
0.189501
-0.134441
-0.79012
0.0933191
-0.960423
0.20449
0.0200513
-0.827211
-0.954644
0.246888
0.455634
0.838242
0.768515
0.0244846
0.856668
-0.332514
-0.415639
0.636061
0.891421
0.91534
0.351969
0.940553
-0.245604
-0.424476
-0.153743
0.524503
-0.364644
0.509662
-0.330083
-0.0398272
0.682679
-0.879714
-0.266709
-0.736152
-0.770363
-0.506318
0.60337
0.92023
0.914006
0.0764586
0.784139
0.711741
-0.467007
-0.604021
-0.21414
0.890943
0.101175
-0.885305
0.438116
0.626024
0.214817
-0.246454
0.849381
0.95575
0.0983499
-0.932102
0.544614
-0.810106
0.776347
0.555065
0.233224
-0.581276
-0.133671
-0.434274
0.462382
-0.734716
-0.158289
0.244932
0.539133
-0.202067
0.438354
0.0543505
0.946803
0.971566
-0.813405
0.47067
0.480538
-0.277022
-0.153688
-0.334747
0.133503
0.25775
-0.817004
-0.699641
-0.720632
0.465538
0.482058
0.587721
0.242089
-0.230186
0.0259351
0.811934
0.66183
0.919128
-0.241064
0.718849
-0.898653
-0.807116
0.189608
-0.73673
-0.39167
-0.665359
0.374663
0.902154
-0.434224
0.445217
0.945595
-0.557594
0.243497
0.0526736
-0.91114
0.970669
0.534759
-0.10579
0.338895
0.701979
0.854458
0.644881
0.312589
-0.188322
-0.0729431
0.24
0.0825574
-0.881152
0.94784
0.673378
0.889573
-0.440903
-0.489664
0.06913
0.60479
0.122664
-0.0594288
-0.187405
0.951078
-0.103927
0.771499
0.448339
-0.678851
-0.271039
0.763653
-0.0751126
0.92217
0.546149
-0.231825
-0.296294
-0.0699349
0.882437
0.734119
-0.287068
-0.419248
0.361311
-0.827365
-0.977672
0.979655
-0.540342
0.469226
0.693809
0.206992
0.648309
0.152372
0.125525
0.35797
0.254702
-0.630195
-0.199091
-0.876005
-0.973898
-0.154344
-0.0507872
-0.901551
-0.766962
-0.474078
0.839829
-0.335108
-0.747216
0.0306251
0.29462
-0.13587
0.577705
0.514264
-0.557852
0.588499
0.925553
-0.781161
-0.90698
-0.353187
-0.933317
-0.956138
-0.369313
-0.706803
-0.238492
0.0449469
-0.362688
-0.282763
0.609949
0.111349
-0.372559
-0.833536
0.352565
-0.885589
-0.923933
-0.403812
-0.540898
0.389412
-0.761072
-0.783277
-0.867445
-0.857775
0.978925
-0.597985
0.241413
-0.578221
0.263305
-0.434964
0.548893
-0.387415
-0.640245
-0.308559
0.0555772
0.671276
-0.0467415
-0.42136
0.384675
-0.281935
0.531419
-0.121856
-0.203592
-0.217813
-0.922294
-0.545218
-0.988031
-0.529587
-0.0358517
0.650005
0.763165
-0.566918
-0.519446
-0.112987
0.847571
0.252652
0.240777
0.20841
0.728373
0.941427
-0.136301
-0.775994
-0.578131
0.930252
-0.0357228
-0.594755
-0.106043
0.23698
-0.7335
-0.562405
-0.448877
0.557306
-0.745134
0.583565
0.880591
0.0540978
0.111983
0.434656
-0.226605
0.777279
-0.839065
-0.774098
0.890784
-0.760739
-0.240296
0.55463
-0.173496
-0.0242329
0.346903
0.14225
-0.891347
-0.866517
0.528861
0.675451
-0.0335995
-0.169437
-0.458325
-0.158255
-0.36785
-0.362984
-0.449989
-0.452067
0.529332
-0.262871
-0.429045
0.439816
0.129829
0.0890633
0.430972
0.582067
0.00309024
0.617662
0.971958
-0.660663
0.631036
-0.129618
0.571889
0.156519
0.548247
-0.880587
-0.0535283
0.132156
-0.689181
0.373119
-0.183448
-0.390096
0.631523
-0.284325
0.184014
0.105773
0.081221
-0.344673
-0.864908
-0.0983384
-0.708844
-0.659643
-0.0808354
-0.241965
-0.751932
-0.112057
0.490182
0.824205
-0.848874
0.610711
0.360893
0.534402
-0.0252905
0.955217
-0.0249971
-0.685432
-0.953482
0.346982
-0.0694342
-0.220436
0.339236
-0.0863432
0.382748
0.0911093
0.461343
-0.660775
-0.939862
-0.748709
-0.579104
-0.999287
0.518749
-0.539657
-0.476146
0.321123
-0.889956
0.1606
0.827118
0.715029
0.488013
-0.0600382
0.855947
0.0635259
0.828184
-0.386013
-0.692428
-0.814141
0.483511
0.899417
0.731071
-0.604849
-0.455278
-0.356779
-0.737831
-0.539389
-0.0265629
-0.253777
-0.503586
-0.419947
-0.315899
-0.958723
-0.367976
-0.867521
-0.504491
-0.568757
-0.237139
0.774827
0.365813
-0.303402
0.341903
0.0203712
-0.995228
-0.84104
-0.66278
0.586889
0.845162
-0.460681
0.565149
0.214632
0.576252
-0.0900524
0.718347
0.151795
0.690466
0.834788
-0.320499
0.59238
0.970395
-0.366329
0.774671
0.301351
-0.593042
-0.889776
-0.333555
0.776706
0.392939
0.246599
-0.826351
-0.312847
-0.886247
-0.463201
-0.870621
0.838688
0.0105257
0.0747484
-0.627804
0.261694
-0.926908
0.98811
0.949023
0.35243
-0.770297
0.0190589
0.446055
0.382322
-0.144961
-0.514643
-0.934269
0.169675
-0.555861
0.276485
-0.700621
0.887015
0.728577
-0.500714
-0.371023
0.480219
0.280611
0.715488
0.105877
0.161058
-0.794805
0.0210765
0.534324
0.0922674
0.509118
0.678713
0.397208
-0.376063
0.434434
0.717696
0.488159
-0.684516
-0.881177
-0.754658
0.188664
-0.368362
0.332943
0.786086
0.887301
-0.881191
0.0706724
0.849085
0.931907
-0.856441
0.0517544
-0.295941
0.656106
0.059843
0.733454
-0.989794
0.213139
-0.700153
-0.571676
0.773726
0.365418
0.646318
0.145777
-0.0860471
-0.581621
0.858988
-0.337727
-0.577128
0.588936
-0.850743
0.497288
-0.909501
-0.532669
0.0792688
0.463077
0.158177
-0.147319
-0.186418
0.830063
-0.421139
0.384714
-0.560106
0.00206539
-0.760526
0.105776
-0.378062
-0.946376
0.373285
0.698349
-0.868707
-0.796516
-0.795754
-0.234651
-0.0398471
0.973351
-0.229439
0.219329
-0.454081
-0.464889
0.630037
0.928222
-0.937834
-0.0199198
0.784029
0.199645
-0.672629
0.0179337
-0.498454
-0.222938
0.149956
0.715276
0.794672
-0.609695
-0.242496
-0.721205
0.231074
0.585766
-0.759795
-0.922722
-0.972219
-0.674524
-0.746609
-0.780967
0.271043
-0.303424
-0.114477
0.744988
-0.224401
-0.677689
0.733834
-0.155929
0.0325979
-0.907209
-0.541469
0.65694
0.197906
0.799887
0.113136
-0.939763
-0.82534
-0.214947
0.859521
-0.674007
-0.389665
0.816858
-0.960928
0.395719
-0.345173
-0.961717
0.534978
0.518267
-0.760851
-0.69974
0.754978
-0.346704
0.59247
0.771627
0.000407521
0.972883
0.907881
-0.962922
-0.441345
-0.641491
0.293484
-0.784922
0.520376
-0.765312
-0.213639
-0.626833
-0.0369616
0.184642
0.95026
-0.0578783
-0.282032
0.549541
-0.154729
0.841588
0.0585137
0.558109
0.897545
0.00639662
0.737859
0.836527
0.263017
-0.423734
0.24931
-0.259468
0.513124
0.921005
0.129129
0.455284
-0.838614
-0.558588
0.110483
0.540067
-0.17227
0.570853
0.786388
0.450588
0.334767
-0.264999
0.884237
0.756488
-0.899506
0.740739
0.413643
0.272114
-0.655293
0.724175
0.348342
0.402206
-0.97198
-0.512205
-0.426532
-0.280388
0.41474
-0.0750624
0.409403
0.46977
0.672827
0.924277
-0.143084
-0.552444
-0.869812
-0.642835
0.945686
-0.545076
0.90902
0.487923
0.69738
-0.733714
0.0371254
-0.605105
0.757899
0.387137
-0.567894
-0.0821795
-0.264051
-0.228002
0.379734
0.356639
0.0503557
0.795562
0.782172
-0.0277385
-0.320296
-0.81357
-0.0848801
0.0851945
0.243007
0.795883
0.181599
0.8975
0.814743
-0.00822225
0.128375
-0.328166
-0.627406
-0.39025
0.818257
-0.38905
-0.690172
-0.434428
0.63408
0.116277
-0.893172
-0.344339
-0.566692
0.918571
-0.918842
-0.633326
0.162068
0.876892
0.187037
-0.294817
0.341666
0.700323
0.70902
-0.923813
0.808167
-0.717803
-0.982063
-0.577298
0.546327
0.227609
-0.512078
-0.56812
-0.975423
0.136507
-0.59883
-0.733441
0.072984
-0.999678
0.567566
0.91253
0.551341
0.998386
0.799785
0.661216
-0.807692
-0.474846
0.632634
0.684894
0.908229
-0.696945
0.781588
0.226713
-0.625789
-0.587857
-0.150174
-0.325798
-0.192358
0.00652506
0.461201
-0.892802
0.249002
0.313186
0.652638
0.168463
-0.799263
0.780928
0.930863
0.644724
-0.413694
0.670017
-0.960444
0.228241
0.9854
0.982709
0.156235
0.421756
-0.996968
-0.36387
-0.703364
-0.0142351
-0.441107
0.158305
-0.34198
0.271216
-0.635586
-0.786892
-0.352349
-0.671556
0.320054
-0.02065
0.740928
-0.038521
-0.147716
0.153164
-0.92621
0.564007
-0.937249
0.222688
-0.0690625
0.318604
-0.86846
0.851056
0.0723154
-0.164043
0.385211
0.75895
0.0843331
-0.270942
-0.699988
-0.991319
-0.826361
-0.663822
0.73524
-0.901108
-0.147179
-0.950419
-0.151718
-0.748351
-0.00231609
0.87069
0.0206482
0.337502
0.76623
-0.216926
-0.769296
0.828118
0.697154
-0.444237
0.526871
0.490316
0.738482
-0.190891
0.00965451
-0.280225
0.475588
-0.751653
0.86207
-0.271171
0.564365
0.481027
0.790849
0.682997
-0.965197
0.637135
-0.211764
-0.0556709
-0.800976
0.114766
0.46093
-0.148246
-0.856504
-0.154335
-0.105778
0.880907
-0.243459
0.336066
0.75286
0.916431
0.769413
0.867578
0.223546
0.982482
-0.0165102
-0.724875
0.66699
-0.237338
0.696291
0.610137
-0.0548115
0.190528
-0.844685
0.137244
0.545056
0.527663
0.917175
0.312581
-0.393975
0.901517
-0.983368
-0.5649
-0.299773
-0.730354
-0.0769973
0.188864
0.488009
0.343679
-0.118379
-0.460879
0.44289
-0.0743568
0.854345
0.816331
0.312478
-0.188002
0.735182
-0.0970598
-0.768801
-0.774403
-0.418275
0.55205
-0.594756
0.41588
0.741494
-0.769426
-0.86095
-0.279561
-0.889007
0.697193
-0.98057
0.539909
0.463562
-0.216351
-0.172103
0.907395
-0.654881
-0.185693
0.379806
-0.270945
-0.103427
0.822249
0.312978
-0.539086
-0.044408
0.530522
0.846883
-0.373205
0.66302
0.0759248
0.841154
-0.137257
-0.299341
-0.870558
0.0523599
0.890044
0.315336
0.274191
-0.184741
-0.355172
-0.523395
0.490501
-0.427132
-0.337511
0.690325
0.231779
0.83066
-0.403828
0.427426
-0.225143
-0.230633
-0.113206
0.348139
0.924982
-0.57606
0.858155
0.521965
0.416475
-0.329786
0.488412
-0.127969
0.772625
-0.620479
0.513645
0.887195
-0.885814
0.311522
-0.0445726
0.374149
0.866464
0.805955
0.851102
-0.995288
0.652266
0.809888
0.756444
-0.316394
-0.509016
0.724782
0.495159
0.383907
-0.22186
0.744733
-0.685564
-0.333486
-0.673368
0.332558
0.892655
0.243599
-0.651596
-0.926037
-0.987038
0.822079
-0.112435
0.973226
0.799436
0.261254
0.533484
-0.674984
0.1992
-0.497864
0.51957
0.801655
-0.968164
-0.639479
0.700914
0.334189
0.251961
0.175261
0.0241681
-0.0903918
-0.803075
0.135987
-0.954639
-0.561232
-0.810307
-0.896956
0.805409
-0.158294
-0.162268
-0.00280666
0.635025
-0.46301
0.870673
0.940857
0.53014
-0.275176
-0.396289
0.202735
0.755602
-0.391836
-0.0806341
0.365478
-0.3874
0.979014
0.777669
0.160775
-0.881723
-0.587119
0.898898
-0.548702
0.227468
-0.217928
0.400158
-0.605828
0.740918
-0.556321
0.0748843
0.0619753
-0.712629
-0.287814
0.731589
0.0471037
-0.134436
-0.0722981
0.884932
-0.187946
-0.955381
0.322842
0.229874
0.906604
-0.263038
-0.875177
0.273005
-0.879285
0.444049
-0.302428
0.960871
0.895205
0.359766
0.818881
-0.872404
0.784599
0.570051
-0.334723
0.00760927
-0.430071
-0.0329392
-0.660617
-0.355219
0.600364
0.642886
-0.960265
-0.0951845
-0.419698
0.404539
0.933166
0.838084
0.237656
0.750411
0.133305
-0.178885
0.96822
-0.58758
0.588564
-0.817846
0.452388
-0.632481
0.00952686
0.621387
0.484877
-0.91516
0.108752
-0.46926
0.550363
-0.446048
-0.581225
0.920646
0.504596
-0.654682
-0.138888
0.0973417
-0.151009
0.252048
0.655925
0.435622
-0.934055
-0.225266
0.715738
0.896539
-0.857947
0.317024
-0.484635
-0.408637
-0.641455
-0.906598
0.763436
0.342614
-0.859332
-0.434988
-0.296522
-0.260581
0.396854
0.147818
0.546076
-0.344407
-0.835074
-0.286502
-0.164768
0.139443
0.972751
0.866266
0.198492
-0.777299
-0.425057
-0.614878
-0.398276
0.914552
0.796003
0.398667
-0.273672
0.405294
0.707673
-0.10511
0.652617
0.601149
-0.279747
0.949933
-0.337793
-0.529507
0.760662
0.557045
-0.296648
0.557121
-0.862437
-0.191813
-0.736355
0.989337
-0.0333984
0.631252
0.417849
-0.0822176
0.266139
0.301955
-0.825368
-0.885512
0.560997
-0.201389
-0.899383
0.556333
0.480377
0.799171
0.875754
0.324902
0.244201
0.0630814
0.909003
0.739815
-0.156308
-0.792931
0.552574
-0.00654841
0.287556
-0.714052
-0.133554
0.587369
-0.10775
0.561237
0.105806
0.459229
-0.114492
0.396241
-0.839946
-0.171524
-0.84016
-0.0612532
0.385048
0.113976
0.0108717
-0.283178
0.194136
0.28337
-0.681181
0.615393
-0.948489
0.735687
0.128458
0.965415
0.865584
0.969603
0.974759
0.332677
-0.263139
-0.784951
-0.357453
0.552714
-0.392356
-0.631397
-0.0271974
-0.69198
0.359115
0.611499
-0.368606
-0.20491
-0.989933
0.856551
-0.528457
0.400862
-0.622915
0.676693
-0.686566
0.826289
-0.374174
-0.720868
-0.771064
-0.309293
0.126202
0.227557
-0.616734
-0.337781
-0.249393
0.459028
0.306855
0.830712
-0.164621
-0.673245
0.339069
0.0216338
0.493292
-0.0575251
0.705398
-0.539363
0.513171
0.274163
-0.605245
-0.146641
0.754974
0.720281
0.583097
-0.814797
0.465943
-0.228443
0.988827
-0.929296
0.095845
-0.163866
-0.59832
0.588511
0.498577
0.00472568
0.962373
0.722457
-0.867355
-0.755755
-0.534324
0.367551
0.618544
-0.666114
0.23728
0.648995
-0.606528
0.171174
0.85422
0.90032
-0.599178
-0.174303
0.979906
-0.0949478
-0.893276
0.11015
-0.778609
0.45814
0.767717
0.458282
0.698354
0.513041
-0.69217
0.814936
0.106142
-0.756213
0.831513
0.103425
-0.218383
-0.604747
0.538986
0.970079
-0.38117
-0.0223515
0.366662
-0.973757
-0.233453
-0.627819
-0.802114
0.589221
0.10693
-0.337637
0.474862
0.0348726
0.316452
0.0658664
-0.133797
0.554278
-0.710077
0.949491
0.939547
0.355582
0.401684
-0.849809
-0.735711
-0.271378
-0.884851
0.99381
0.547982
0.595943
0.592132
0.249329
-0.229626
0.514981
0.643366
0.980532
0.30077
0.248614
-0.532869
-0.477155
0.017457
0.830668
0.0321592
0.964105
0.0947269
-0.427753
0.838108
0.3472
0.711478
0.788087
0.837029
-0.806709
-0.501553
-0.211256
0.0086744
0.876468
0.14345
0.909573
-0.781225
0.530303
-0.188801
0.962973
0.101441
-0.644021
-0.466713
-0.156072
0.624624
0.909136
-0.356999
0.334777
0.332486
0.802937
0.858226
-0.906234
-0.569534
-0.0968758
-0.430756
-0.52557
-0.0702456
-0.711781
-0.384634
0.0706845
0.725634
0.267894
0.404205
0.437938
-0.355568
0.495718
-0.569522
0.424852
0.810287
0.0429258
0.181076
0.908122
0.683085
0.876447
0.125854
0.00827056
0.428393
-0.297826
0.614601
-0.603371
0.217607
-0.965412
0.241555
0.514114
-0.522678
-0.641214
-0.678491
-0.281947
-0.55154
-0.24496
-0.701427
0.791812
0.227549
0.564375
-0.466401
0.426405
-0.1361
-0.427516
0.498803
0.778146
-0.39736
0.0463275
0.114372
-0.882565
0.426283
-0.178275
0.113943
-0.962131
-0.505378
0.841216
-0.0975559
-0.64973
-0.341575
0.190866
-0.494449
0.332378
-0.923034
-0.800619
0.174966
-0.303969
-0.337435
-0.840388
-0.527334
-0.834296
0.3869
0.0403045
-0.604505
-0.703725
0.43655
0.950002
0.945816
-0.572501
-0.658874
0.951361
-0.71886
-0.0567776
-0.780948
0.223807
-0.383372
-0.433111
-0.75484
0.523501
0.128235
0.206765
0.506793
-0.414226
-0.586978
-0.0978812
0.402128
-0.512319
0.16382
-0.0641182
-0.0210416
0.652135
0.346485
0.19429
0.360709
0.965463
0.0345006
0.223024
-0.307776
0.016322
0.644014
0.162338
-0.0746504
-0.228835
-0.609911
-0.493487
-0.150846
-0.988595
0.900893
0.247997
0.678834
-0.0919046
-0.0892942
0.912326
0.409072
0.44533
0.416472
0.901064
0.201358
0.67422
0.227414
-0.481372
-0.27233
0.0311966
0.541686
0.0489382
0.602556
0.422208
-0.744511
0.971225
0.50224
0.623084
0.687873
-0.838581
0.603121
-0.645414
-0.539536
0.548908
0.689113
-0.886948
-0.725826
0.530563
-0.0736843
0.841089
0.337741
-0.867885
-0.0343025
-0.0264642
0.901381
0.45009
-0.428851
0.876796
0.818094
0.603894
-0.5838
0.492973
0.541273
-0.314398
0.0455296
0.578875
-0.763871
-0.780233
0.610596
-0.172948
-0.146647
0.423326
-0.627953
0.936061
-0.388368
0.354097
-0.718928
0.455842
-0.207049
0.90422
-0.470232
-0.901665
-0.0912987
-0.137704
-0.224535
0.831545
-0.110134
-0.953731
-0.0695046
0.156561
-0.858879
0.457212
0.190756
0.758201
0.722286
0.13343
-0.968425
0.975206
0.113808
0.155344
0.321483
-0.267217
0.0405941
0.268966
0.571197
0.99615
-0.935472
-0.80217
-0.34401
-0.124134
-0.209106
-0.507719
-0.640474
-0.0376459
0.474713
-0.0386143
-0.976921
-0.598501
0.178568
-0.977025
-0.908703
-0.788953
0.895632
0.705529
-0.862286
-0.784894
-0.106177
0.843969
0.338176
0.164782
0.44565
0.258812
0.0432883
0.970312
0.116807
0.0138058
-0.431808
0.503793
-0.04086
0.2364
0.337137
0.807724
0.886136
-0.610062
0.640088
-0.414587
-0.171573
0.644133
0.309243
0.0332907
0.131179
0.345318
-0.783959
0.0371009
0.254136
0.190638
0.105874
0.516664
0.784903
0.889156
-0.882726
-0.290034
-0.603056
0.871322
-0.908008
0.771274
0.339376
0.0113185
-0.203197
0.62501
0.435229
-0.466855
0.928818
0.0359962
0.127997
0.00816471
-0.351985
-0.567375
-0.637052
-0.589119
-0.796445
-0.695203
0.757342
0.591864
0.441647
0.506947
-0.482105
0.508441
-0.353916
-0.815745
0.373048
-0.0552434
0.793179
-0.947935
0.316233
0.191578
-0.971249
-0.400366
0.557776
-0.223997
-0.884768
0.446047
-0.732781
-0.603616
-0.722788
0.815943
-0.379391
0.824156
0.725566
-0.025552
0.671012
0.808643
0.00144146
0.794558
-0.386373
0.621641
-0.103851
0.53735
0.254262
0.495066
-0.778372
-0.0792006
-0.201456
0.702431
-0.942185
0.185391
-0.412199
0.445452
-0.780634
-0.973453
-0.885093
0.620912
-0.439495
0.264779
-0.704142
0.251721
-0.00939246
0.177435
0.779586
-0.143443
0.561598
-0.367177
-0.268739
0.771158
0.268205
-0.741767
-0.728951
0.94111
-0.679509
-0.896701
-0.280901
0.259345
0.6874
-0.126494
0.280974
0.762421
0.149877
0.761485
-0.0533442
-0.633842
-0.829004
-0.391816
-0.124469
0.166834
-0.378421
-0.798817
-0.114058
-0.331367
-0.142395
0.988713
-0.371599
-0.712522
0.425831
0.286971
0.145263
0.947954
0.403572
-0.47695
-0.363288
0.012328
-0.784395
-0.569732
0.974489
0.793376
0.905239
-0.952644
0.0810535
-0.276337
0.796956
-0.0117102
0.42446
-0.177471
0.0631967
0.940134
0.070121
-0.413296
-0.369646
-0.659761
0.253423
0.0818324
-0.507395
0.0401402
0.579844
-0.832326
0.378277
-0.724599
0.969477
-0.546424
0.310552
-0.713354
0.870287
-0.898576
-0.0429629
-0.842561
0.73091
-0.271484
-0.887486
-0.342868
0.337704
-0.257996
0.831709
0.865466
0.395858
0.202317
0.433313
0.2546
0.917353
-0.029431
-0.813777
0.246725
-0.311518
0.430499
-0.526093
0.615709
0.851967
-0.243245
-0.221176
-0.444772
-0.115001
0.57697
0.258331
-0.0795608
-0.17723
-0.724662
-0.0250813
-0.276419
0.211292
-0.778567
-0.868251
0.115537
0.124007
-0.674625
0.272574
-0.259691
0.0359512
0.700439
-0.835197
-0.0421808
-0.284025
0.524843
0.331699
-0.518629
0.0532755
-0.872336
-0.491929
-0.366634
0.3631
-0.262114
-0.295369
-0.465295
0.487582
-0.178161
-0.921088
0.610594
-0.904913
-0.998523
-0.542975
-0.16265
0.130442
-0.353198
0.141624
-0.998131
-0.275208
0.183268
0.816364
-0.150374
0.911314
-0.747572
0.249853
0.539324
0.722033
-0.974472
0.817903
-0.843795
0.694716
-0.185518
0.087862
0.17136
0.561774
0.677969
0.610806
0.337035
-0.479122
0.91397
0.194926
0.40033
0.626681
0.501817
0.116935
-0.321762
-0.347259
-0.0491879
-0.421207
0.600484
0.441904
-0.720796
-0.309274
0.127312
0.0841202
-0.987158
-0.45668
0.397939
0.502527
0.271969
0.424877
0.376341
0.154978
-0.623138
0.734099
-0.871287
-0.209118
-0.0759453
-0.427407
-0.348509
-0.188653
-0.963723
0.504626
-0.0677414
0.332039
-0.0210885
-0.00352261
-0.423828
0.0739096
0.550816
0.0949047
0.297458
-0.0628789
0.610137
0.727984
-0.653843
0.649252
-0.317949
-0.0687537
0.459956
0.759076
-0.345542
-0.0579811
0.404954
-0.174789
-0.367269
-0.415661
0.58365
-0.565346
-0.339872
0.211165
-0.188884
0.845525
-0.687894
-0.888557
-0.760134
-0.0963812
-0.732476
0.564827
0.880571
-0.587924
-0.494254
-0.619337
-0.669232
-0.527627
-0.53457
0.940522
0.899148
-0.420401
0.253958
0.549008
-0.468095
-0.722632
0.136483
0.0185067
-0.422568
-0.900799
0.806182
-0.613431
-0.401744
0.0288476
0.436319
-0.324139
-0.822299
-0.940852
0.956813
0.746084
-0.506822
0.248708
0.192317
-0.352414
-0.751112
-0.129895
-0.450152
0.562279
0.0630211
0.894621
-0.648884
-0.724392
-0.0586551
0.924777
0.87218
-0.241532
-0.288948
0.332658
0.871107
-0.172863
0.907192
-0.505885
-0.293521
-0.974311
-0.781729
0.112912
0.0856815
0.903427
-0.767035
-0.527784
-0.302121
0.335362
-0.182022
-0.417646
-0.69526
0.0835661
-0.664131
-0.556414
0.76082
0.57958
-0.674817
0.622102
0.549787
0.112427
0.864005
0.857371
-0.060949
-0.956529
0.953821
0.178563
-0.0299103
-0.734803
-0.806133
0.103785
0.20167
-0.429385
0.48012
-0.378138
-0.173529
-0.39198
0.764744
0.173171
-0.698435
-0.898053
-0.585617
-0.0667787
-0.262092
-0.50907
-0.497768
-0.632746
-0.98131
0.971214
0.189784
-0.394907
0.118233
0.937723
0.256409
-0.576927
0.555109
0.71265
0.0188514
0.68404
0.186787
0.507997
0.102012
0.183485
-0.156546
-0.865301
0.310074
-0.901172
0.592079
-0.442543
0.767731
0.165256
0.985802
0.16699
-0.349458
-0.26309
-0.462763
0.922501
-0.67165
-0.125536
0.187293
0.285088
-0.735629
0.273484
0.835032
-0.747434
-0.765492
0.36268
0.908432
-0.558625
0.608529
0.577312
-0.685998
0.994122
0.660916
-0.493204
-0.519709
0.178666
-0.128819
-0.198783
-0.719893
0.174437
-0.375606
-0.764629
0.558701
0.108974
0.37898
0.297671
0.650637
0.648517
-0.86516
-0.596791
0.841075
-0.433884
-0.201392
-0.111656
-0.336531
0.266888
-0.0102742
0.49058
-0.118369
0.807736
-0.838304
-0.749692
0.390621
-0.650583
0.806758
0.320277
-0.653576
0.927415
-0.177351
-0.932238
0.218157
-0.589082
-0.142993
0.167587
-0.826074
0.303943
-0.725793
-0.292677
-0.805894
-0.821904
-0.866634
0.285945
0.891599
-0.157315
-0.296623
-0.157776
0.451715
-0.533754
0.205911
0.688665
-0.964926
-0.0785768
-0.343423
-0.0386353
-0.328505
0.972031
-0.342042
0.363016
-0.720917
0.0793982
-0.710664
-0.775306
0.163368
-0.681091
0.762412
0.296809
-0.764066
-0.932758
-0.898919
-0.959339
0.0978847
-0.338778
-0.667344
-0.836142
0.937691
-0.793171
0.0166037
-0.321171
-0.408138
-0.608834
0.879604
-0.763284
0.649083
-0.887261
0.479136
0.751283
0.260093
0.954193
0.845323
0.559226
0.694963
0.0756373
-0.842478
0.917838
0.199853
-0.874734
-0.315518
0.0282647
-0.0888975
-0.22763
-0.27772
-0.841532
0.581486
0.897736
0.151703
-0.853158
0.788524
-0.834255
-0.163864
0.573695
-0.213951
0.39533
-0.49617
0.328275
0.917346
-0.00626984
0.813243
0.397163
0.96471
0.751701
-0.225672
-0.999982
-0.92161
-0.911857
-0.789331
-0.97224
0.548519
-0.52628
0.952181
-0.181172
0.642482
0.723229
0.0185144
-0.179733
0.0794011
-0.551267
0.180459
0.310359
0.776038
-0.812758
0.713982
-0.569895
0.376511
0.261958
-0.0258633
0.362778
-0.81702
0.965874
0.47789
-0.250106
0.798448
0.48694
0.715905
0.586433
0.862451
-0.29649
-0.554128
-0.396915
-0.440854
-0.399505
-0.626711
-0.994931
-0.885047
0.655027
0.925011
0.163236
0.945443
0.711248
-0.801964
-0.00752917
0.280875
-0.766061
0.458866
-0.864897
-0.52479
-0.441616
0.0213486
-0.695772
0.419252
-0.971466
-0.406279
-0.180595
-0.873659
0.825942
-0.542102
-0.184798
-0.771897
0.0818417
-0.0904102
-0.33821
0.0936494
-0.0327887
0.656879
0.559099
-0.887166
-0.902631
-0.332274
0.672523
0.264792
0.346416
-0.0979767
-0.86672
0.83403
0.853065
0.9954
0.491005
0.51801
0.205762
-0.0632002
0.953538
0.117136
0.94539
-0.432017
-0.117133
-0.157106
-0.85056
-0.887611
0.36942
-0.938715
0.269087
0.480351
-0.281991
0.211898
-0.0665344
0.330712
-0.533244
0.694169
-0.376517
-0.640174
-0.349185
-0.0407901
-0.883324
0.133588
-0.152925
0.936907
-0.262762
-0.896695
0.932445
-0.406169
-0.310115
0.910229
0.200628
0.969191
-0.752532
-0.624173
-0.338835
-0.676662
0.866228
-0.908782
-0.0839736
0.046364
-0.341153
-0.383526
-0.240184
0.739591
0.863058
-0.880841
0.0787469
0.881362
-0.543749
0.229055
0.758658
-0.916926
-0.0780006
0.170864
-0.586012
0.163834
-0.0471051
0.985646
-0.264752
-0.788609
-0.761156
0.961812
0.279927
-0.952008
-0.835308
-0.4087
-0.694408
-0.743745
-0.818467
0.423864
0.672111
-0.404315
-0.475529
0.437782
-0.290514
0.63008
0.530945
0.83234
-0.707762
-0.691145
-0.44558
-0.514161
0.244765
0.126807
0.135789
0.378725
0.220576
0.258522
-0.761932
0.876921
-0.021429
-0.936511
-0.200943
-0.615877
-0.320127
0.830123
-0.777269
0.138471
0.638511
0.221746
-0.223368
0.60605
-0.860377
0.599324
0.161687
-0.842831
-0.205921
0.838574
-0.18894
0.359078
-0.0367774
0.470343
0.720461
0.705523
-0.050353
0.609091
0.451289
-0.698483
-0.521013
0.331615
-0.854753
0.0774532
0.998903
0.577
0.259668
0.893979
-0.647356
-0.370919
-0.524145
-0.724305
-0.0235732
-0.917885
0.52796
0.0479177
0.758816
-0.832759
0.197693
0.686102
0.283573
-0.98294
0.188283
0.927105
-0.291392
0.401338
-0.851304
0.121563
0.522471
0.242982
-0.708416
0.194944
-0.967698
-0.0843011
0.267407
0.980011
-0.00447624
-0.939895
0.0605516
-0.584291
0.290402
-0.908283
-0.594843
0.788074
0.0626246
-0.598356
0.729222
0.523452
0.210343
0.177304
0.689653
0.981975
-0.924271
-0.00446647
-0.828452
0.344357
-0.277453
0.0853767
0.351637
-0.865056
0.263672
-0.771337
-0.538996
-0.0208801
-0.0315373
0.413252
-0.121024
0.189397
-0.956067
0.97776
0.25557
-0.60258
0.723329
0.930644
0.545034
-0.222519
0.595586
-0.91725
-0.31573
0.107724
-0.258932
-0.94697
0.675702
-0.26475
-0.0987487
0.628271
0.863944
-0.0420038
0.30785
-0.766961
0.262639
-0.971417
-0.583611
-0.594814
0.956568
0.948833
0.398238
0.841414
0.470193
-0.61011
0.392248
-0.401357
-0.815732
0.779747
0.0326139
0.88892
-0.444888
0.0916823
0.264614
-0.777005
0.23613
-0.206054
-0.841371
-0.172838
-0.268387
0.938831
-0.66027
0.69438
0.771182
0.752938
0.449833
0.182751
0.505349
-0.044628
0.137684
0.0822521
0.305922
-0.609629
0.222868
-0.923356
0.451491
-0.856448
0.156669
0.678743
-0.207664
-0.661841
0.929294
-0.998944
0.524233
-0.139582
0.137489
-0.22805
0.856398
0.112168
-0.13636
0.235122
0.711013
0.463538
-0.340258
0.859412
-0.649146
0.938311
0.854794
0.341954
0.35098
0.34296
0.731271
0.196701
-0.87996
-0.888353
0.370847
0.550026
-0.597497
0.67937
0.583028
0.664198
0.177267
-0.659008
-0.859235
0.508198
0.0892365
0.963176
-0.70145
0.504863
-0.856755
0.278799
-0.588621
-0.340976
-0.203719
0.64525
-0.970043
-0.536089
-0.84038
0.241234
0.188036
-0.0789595
-0.471875
-0.0167371
-0.349103
-0.10686
0.163299
-0.595564
-0.987766
0.946696
0.401765
0.0260422
0.562564
-0.33427
-0.137073
0.123335
0.991827
0.369025
0.631277
-0.830486
-0.771452
0.207028
0.581467
-0.454463
0.409379
0.600667
0.337539
-0.11281
0.596236
-0.051102
-0.226048
-0.962141
-0.951785
-0.564535
0.180192
-0.16101
-0.354863
0.227241
0.709259
0.930224
-0.486551
-0.597961
-0.719339
-0.986411
0.61894
0.504537
-0.740359
0.483164
-0.30864
0.0428852
0.81619
-0.588092
-0.50837
-0.250228
-0.50859
-0.744481
0.312486
-0.309392
-0.772519
-0.942604
0.570398
-0.56126
0.864708
-0.0759536
0.996151
-0.164197
-0.224244
-0.92304
-0.173724
0.867994
0.414626
0.561287
-0.0567007
0.685783
-0.523854
-0.125373
0.642891
-0.0907003
0.603289
0.096614
-0.0125636
0.251074
-0.394556
-0.75624
-0.458088
0.172256
0.42604
-0.94313
-0.461733
0.993019
0.0391465
0.347302
0.230042
0.0500576
0.241558
0.0715608
-0.866229
0.514168
0.689024
-0.323956
0.361485
-0.118146
0.621956
0.941737
0.838958
0.501395
0.0624571
-0.170305
0.0434065
-0.118649
0.272559
-0.26883
0.304273
-0.914816
-0.219004
0.391326
-0.329867
0.897622
-0.94321
-0.286132
-0.0116576
0.346105
0.0828593
-0.883626
0.0583253
-0.0371303
-0.205173
0.718303
-0.314192
-0.502962
-0.548554
0.296989
-0.851897
-0.804779
-0.479296
-0.238425
-0.114921
0.250582
0.219436
-0.448346
-0.385667
-0.499192
0.779443
0.133863
-0.436525
0.762687
-0.214583
0.568499
-0.210367
-0.112191
-0.367284
-0.154468
-0.886107
-0.299492
0.483823
-0.706681
-0.78688
0.126245
-0.676631
-0.527564
-0.41829
0.591412
0.0617202
-0.672269
-0.893602
-0.972623
-0.850532
-0.396863
-0.625324
0.552383
-0.0958313
0.651304
0.32908
0.80055
0.312105
0.72543
0.0346472
-0.259906
-0.921418
0.961607
0.975049
0.151391
0.31856
0.79074
0.0458323
0.354504
-0.305267
-0.889985
-0.213889
0.16322
0.576245
-0.256867
0.751635
-0.171941
-0.023965
0.329002
-0.425998
-0.968341
0.91125
-0.0688418
0.736807
0.299881
-0.223785
-0.924086
0.682064
0.461489
0.610494
-0.422599
-0.790456
-0.304825
-0.286111
0.16697
-0.604734
-0.362917
0.456191
0.0182721
0.449835
0.678227
0.213891
0.0362267
-0.150162
0.191633
0.444818
-0.452036
0.00688815
0.2261
-0.977663
0.214036
-0.421896
-0.607744
0.446715
0.101839
-0.611982
0.233437
0.942446
-0.505202
0.350447
0.586379
-0.0973908
-0.753905
0.181441
-0.656348
0.97708
0.451555
-0.0811322
-0.0387817
0.299085
0.570933
0.0547164
0.121828
0.0389501
-0.440317
0.593128
-0.166687
-0.43924
0.456011
0.305167
0.627168
0.358413
0.836706
-0.0560916
0.543325
-0.540301
-0.237532
-0.746597
0.0837912
-0.970804
-0.195112
-0.922678
-0.00185152
-0.988591
0.413717
-0.997369
-0.420232
0.235823
-0.982007
0.638018
-0.90403
0.167062
0.430286
-0.246732
-0.0211276
0.312473
-0.0863492
0.168442
-0.953715
-0.994387
0.781254
0.100397
0.275678
0.20812
0.347218
0.184473
-0.528062
0.819433
0.287325
0.624159
-0.82938
-0.759848
0.00979831
-0.0542665
0.327939
-0.632042
-0.854685
-0.756073
0.698609
-0.636061
0.564027
0.22557
0.63058
0.241805
-0.105822
0.949144
-0.443961
-0.785731
-0.0133236
0.108586
0.38094
-0.594053
-0.327639
-0.566294
-0.259642
-0.172344
0.348394
-0.44557
-0.904413
0.529769
-0.423041
-0.689417
0.397231
0.183914
0.356776
0.668934
-0.389776
0.606118
-0.852682
-0.0975462
0.0359725
-0.698928
0.806431
-0.710513
0.3786
0.719996
0.86899
-0.640794
0.326874
-0.749573
0.343094
0.126516
0.0925367
0.0496898
0.50217
0.201667
0.713309
-0.0902588
0.702292
0.946239
-0.73084
-0.362683
0.259261
-0.66855
-0.993223
0.0690115
-0.13432
-0.653321
0.283924
-0.65847
0.182199
0.871678
0.328252
0.834437
0.147888
0.187464
-0.818869
-0.865784
0.5526
-0.263162
0.524338
0.178517
-0.389593
-0.509384
0.0554651
-0.421605
0.20038
0.0603752
-0.878946
-0.0926099
0.0409067
0.87289
0.076795
-0.449982
-0.712555
0.411545
-0.802465
-0.547992
-0.746255
0.128576
-0.538777
-0.669276
0.441142
0.0735534
-0.761969
0.42597
0.746867
0.96936
-0.394211
0.274084
-0.978094
-0.0635451
-0.910416
-0.158085
-0.0175948
0.48737
-0.991403
-0.455489
0.335039
-0.189049
0.486931
0.0867553
-0.62505
-0.956266
0.309486
0.739576
0.589631
0.889295
0.0323947
-0.380968
0.572578
0.0815608
-0.900189
-0.154102
-0.157814
-0.437301
-0.158875
0.720094
0.905684
0.408959
-0.0529566
-0.124636
0.442932
0.318918
0.828076
-0.0567721
0.05472
0.489286
-0.220469
0.740818
0.275153
0.778709
-0.163702
-0.595888
-0.874477
0.0445503
0.449608
0.723982
0.182323
-0.459222
0.845636
0.952149
-0.3895
0.0422992
0.754706
0.24805
0.369544
-0.379139
0.848771
0.870266
-0.324793
-0.882798
0.792782
0.032635
-0.817253
0.627455
-0.63708
0.197218
-0.9363
-0.884899
-0.0196523
0.383281
-0.885622
0.663797
0.00234671
-0.12318
0.999534
0.106883
0.417606
0.187337
0.235126
0.522592
0.414014
-0.42884
-0.916925
0.489283
-0.388037
-0.566714
0.732839
0.577601
-0.148528
-0.401352
0.0751751
0.748129
0.336143
0.130934
-0.840409
-0.038413
-0.998705
0.0513885
-0.273075
0.138236
0.298696
0.105905
0.711691
-0.22589
0.409228
-0.431033
-0.562592
-0.464075
-0.909198
0.978525
0.589162
-0.380662
0.025521
0.0861853
0.296766
-0.407297
-0.971693
0.711383
0.782031
-0.962901
0.298903
-0.580855
-0.843394
0.526628
-0.551473
-0.0848774
0.649472
0.70335
0.699609
0.537424
0.918713
-0.0311505
-0.366536
0.201797
-0.920881
-0.923762
0.56242
0.245694
-0.685851
-0.0794861
-0.854415
0.0485649
0.240852
0.655723
-0.400749
-0.214478
-0.586913
0.947703
-0.607061
-0.314357
0.491463
0.765664
-0.304283
0.482152
-0.656063
-0.779754
-0.0236632
0.908419
-0.508792
-0.803092
-0.597246
-0.0588017
0.354395
-0.930234
0.275941
-0.367875
0.333829
0.801762
-0.680087
0.143761
-0.307233
-0.86192
0.962998
0.791232
0.181343
0.438882
-0.617806
-0.970226
0.635626
-0.0461122
0.569669
0.117478
0.54289
-0.285014
-0.971421
-0.9816
0.151572
0.481272
0.949871
0.123463
-0.890476
-0.925152
0.44272
0.104554
0.340287
0.583116
0.794122
-0.110635
-0.196836
0.767717
0.718363
0.300871
0.467478
-0.811085
-0.880035
0.270338
-0.109781
0.192164
-0.445639
0.743011
0.424256
-0.6355
0.862183
-0.429532
-0.712105
0.861851
0.940104
0.348234
-0.236798
-0.699474
0.389415
0.743423
-0.290798
0.0192359
0.979767
-0.79726
0.706724
-0.569516
-0.86186
-0.219734
0.605714
0.0268977
-0.288588
-0.67253
0.940513
-0.584165
-0.819982
-0.724289
-0.498477
0.540938
0.11346
-0.471105
0.434998
-0.237428
0.952818
-0.412662
0.839765
-0.636479
0.310838
-0.870976
-0.434497
-0.133122
-0.125605
0.627596
0.880562
0.348291
0.491801
-0.216673
-0.922281
-0.261192
-0.456438
-0.414754
-0.576141
0.33452
0.30163
0.173267
-0.628862
0.509536
0.582437
-0.719118
-0.365576
-0.18542
0.474871
-0.970301
0.928642
-0.0603148
0.129342
0.250082
-0.530828
-0.0874968
0.538004
-0.61822
0.794133
-0.838892
0.58493
-0.0395266
-0.999179
-0.759198
0.221072
0.34755
-0.562401
-0.0616949
0.900446
0.869318
0.501459
0.735206
0.0360967
0.0878102
-0.889525
-0.554851
0.128259
-0.511994
-0.751081
-0.793753
0.740821
0.427371
0.796897
0.257029
-0.527475
0.4363
-0.509637
-0.953368
-0.14046
0.658494
-0.581595
0.322899
0.373014
0.13116
-0.0581918
-0.675921
-0.632652
0.173252
0.150858
-0.610212
0.882976
-0.391088
0.245743
-0.710544
0.371521
0.552246
0.747791
-0.534256
-0.21274
-0.988502
0.610318
-0.10011
-0.698484
-0.615576
0.118633
0.973302
0.351016
0.365818
0.483095
-0.356007
0.813698
0.382411
-0.19872
-0.996815
0.0835888
-0.424213
-0.308775
0.258046
-0.261129
0.892851
0.504147
-0.760853
0.694409
-0.00587837
-0.729718
0.399855
-0.687096
0.587693
-0.895013
-0.890087
-0.733266
-0.689715
0.231859
-0.075299
0.903621
-0.395417
-0.430358
-0.754317
-0.312903
0.978571
-0.0328383
-0.654064
0.10832
-0.208868
0.384747
-0.023302
0.123322
-0.501734
-0.569057
-0.539808
-0.066269
0.730691
0.507393
-0.218196
-0.987286
0.701167
0.975394
-0.914241
0.87238
0.142355
-0.252315
-0.246824
-0.0437307
-0.552202
0.672484
0.450706
0.872318
-0.371794
0.728522
-0.31112
-0.172455
0.807893
0.243036
-0.445127
-0.795215
0.758108
0.089385
0.449241
-0.24053
-0.837202
0.783001
0.455815
-0.157539
0.486862
-0.603828
-0.964461
0.71098
0.297246
-0.267962
0.216551
-0.381863
0.284623
-0.128871
-0.456084
-0.377414
-0.838806
0.940518
-0.679431
0.473682
0.490278
0.535351
0.00423747
-0.600654
0.632837
-0.327909
0.334952
-0.632376
0.611109
-0.00564489
-0.132845
0.0889682
0.603076
0.624454
-0.543541
-0.0775641
-0.425531
-0.605159
0.52308
0.991028
-0.714261
0.995849
-0.341754
-0.129106
-0.78516
0.6547
-0.689318
-0.164855
-0.128137
-0.971736
-0.814477
-0.608805
0.635583
0.558591
-0.0225038
-0.16845
-0.633655
0.811106
-0.502353
-0.745149
0.763573
0.276712
0.647957
-0.428577
0.26489
0.0385241
0.216878
0.481056
-0.340956
-0.369524
0.433495
-0.57263
-0.65551
0.678468
-0.392948
-0.248991
-0.946396
-0.373361
-0.873094
-0.627413
0.0296206
0.729702
0.404126
0.39644
0.556361
-0.85397
0.455244
-0.129544
-0.110838
-0.240689
0.593458
0.862582
0.339187
0.554588
0.883097
-0.0530583
-0.0495575
-0.944456
0.720138
0.012892
0.72656
-0.49376
0.773296
-0.084775
-0.0606494
0.581407
-0.960715
-0.576649
-0.628973
0.837292
-0.677328
0.196482
0.803977
0.37776
-0.386067
0.838632
-0.121029
-0.813374
-0.467172
0.914707
-0.246268
-0.319898
-0.0667098
-0.00951417
0.842075
-0.118174
0.416791
-0.695238
-0.63621
0.24269
-0.358602
-0.742731
0.08276
-0.549848
0.492122
-0.676472
-0.917471
0.934875
-0.775124
0.765986
-0.117263
-0.569563
-0.777351
0.234485
-0.17391
0.524987
-0.477599
-0.0989565
-0.670768
-0.815555
0.218638
-0.755178
0.883316
-0.403828
-0.969983
0.402743
-0.787029
-0.461585
0.0489191
-0.548975
0.14188
0.87159
-0.215293
0.873819
0.147045
0.915247
-0.106248
-0.699014
-0.429819
0.901124
0.471579
0.669238
0.218884
-0.590857
0.0607088
0.0937835
-0.269271
-0.035409
-0.246204
-0.503553
0.33185
-0.669411
0.570216
-0.643256
0.786931
0.171062
0.865667
0.0396284
0.763211
-0.780968
-0.982285
-0.00611355
-0.973065
0.427586
0.540967
0.976091
-0.977287
0.902062
0.555287
0.385364
-0.223381
-0.161273
0.997163
0.12412
-0.308726
0.885835
0.871964
-0.759283
-0.199832
-0.0133098
0.344016
0.476876
0.354173
-0.7897
0.0821698
0.608571
-0.317459
0.73395
0.293757
0.74791
-0.14958
-0.304322
-0.839051
0.512102
0.773539
-0.640815
-0.0167988
-0.0413407
-0.672857
-0.233523
0.662168
0.816242
-0.501276
0.591137
-0.968187
0.393449
-0.115329
-0.893052
-0.589833
-0.17116
0.0758915
0.947359
0.946618
0.872924
0.332021
-0.978616
-0.256701
-0.486283
0.391289
-0.0452476
0.200312
-0.682648
0.00855702
-0.405055
-0.394522
-0.0266152
-0.656252
0.464996
0.724417
0.236189
0.404525
-0.760428
-0.35825
0.170862
-0.0706218
0.170147
0.986076
0.682221
0.210401
0.3826
0.0982553
0.972925
-0.989767
-0.255007
-0.136095
0.491912
-0.788528
-0.182409
-0.153262
-0.452368
0.653777
-0.115793
-0.0100081
-0.20978
-0.903587
0.748062
0.0735497
-0.755884
0.36724
0.00972697
-0.891594
-0.558537
-0.0368774
-0.991897
-0.24136
-0.741689
-0.22276
-0.46234
-0.176491
-0.364429
0.815563
0.941451
-0.304782
-0.550215
-0.969518
0.664155
0.426486
-0.965518
-0.820272
-0.200359
-0.336254
-0.193623
0.561851
-0.758014
0.0429532
0.751959
0.517948
0.952468
-0.941081
0.712265
0.842215
0.574289
0.415745
-0.968678
0.236711
-0.570933
-0.388823
0.302594
0.109965
0.863403
0.323911
0.784666
-0.807227
-0.68982
-0.961461
-0.779371
-0.62826
0.398863
0.392626
-0.0254147
0.972269
0.217301
0.384747
-0.244487
0.814117
0.514446
0.242426
-0.50403
-0.428641
0.180437
-0.560945
0.869359
-0.909249
-0.760193
0.904317
-0.785683
0.13304
0.254964
-0.435755
0.610028
-0.401691
-0.285665
-0.696264
-0.119673
-0.067183
0.903829
0.948056
0.0685773
-0.196721
0.321744
-0.832015
0.632296
0.997479
-0.831058
0.759274
-0.340102
-0.487551
-0.288532
-0.0516107
0.590905
0.422769
0.329737
-0.0615896
-0.920893
0.415169
-0.543911
0.31754
0.785151
0.895858
-0.613709
0.975739
-0.313035
0.919674
0.0621277
0.361195
0.775522
0.482142
0.699418
-0.912126
-0.761803
0.115092
0.822771
-0.310498
0.057247
-0.577009
0.515587
-0.698314
-0.40333
0.657613
0.911427
-0.942223
0.866062
0.273696
0.94305
0.567393
0.76929
-0.827556
-0.806972
0.654912
0.78963
0.0298044
-0.11985
0.715708
-0.104133
-0.474691
-0.833231
-0.491059
0.962137
-0.332369
-0.672181
0.687536
0.96127
-0.779236
0.994349
0.448308
0.938
0.750939
-0.580146
-0.636038
0.910062
0.799387
-0.731175
0.546306
-0.326467
0.202959
-0.111628
0.785513
0.208797
-0.0131279
-0.0712807
-0.667342
0.981601
0.0512409
-0.908824
-0.932398
0.177418
-0.768376
0.798706
-0.646911
-0.15452
0.555793
0.831286
-0.24336
0.391563
-0.37715
-0.895882
0.768591
-0.0427709
-0.868555
0.480871
0.807789
-0.118019
0.350171
0.472183
0.0272079
-0.757258
-0.480316
-0.0773424
-0.326176
0.32821
0.557873
0.945351
-0.343711
-0.765435
0.0875315
-0.85124
0.145646
0.505058
-0.810774
0.0464712
-0.475399
0.996063
0.0217427
-0.590145
0.176265
-0.27463
-0.418104
-0.0139937
0.343944
-0.932297
-0.00702255
0.0284154
-0.469121
-0.204636
0.948534
-0.49551
-0.49118
0.871764
0.893388
0.198836
0.795841
0.379595
-0.0978969
0.0776032
0.480027
0.122608
0.502593
-0.773006
0.571098
0.305753
-0.342958
-0.905773
0.252373
-0.79544
0.302407
-0.53587
-0.89241
-0.781171
-0.901304
0.0775904
-0.23066
-0.587754
-0.0537418
0.674106
-0.332461
-0.781267
-0.629522
-0.693956
0.810666
-0.631722
0.00485339
0.0630257
-0.479592
-0.862559
0.578349
0.567828
-0.169526
-0.877131
0.394943
0.311389
0.618971
-0.761912
0.414406
0.449738
0.171961
0.295342
0.474062
0.899585
0.175224
-0.947152
0.271428
-0.949551
0.470666
-0.980907
0.0715617
0.146807
-0.39153
0.534929
-0.0205805
-0.773198
-0.425647
0.803087
-0.150341
0.0863115
0.764017
-0.843728
0.858841
-0.726426
-0.332642
0.48261
0.556921
0.596615
0.32323
-0.0748052
-0.628201
-0.689192
0.577379
0.83665
-0.506009
0.0960027
0.843922
0.626839
0.656293
0.461785
0.41296
0.250385
0.289525
-0.553107
-0.501694
-0.670046
0.0307302
-0.10017
-0.202726
0.970946
-0.478042
0.640929
-0.609567
-0.977045
-0.0445247
-0.48118
-0.023205
0.456693
0.195929
0.543654
0.568021
0.655012
0.0168292
-0.279649
0.535185
0.975826
-0.348512
0.714419
0.985297
-0.09886
0.51884
0.941234
-0.157131
-0.0151206
-0.418274
-0.592107
0.635444
0.87048
-0.558434
-0.603391
0.910771
-0.570867
0.470945
-0.367
0.922502
-0.399862
-0.762641
0.513666
0.415924
-0.350497
-0.789774
-0.105851
-0.488305
-0.6885
-0.666133
-0.113739
0.591379
-0.693646
0.0871372
0.0143388
-0.717378
0.857933
0.762686
-0.728723
-0.0458822
-0.453403
-0.956303
-0.658777
-0.82752
-0.240802
-0.277202
0.167061
0.126935
-0.762766
0.431487
-0.682605
-0.306143
0.87032
-0.834845
0.139886
0.977198
-0.65226
0.24602
-0.636723
-0.222995
0.559652
-0.148867
0.097086
-0.461787
0.688914
-0.273148
-0.699178
-0.528496
-0.794431
-0.0804246
-0.610332
0.877756
-0.233783
-0.525805
0.0375091
-0.596655
0.243864
0.267349
-0.604388
0.47014
-0.361664
-0.145865
-0.308295
-0.499253
-0.0465463
-0.924628
-0.0440267
-0.0309439
-0.519956
0.551354
0.970695
-0.13233
-0.720258
-0.413025
-0.97658
-0.57736
-0.708912
-0.401764
0.755381
0.233827
0.425401
0.263692
-0.535768
-0.686025
0.615456
-0.815128
-0.69863
0.485406
-0.863639
-0.958093
-0.411447
-0.57951
-0.617352
-0.972107
-0.154527
-0.813104
0.337362
0.284623
-0.1389
-0.264398
-0.551365
-0.900348
-0.279764
-0.578795
-0.922735
0.0858643
-0.105848
0.555022
0.675553
-0.426959
-0.492293
-0.0272599
0.492339
-0.911401
-0.0175379
-0.4975
0.41742
-0.445621
0.451216
0.384668
-0.414531
-0.0669867
0.663395
0.507227
0.044462
-0.322412
0.243957
-0.884002
0.49258
0.801406
-0.125172
-0.229257
0.475587
-0.604301
0.0908158
-0.220267
-0.867038
-0.5315
-0.0686568
0.221143
0.610933
0.825137
-0.668938
0.545208
-0.444283
-0.0912849
0.688881
0.273601
-0.00145204
0.897739
0.00453336
-0.370031
-0.310322
-0.471175
0.949416
-0.762421
-0.81822
-0.407691
0.968014
0.53495
-0.972749
0.260771
0.268251
-0.895488
-0.0369064
-0.363119
0.478251
-0.69247
0.398309
0.00993349
-0.954447
0.776345
-0.867177
-0.0143166
0.801657
-0.66592
-0.59542
-0.973634
0.328548
-0.212917
0.983815
0.256126
0.963774
0.427244
-0.337181
0.00498789
-0.0332368
-0.827759
-0.818008
-0.636219
0.585017
-0.653371
0.977107
0.543664
0.848801
-0.849063
0.0746281
0.700435
-0.907763
-0.766975
0.534777
0.214861
-0.566496
0.975692
0.61039
0.741147
0.0148042
-0.687041
0.349051
0.0780708
-0.247375
-0.59327
-0.156476
-0.0808604
-0.989212
0.334342
-0.610633
-0.456552
0.0940649
0.190462
0.128194
-0.33179
-0.727164
0.161364
0.484964
0.561064
0.0537783
-0.751461
0.36913
0.860957
0.495296
-0.973313
0.649145
0.979322
0.921004
-0.0611216
0.508338
-0.0562223
-0.778815
0.974027
0.773823
0.82795
-0.164792
0.849993
-0.998538
0.0169848
-0.884737
-0.630948
0.843913
-0.498204
-0.941939
-0.461136
-0.505293
-0.0490182
0.550578
0.363715
0.507751
-0.29771
0.119415
0.427733
-0.826155
-0.912497
0.018396
-0.780712
0.746987
0.688811
0.954835
-0.929973
0.163406
0.285652
-0.133183
-0.629355
-0.848712
0.984277
-0.146482
-0.0726656
0.611405
-0.0450912
-0.0341097
-0.231992
-0.663282
0.491567
0.330192
0.00712599
0.167421
0.946751
-0.347912
0.59921
0.424912
0.837708
0.198081
0.0912126
0.884705
0.509103
-0.571512
-0.232135
0.556247
0.406013
0.42894
-0.365769
0.869218
-0.668006
-0.322647
0.387425
0.207797
-0.933909
-0.0449419
-0.297559
-0.627621
-0.210246
-0.890147
-0.0922721
0.858798
-0.495164
0.170478
-0.191452
0.899897
0.7567
-0.199155
-0.415881
-0.878421
-0.585362
-0.975888
0.350265
0.509404
0.481801
0.248731
0.302901
0.36747
0.262223
0.4242
0.458241
0.0650392
-0.786949
0.207642
-0.59148
-0.124305
-0.378218
0.429514
0.649019
-0.832357
-0.806599
0.0344269
0.740954
-0.067909
0.689376
-0.300469
-0.40028
0.250863
-0.935798
0.187715
0.689272
-0.939126
0.197034
0.886654
0.396516
-0.0821994
0.00729787
0.15938
0.268262
-0.969783
-0.382946
0.565399
-0.984348
0.648395
-0.95488
0.433307
0.304273
-0.40393
-0.827805
0.74048
0.465038
0.443355
0.474471
-0.162361
-0.137689
0.403936
-0.168763
-0.492758
-0.874383
0.810278
-0.0157726
0.847104
-0.996115
-0.221021
-0.770486
0.340458
-0.408231
-0.333573
0.893574
-0.468449
-0.890257
0.217031
-0.21091
-0.174597
-0.673486
-0.458404
-0.350843
0.0812719
-0.841634
-0.742609
0.268675
-0.462313
-0.439016
0.205635
0.287397
-0.985074
0.172085
0.474513
0.0607202
0.76697
-0.573991
0.240444
0.492892
0.434138
-0.766258
-0.152322
-0.65011
0.945714
-0.429301
-0.475617
0.132934
-0.942346
0.636099
0.72871
-0.769362
0.468775
-0.752458
0.935565
0.834565
0.782259
-0.844707
0.281599
-0.581398
0.621233
-0.263828
-0.00972296
0.414721
0.158811
-0.122293
0.233876
0.397841
-0.910064
0.673618
0.060669
-0.570688
-0.463041
0.255673
0.448131
-0.236452
-0.0203649
0.888374
-0.917578
0.932662
0.898019
0.848726
0.726618
0.00453061
0.618847
-0.0430077
-0.441644
-0.320156
0.848599
-0.574323
-0.803792
-0.62136
0.827191
-0.881094
0.388825
0.99829
-0.0060541
-0.314698
0.638808
-0.559204
0.852272
-0.67727
-0.967632
-0.948359
0.462542
0.287874
-0.0642401
0.935804
-0.796324
