1431655766
248323
1
0
-0.211139
-0.0586678
0.00722819
-0.000963354
0.0651022
-0.0992405
-0.0202449
-0.0125155
0.0370977
0.0256183
-0.111287
-0.105787
0.0282172
-0.0798948
0.0438628
-0.0158348
0.0613155
0.0113653
-0.0676177
0.0677376
-0.107976
0.0351325
0.00559911
-0.100208
-0.0882804
-0.119845
-0.0535564
-0.0460304
0.00789759
0.0495277
-0.101553
-0.000967648
0.0585164
0.0489257
0.00240833
0.0236903
-0.0772469
-0.0999741
0.0392832
-0.0532657
0.00252423
-0.0739083
0.0409477
-0.065349
0.0277795
0.0407603
-0.0547797
-0.0492733
0.0616671
-0.0119824
-0.0284105
0.0599374
-0.0536394
-0.117701
-0.0816005
-0.0269084
-0.111128
-0.0846711
0.0188363
-0.0951488
-0.0379825
-0.0578075
-0.117541
-0.000251843
0.0648561
-0.0661229
0.000615006
-0.103956
0.0665016
-0.110122
0.0663705
-0.077158
0.0397375
-0.106324
-0.0513023
-0.0554527
0.0478852
0.0619555
0.071839
-0.00855048
-0.122805
-0.0208844
-0.119089
0.0241256
-0.037375
0.0242282
0.043199
-0.123679
-0.048723
-0.118598
0.0563432
-0.0922072
-0.00315969
0.0215128
0.0453817
0.0499369
0.0581478
0.00917374
-0.0680681
-0.0473345
-0.0426254
-0.0895309
-0.073277
-0.0717641
-0.0560447
-0.0825748
0.0560312
-0.0217235
-0.00262627
-0.00205456
0.0592283
0.0399764
-0.054784
0.0722764
0.0360543
-0.0882504
0.0741245
0.0166426
-0.0347134
0.0206634
-0.0513041
0.0126993
-0.0852824
-0.010438
-0.0734541
0.0343145
-0.0410609
-0.0705968
0.0558961
0.00905832
0.0684914
-0.112607
0.0189697
0.0225634
0.0366494
-0.08917
-0.115111
0.00836479
0.0516949
-0.0313951
-0.0542494
-0.0911386
0.0331699
-0.106897
-0.00323284
0.00204618
-0.0254606
-0.0715397
-0.0185121
0.0502751
0.0371854
0.0266014
-0.123346
-0.0773788
-0.0446051
0.0156483
-0.121022
0.0343386
0.0123407
-0.0100206
-0.0962544
-0.0328072
0.0698793
-0.0991181
-0.0969879
0.0355352
-0.0797918
-0.113756
-0.114276
-0.0113627
-0.0192364
0.0408843
0.0454783
-0.12364
-0.0682273
-0.0818065
-0.0754313
-0.0829524
-0.0640823
-0.0365368
0.0515892
-0.0830536
-0.0515891
-0.00511438
0.0282544
0.0192523
0.0220618
-0.104117
-0.0605107
-0.0936471
0.042478
0.000397395
0.0490499
-0.0619437
0.0346562
-0.124676
-0.00336836
-0.0611754
0.0534014
-0.0258498
0.0488428
-0.0652629
0.0537994
-0.0568314
-0.0325927
-0.0839403
0.00206443
-0.00969031
-0.021703
-0.00942291
-0.0632774
-0.0788129
-0.0906534
0.0747933
0.00392131
-0.0125554
0.056199
-0.0540231
-0.080874
-0.00390704
0.0150386
0.0275883
0.0310438
-0.0901983
-0.0258626
0.025774
-0.0385067
0.053634
-0.0834585
0.0617147
0.0385041
-0.0281388
-0.0304244
0.0071131
0.0524094
-0.105353
-0.117897
0.0554038
0.0501311
0.181447
0.0984136
0.072592
0.161678
0.102487
0.0855684
0.112882
0.128141
0.0912694
0.0751863
0.118965
0.0550837
0.15686
0.12977
0.145302
0.184607
0.112163
0.130637
0.0791128
0.0736135
0.0744658
0.154488
0.187605
0.0887693
0.12595
0.39592
-0.0103474
-0.0736731
-0.0831819
-0.0947602
0.0515782
-0.071024
-0.0678334
-0.115118
0.0430559
0.0705885
-0.100564
-0.00723046
0.0579711
0.0281126
0.0426759
-0.0817081
-0.0796947
0.0501601
-0.0940505
-0.0725983
-0.0839894
-0.0928491
-0.120949
0.0490609
-0.0946073
-0.105561
-0.0619307
0.0464224
-0.0815149
-0.0315325
0.0305902
-0.0783469
-0.104851
0.00186172
-0.103692
-0.0881896
-0.0698802
-0.0662899
-0.102519
0.00491712
0.0303881
-0.0364425
-0.114408
-0.0675082
-0.0319731
-0.117248
-0.0427688
-0.0649415
0.0673008
-0.0776321
0.0552155
-0.0502287
-0.0445421
-0.056376
-0.117682
-0.0182617
0.0586074
-0.0760967
0.049924
-0.0800857
-0.0375573
0.0142962
-0.0423958
-0.100113
-0.0276628
-0.0175668
-0.0739228
-0.0898436
0.072431
-0.00474479
-0.0499891
-0.0768159
-0.03341
-0.0971342
-0.091553
-0.0359041
-0.0542005
-0.119654
0.0391939
-0.0884473
-0.042716
-0.0316183
0.0575476
-0.0276371
0.0679523
0.0436929
-0.00526357
-0.0373714
0.0107806
0.0447728
-0.103531
-0.0683071
0.0501514
-0.0325626
0.0175786
0.00235301
-0.0527752
0.0415682
0.0568162
6.96518e-05
-0.107212
0.0134577
-0.114411
-0.0102814
-0.0363935
-0.0126352
0.0453556
0.0299343
-0.0219273
-0.0545898
-0.00688896
-0.112223
-0.0304213
0.0127948
0.0157639
0.000979463
-0.0982586
0.0277464
-0.108617
-0.106752
-0.0361431
-0.124623
-0.109344
0.0144398
0.0577235
0.058596
-0.035364
-0.00988403
-0.00110331
-0.0190227
-0.0405071
-0.0443119
-0.0496977
0.0679863
-0.119786
0.00156694
0.0312485
0.0348372
0.0127197
0.0143591
0.00217747
-0.0113419
0.0196105
0.0661018
-0.00664196
-0.108928
0.0415034
0.00357686
-0.0707796
-0.121659
0.02553
-0.0530435
-0.117744
-0.11547
-0.0386468
0.0243701
-0.116162
0.0456611
-0.0768851
-0.0608764
0.00819282
0.0748332
-0.0425372
0.0633185
-0.000931818
0.0689038
0.0425152
-0.107518
0.042155
-0.0719524
-0.104374
-0.00804028
-0.119123
0.0119067
-0.0445464
0.064597
0.00229987
-0.0549629
0.0410808
-0.0541967
0.0170029
-0.0345577
-0.086755
0.0208351
0.036644
-0.0705829
-0.0148434
-0.0245564
-0.0189974
0.00542134
-0.0878657
0.02364
0.0327141
0.0171333
-0.0187238
-0.110823
-0.0436231
0.0425892
-0.00912519
-0.0797042
-0.100296
0.0195523
-0.0123082
-0.0716307
-0.114399
-0.0372689
-0.0874177
0.0348316
-0.0758618
-0.0630531
-0.0785257
-0.0851403
-0.0269546
-0.0718067
-0.110205
-0.0179454
-0.119889
-0.07144
0.00504527
0.0662088
-0.0406843
-0.0975302
0.0304457
-0.0216073
0.0186373
-0.00738956
-0.109678
-0.0207324
0.0149148
0.0132008
0.0341359
0.0069783
-0.0318729
-0.0745506
0.00412354
-0.0234789
-0.0387801
-0.0508536
0.0184763
-0.112417
-0.117201
-0.112075
-0.0729136
0.0401864
-0.0525382
-0.0887001
-0.0544029
-0.003265
0.0258503
-0.0416334
-0.0597918
-0.0507857
-0.111816
-0.0316285
0.0641686
-0.0604347
0.0414033
-0.0492223
-0.0602607
-0.0113753
-0.0691001
0.0154493
0.0512631
0.0237986
-0.0271612
-0.0374238
0.0596968
0.0387297
-0.0613067
0.069482
0.0166777
0.156876
0.0286058
0.114478
0.0999083
0.0376181
0.157787
0.132261
0.0836624
0.0436864
0.148031
0.164644
0.0180407
0.0275133
0.0648829
0.109554
0.0849102
0.119402
0.0480133
0.158511
0.16428
0.0692586
0.461214
-0.0691708
0.0216096
-0.0584959
0.00308047
-0.079267
-0.00894892
0.0550752
0.00917153
-0.0241926
-0.0455662
0.0554397
-0.0715028
0.0599397
-0.118501
-0.0858426
-0.0322741
0.0692767
-0.0627402
-0.0442852
-0.0706736
0.0564306
-0.0449516
-0.0141915
0.0637714
-0.0297718
-0.0923771
-0.0945495
-0.0507418
0.0073156
-0.124404
-0.0679699
-0.0678022
0.0254986
-0.0205663
0.0153147
0.0138525
0.0338773
-0.11856
-0.0747503
-0.0366226
0.07322
-0.0421907
0.0187691
-0.00996509
-0.0530098
-0.0622155
-0.0569785
0.0412716
0.043977
0.0132754
-0.0388841
0.0169389
-0.0296605
-0.081269
0.0376849
0.0364996
-0.0912316
-0.121748
-0.101464
-0.107362
-0.064873
-0.0488542
0.0143156
0.0091741
0.00464874
0.013875
0.000172082
0.0603836
-0.103108
-0.117363
-0.10165
-0.0758035
0.0380847
-0.102378
-0.0693045
0.00553672
0.0382906
-0.0867177
-0.0103717
-0.0276254
-0.024214
0.0277404
-0.0929687
-0.124372
-0.0457831
-0.0868536
0.0445131
0.0503378
0.0636652
0.0593459
-0.0894527
0.0707793
0.0745339
-0.0157452
0.0580055
-0.0486856
-0.113583
-0.0321312
-0.0445611
-0.0385886
-0.0682668
0.0537928
0.0442361
-0.0880425
0.0482383
-0.0445093
0.0356652
-0.0510828
-0.0947867
-0.0093772
-0.00733023
0.0707093
-0.0608757
0.0336601
0.0245316
-0.0892096
0.00727388
-0.100001
0.0310069
0.0729661
0.0270825
-0.0857624
-0.120854
-0.0350603
-0.0652192
-0.0789449
-0.0957255
0.0717868
-0.0186567
-0.0830917
0.0244989
-0.101418
0.040708
-0.0699855
-0.0339927
-0.0570237
0.000980806
0.0274865
0.0352951
0.0489786
-0.00833113
-0.0303403
-0.0960413
-0.0718629
-0.116899
-0.0274072
0.0231185
-0.108226
0.0734539
0.0558867
0.0695264
-0.0474966
-0.0882797
-0.104727
-0.108413
0.0592156
-0.0683568
-0.00620388
-0.113096
0.0406646
0.0728028
-0.0904145
0.0040647
0.0227888
-0.0788853
0.0212614
0.0729974
-0.0381461
-0.0733317
0.0608364
-0.00554658
0.0367419
-0.0941344
-0.0110574
-0.0737216
0.0209544
0.0202865
-0.120906
-0.0792913
0.0264048
-0.0709041
-0.0382038
0.00843825
-0.0361305
-0.109518
-0.0517797
0.00859549
-0.0290488
-0.0323278
-0.0847587
-0.000333879
0.00587664
-0.0223871
0.0589532
-0.0171558
0.00267516
0.0190226
0.0235011
-0.109643
0.0296837
-0.0867471
0.0637532
-0.0969172
0.0259018
-0.102274
-0.116994
-0.0445249
-0.0697179
0.0319885
0.0158151
-0.0106621
0.0554446
-0.0598131
0.00760726
-0.0905425
0.053139
0.00366498
0.0622556
0.00505941
0.0485257
0.035666
0.0424508
-0.0680103
0.0632605
0.0734164
-0.0416598
0.0259566
0.00719875
0.0164619
-0.0685511
-0.0529202
-0.03951
-0.0552502
-0.0383472
0.0536249
-0.0409063
-0.0942502
-0.0340787
-0.122962
-0.013295
0.0238827
-0.0725312
0.0651243
-0.0490359
0.0529447
-0.113727
-0.0646813
-0.0520259
0.0526146
0.0051814
0.0234953
-0.124917
-0.0387361
-0.0660862
-0.0871224
0.0127386
0.0356841
-0.000393659
-0.0664262
-0.105759
0.0698306
0.0645702
-0.0422958
0.044299
-0.090519
0.0266585
-0.108374
-0.0405539
-0.0555596
0.040002
0.0335771
-0.00297153
-0.0272184
0.00668103
-0.0845559
-0.0978857
0.13228
0.0683242
0.042386
0.109728
0.0331056
0.0885418
0.141729
0.173409
0.0601248
0.0737528
0.0417913
0.156467
0.17563
0.0797836
0.0161097
0.0195661
0.0415907
0.129922
0.145948
0.0460099
0.109476
0.0209376
0.0690644
0.150646
0.177504
0.769949
0.0587788
-0.112916
-0.00491906
-0.0814527
0.0051829
-0.0585115
-0.0883605
-0.0234673
-0.014759
0.067994
0.0234684
-0.0166278
0.0415179
0.0381773
0.0248105
0.0328817
-0.0420309
0.00708835
0.0641235
-0.0886596
-0.105807
-0.0710455
-0.118515
-0.033698
0.0117544
0.0542793
0.071219
0.023076
-0.116034
0.0553709
-0.109091
-0.00973091
0.0121623
0.011463
-0.118083
-0.0420186
-0.0408821
0.00306311
-0.102268
-0.0639259
-0.036444
-0.079661
0.0743319
-0.0760274
-0.00357331
0.0623744
-0.0915326
-0.053766
0.0685165
-0.0240117
0.0646091
0.0580592
0.0737905
-0.0441573
-0.022503
-0.0127424
-0.0773389
-0.0240115
-0.0965
0.0708714
-0.124899
-0.0514028
0.0141335
-0.0370565
-0.0638028
-0.119605
0.0694201
0.0544418
-0.0653044
-0.0352339
0.041223
0.0656745
-0.0462389
-0.104236
0.0163534
0.0151798
-0.119089
-0.0900262
0.00706233
-0.0421176
-0.00156007
-0.0966621
-0.113116
-0.00559058
-0.0788491
-0.0602483
-0.0258289
-0.0402829
-0.00401769
0.00326047
-0.0680489
-0.0390344
-0.112586
0.0187922
-0.0129854
-0.0952237
0.0240169
-0.085132
0.0683695
0.0373644
0.0715608
-0.0268124
0.0107423
-0.0364936
-0.112175
-0.0711247
-0.102683
-0.0839121
-0.0123747
-0.0221538
-0.0125568
-0.0287501
0.00264728
0.0461027
-0.114903
-0.0748574
-0.0196289
0.0515721
0.05576
0.0335493
0.0569803
0.0220899
-0.0780327
-0.11934
-0.0301826
-0.00664537
-0.0157317
-0.118822
-0.0786372
-0.0234853
0.0597945
0.00599286
-0.0640103
0.053528
-0.0210178
0.0281878
-0.0944242
-0.122973
-0.108461
0.0534502
0.0318052
-0.0207668
-0.0474834
0.0035478
-0.010139
-0.0303577
0.0175861
0.0569061
-0.0123046
0.0352607
-0.0366475
0.00190995
-0.0459201
-0.00193469
-0.00215586
-0.0932926
-0.120496
0.00888367
-0.0423897
0.0306075
-0.072321
-0.0739833
0.00910388
0.00957853
-0.00868478
0.0333198
0.053224
-0.00814444
0.00417677
-0.0442955
0.0280211
-0.0646448
0.0459477
0.000443965
-0.00803195
-0.0988963
-0.0945109
0.0328344
-0.0790414
-0.0530366
-0.0202554
-0.124255
-0.114013
0.0262777
-0.0648247
-0.0823582
0.027199
-0.0117507
-0.055838
-0.0637598
-0.0904217
-0.0057943
0.00346755
-0.0775374
-0.0921646
-0.0476012
0.00204218
0.0717294
0.06716
-0.0953243
0.0231519
-0.0444709
-0.00564055
0.0690356
-0.0744435
-0.00237079
0.0267953
0.0295403
-0.0630745
-0.0123243
-0.0200132
0.0405928
0.0586073
0.000703445
0.036512
-0.0225299
-0.0733152
0.0452568
-0.0933547
-0.0321409
0.0380892
0.00229061
0.00529775
-0.115319
-0.0378272
-0.114453
-0.0985514
-0.122133
0.0676893
-0.0161857
0.0151006
0.0295404
-0.00419571
-0.0875157
-0.111471
0.0507108
0.0153103
0.0933808
0.165784
0.150211
0.143401
0.153525
0.120562
0.130491
0.180583
0.080439
0.0909594
0.133073
0.0718078
0.051596
0.155522
0.159095
0.0373707
0.136252
0.0130098
0.0975524
0.155773
0.178959
0.0890205
0.0772923
0.0245879
-0.356944
0.011597
0.0652145
-0.0508929
-0.0331976
-0.0812984
0.0117427
0.0437878
-0.0279227
-0.0382468
-0.0963501
0.0167919
-0.0953308
-0.072069
-0.115754
-0.0981012
0.0142751
0.0674929
0.0548239
-0.0682933
0.070591
-0.101101
-0.0986958
-0.070794
-0.0847596
-0.117448
-0.0746113
-0.0777041
-0.0622278
0.0190213
0.0569187
0.0454057
-0.111866
0.00710552
-0.0342487
0.0431224
-0.00442735
-0.0678623
-0.080676
-0.0764606
0.0366684
-0.0139236
-0.0477066
0.0514724
-0.099972
-0.00756402
-0.0932689
0.0589134
-0.024165
-0.0123993
-0.0212869
-0.107731
0.0515215
0.00496265
-0.104012
-0.0942137
-0.0287168
0.0606725
-0.108702
-0.124337
-0.0731175
-0.04975
-0.106452
-0.0214827
-0.0553001
-0.0673002
-0.123781
0.0648853
-0.0945166
0.03694
-0.0511848
0.0667175
-0.0138647
0.0466465
0.0749278
-0.0989785
-0.0474615
-0.0578074
0.00813557
-0.0185541
-0.0619711
0.0341149
-0.0542532
-0.00204441
0.0571791
-0.0467443
-0.0334441
-0.0332591
-0.0947454
-0.0609295
-0.0995226
-0.00635793
-0.0178752
0.0399585
-0.0337647
0.0136171
-0.0497485
0.0690058
-0.0165578
-0.0339548
-0.0808487
-0.0164134
-0.115573
0.0718033
0.0492991
0.0105717
-0.0629596
-0.0904874
-0.114792
-0.0867929
-0.0551747
-0.0991866
-0.101724
-0.0465854
-0.044052
-0.00928527
0.0160017
0.0362437
-0.0142861
-0.0140445
-0.0891031
0.0724542
0.00486434
-0.0933185
0.027774
-0.0845645
-0.0299131
-0.0880006
-0.0910093
-0.106154
-0.0078244
-0.00697033
0.0120601
-0.0403489
0.0075041
-0.103684
0.0328892
-0.0419508
-0.032551
0.0434631
-0.123901
0.032763
-0.0797954
-0.114457
-0.0744829
-0.015478
0.0322193
-0.0513874
0.00490745
-0.105817
0.0514978
-0.054188
-0.0882028
0.0280824
0.0498703
0.0697485
0.0743047
-0.00999404
-0.0176243
-0.102918
-0.0473899
0.0382267
0.0314282
-0.0195504
0.0512995
0.0670097
-0.0401425
-0.0872737
-0.013621
-0.022957
0.00867279
-0.02127
-0.0232562
-0.0694607
-0.107244
-0.0553529
-0.0955451
0.0563069
-0.0631638
0.0185362
0.00648993
0.0414309
-0.0216714
-0.0810662
-0.0653018
0.0369297
0.0183627
0.0386509
-0.0239792
-0.000360822
-0.0157211
-0.0147224
0.0293074
-0.0523532
-0.00657695
0.0737062
-0.0825472
0.0260795
0.0319131
-0.00669267
-0.0158104
-0.035765
0.0394784
-0.0850007
0.0661875
-0.106141
0.0527336
0.0396062
-0.0555547
0.0639938
0.0624354
-0.0212666
0.0367241
0.0615724
0.049096
0.0711713
-0.00780357
-0.0233009
-0.10127
-0.114902
-0.104839
-0.0645506
-0.10003
-0.0391145
-0.0151128
-0.0735117
-0.121623
0.0241744
-0.0105002
-0.0133265
-0.0993426
0.00141804
0.0373887
0.0641352
0.0708793
0.0332945
0.0203013
-0.0546122
0.0692158
0.0349235
0.0711706
-0.0719343
-0.0893185
0.0619817
-0.0268216
-0.0218023
0.0398253
-0.0580171
0.00249389
-0.0509272
-0.0298669
-0.0143626
-0.0491377
-0.0191333
0.0308254
-0.0049393
0.059829
0.131892
0.0783862
0.0802162
0.182096
0.173347
0.0380077
0.0672261
0.060474
0.182365
0.0428877
0.0283201
0.0408266
0.0160369
0.103052
0.177129
0.154521
0.0895203
0.151014
0.183727
0.124409
0.0682956
-0.604897
-0.0837992
-0.0468474
-0.0183126
-0.106732
-0.00789906
0.00593042
-0.000977622
-0.0494175
-0.0581555
-0.111835
-0.0351886
-0.0589467
-0.0417772
-0.062301
-0.0844795
-0.0782461
0.0265911
-0.0884
-0.00216411
0.0594724
-0.0984456
-0.106686
0.0657128
0.0481564
-0.0841491
-0.0208873
-0.103856
-0.10719
0.0403416
0.0487003
0.0718243
-0.103921
-0.0189882
-0.0765961
-0.0152304
0.0202305
-0.117217
-0.0325937
0.057068
-0.03197
-0.0960969
-0.0773216
-0.0471976
0.0574739
0.0188338
-0.115335
-0.0931977
-0.0501648
-0.0968425
0.0749058
-0.0997119
-0.10796
-0.050293
-0.0470591
0.0497033
-0.0339429
0.00285495
-0.0110917
-0.0773445
-0.121082
-0.10962
0.0695359
0.0173956
0.0432734
-0.111363
-0.123467
0.0446608
-0.0636482
0.00247018
0.0683779
0.0532557
-0.0697425
-0.060697
-0.00533161
0.063859
-0.0255172
-0.0908107
0.068276
-0.0791821
0.0405871
-0.0958224
-0.057145
0.0705095
-0.0799477
0.0637591
-0.0245027
-0.0939844
0.0385636
-0.0589664
-0.0846901
0.0410177
-0.0673514
0.00127263
0.0139462
-0.111548
0.0571894
-0.0304389
-0.0564255
-0.070722
0.0562379
0.0283472
-0.0982789
-0.00610641
-0.0207551
-0.0921336
-0.0405827
-0.0498955
-0.0179922
-0.0412393
-0.0497279
-0.0964058
0.0633394
0.0354555
0.059156
-0.0754613
-0.117637
-0.0500632
-0.0638652
-0.0437935
-0.0774414
-0.0284486
-0.122335
-0.103859
0.0674982
0.0247739
0.0448314
-0.0679731
-0.00904797
0.0478633
0.0279942
-0.0950822
0.0679683
0.0397698
0.0572087
-0.123783
-0.0575951
0.0649812
-0.0495401
-0.0546904
0.071588
0.000317484
-0.0935557
-0.0275268
-0.00992982
-0.0513029
-0.0994323
0.0482467
-0.0428289
-0.0880677
-0.0163273
0.0437584
-0.119562
-0.0915973
-0.0447473
0.073529
-0.0980273
-0.00271458
-0.0813031
-0.0732451
-0.0250402
-0.033763
0.0742478
-0.121641
-0.0272481
-0.0985906
0.0619493
-0.0712745
-0.0984267
-0.0123063
-0.0789347
0.0446024
0.048507
0.0214609
-0.0603407
-0.0847714
-0.0811249
0.0480094
0.063439
-0.0142153
0.00810881
-0.0792012
-0.0249035
0.0660463
0.0629852
0.0434344
-0.104997
0.0595148
-0.0358848
-0.0690131
0.00595045
-0.10223
0.0574583
0.0621612
-0.0654979
0.0705173
-0.0965437
-0.0241145
-0.0729555
-0.0864529
-0.0463926
-0.0264185
0.0647508
-0.0685622
0.0449046
0.00180204
0.0417398
-0.0372111
-0.00676246
0.0184903
-0.0513655
-0.0198384
-0.0623922
-0.0421483
-0.110829
-0.019739
-0.106101
-0.116701
0.0385101
-0.0215495
-0.116378
-0.0142091
0.021665
0.0343098
-0.00046378
0.0518153
0.00612877
-0.0918691
-0.109907
0.00706385
-0.0728122
-0.0914656
-0.0399182
-0.0111495
-0.111354
0.0113093
0.0693056
-0.0715454
-0.0788379
0.0367642
0.0396729
-0.00697074
-0.0719183
0.0668042
0.0730029
-0.11301
0.0404036
-0.0830838
-0.0113048
-0.0752203
0.02699
0.0042249
0.0265365
-0.11112
-0.0622041
-0.0842771
-0.113122
0.138772
0.0129493
0.0669815
0.159343
0.122297
0.157797
0.151076
0.146926
0.0356132
0.0102098
0.169675
0.158551
0.114556
0.060246
0.0253094
0.118332
0.138609
0.0426636
0.164354
0.168352
0.0985378
0.103759
0.036316
0.140791
0.183316
0.537783
-0.00507553
-0.00285692
0.0211318
-0.0214282
-0.0934711
0.042824
-0.0544841
0.0660605
-0.0330199
-0.0749585
0.0234435
-0.0357979
-0.0236929
-0.118593
-0.0607306
0.00343397
-0.0150085
0.0309777
-0.0363017
0.0325825
-0.0572255
0.0660999
-0.0513117
0.0178292
-0.0213312
-0.0682646
-0.0389094
0.0628863
-0.0371802
0.0146391
-0.0521851
0.0203369
-0.00609279
0.010621
0.0658151
-0.0395214
-0.109128
-0.088329
0.00240123
0.0200787
0.0293265
-0.0655274
-0.00716241
0.00804793
0.049991
-0.0767855
0.0612587
-0.00561803
-0.0738613
0.03957
-0.104036
-0.0880506
-0.0283253
0.0528618
-0.00526503
-0.0969662
-0.0765783
-0.122409
0.0378417
-0.0592219
-0.0551513
-0.101044
0.00791623
-0.0323411
-0.0713235
-0.0538674
0.00249959
-0.0218646
-0.0502947
0.0631067
-0.123979
-0.0607628
-0.0508397
-0.0510163
0.0545798
0.0302178
0.0116861
-0.0999364
-0.0660031
-0.10075
0.0276738
-0.034609
-0.11219
0.0406626
0.0703074
0.0361598
0.0170662
0.0680655
-0.109862
-0.0570598
-0.0387388
-0.0909548
-0.112886
-0.0523858
-0.0183724
-0.0479227
-0.0654126
-0.0466757
0.0323308
-0.0309123
0.0732071
-0.0691911
0.0636538
-0.0719952
-0.0788372
0.0226129
-0.0507909
0.0625851
-0.0335867
-0.0802378
0.0309898
0.0303463
0.0746588
0.069357
-0.0809852
-0.103182
-0.0926741
0.0562717
-0.0457758
-0.0195657
0.0124492
-0.0480148
-0.052825
0.00953249
0.00405066
-0.0743596
0.0219512
-0.0494351
-0.0999078
-0.0945704
0.0709822
-0.0123551
0.0139992
0.00181727
0.0347733
0.0731317
-0.00521865
-0.105999
-0.0378999
0.0295182
-0.0521391
0.057583
-0.0464571
0.0615166
-0.0166695
-0.0468408
-0.047202
-0.00571374
-0.00991762
-0.124429
-0.104326
0.0256205
-0.08355
-0.0198236
-0.0700693
-0.0475311
0.00158436
-0.0587218
0.00771576
0.00919837
0.0681258
-0.0627851
-0.0171175
-0.0812452
0.0469708
-0.0171468
-0.0943791
0.0606054
0.0187358
-0.018219
0.0461057
-0.0936277
-0.033449
-0.0947759
0.0620102
-0.0767794
-0.0338451
0.0224543
0.0642671
-0.0332713
0.037438
-0.0624559
-0.117085
-0.084789
-0.0644913
-0.0289746
0.0579227
-0.0908775
-0.0351775
-0.0130208
-0.0867448
-0.0456648
-0.0103097
0.0134821
-0.0656673
0.0733562
-0.102689
0.0230279
-0.0170916
0.0151693
0.0628851
-0.112052
-0.0795281
-0.0690932
0.00896452
-0.11332
-0.121577
-0.0413288
0.0526474
-0.0327451
0.0523586
-0.0468652
-0.0513928
0.00709382
0.0291031
-0.105999
-0.103451
-0.0815062
0.036297
-0.0293112
0.0463717
-0.0868415
0.0519189
-0.0380415
-0.0231902
-0.0967619
-0.0807268
0.0437412
-0.103295
-0.112408
-0.0688111
0.0483795
0.0571019
0.0261111
-0.121512
-0.0980813
-0.026291
0.028245
-0.0162422
-0.0700195
-0.0970947
0.00184345
-0.120476
-0.0828167
-0.0776377
-0.043997
-0.105974
0.132531
0.0382157
0.0437781
0.036968
0.0616192
0.0214736
0.025175
0.163498
0.0134161
0.0133435
0.0356974
0.0628094
0.0322399
0.0346531
0.0738902
0.132336
0.171832
0.117003
0.173956
0.0726231
0.0856662
0.034635
0.184216
0.174328
0.0454787
0.178801
0.178719
-0.149495
-0.0986992
0.0747214
-0.0787668
-0.079655
-0.064293
-0.118317
0.0381849
-0.106599
-0.100762
-0.0141406
-0.0687889
-0.0338746
-0.0257746
-0.0165624
-0.0322726
-0.0250485
-0.0727849
0.0423206
-0.104838
-0.0500243
0.0290538
0.0022014
-0.0690709
-0.0552679
-0.10095
-0.123633
-0.096304
0.0747779
-0.031965
0.0397414
0.0608257
0.00410414
-0.077287
-0.0640783
-0.0642153
0.0176492
-0.0304751
0.00923573
0.00396664
-0.0994143
-0.0966916
-0.102159
-0.0540883
-0.020896
0.0236276
0.0233145
0.0417741
-0.114889
-0.0222941
-0.0779219
-0.0860156
0.0233754
-0.0267053
-0.0605406
-0.0782966
0.0386144
-0.00780224
-0.0265698
-0.065721
-0.10245
0.0183082
-0.111613
0.0374202
-0.0836393
0.0465587
-0.0907875
-0.120542
-0.00555349
-0.0796211
-0.0339451
0.0166653
-0.0305872
0.00169159
-0.100265
-0.119298
-0.043008
-0.0996876
-0.113649
0.0397348
-0.0160875
0.0393298
-0.0375321
-0.0184089
-0.12364
0.0742585
0.0389184
-0.117926
0.0118057
-0.0154764
-0.00427433
0.0736422
0.0424403
-0.000547368
0.0729437
0.0225826
0.0562876
0.0329432
0.0697436
0.0368123
-0.00650602
0.0690136
0.00401484
0.0203346
-0.0952774
-0.0368926
-0.0534599
0.0527861
-0.0890726
0.0536486
0.0185983
-0.0990931
0.0658747
0.0716154
0.0108802
-0.0162512
-0.0452645
-0.112168
-0.0113418
0.065061
-0.00460028
-0.0271243
0.0547979
-0.00438223
-0.0105662
0.0513128
-0.067167
0.0325936
-0.0182356
0.0426156
-0.066341
-0.0506534
-0.0183812
-0.0959501
0.019241
-0.0686039
-0.0864555
-0.0635803
-0.0819047
-0.0551218
-0.0866811
-0.0614482
0.0579074
-0.121944
0.0596144
0.0226179
-0.0133509
-0.0536152
-0.110384
-0.013537
0.0138256
-0.117558
-0.12179
-0.108784
-0.0882014
-0.0752054
-0.0184883
0.0237747
-0.0763214
-0.0298748
-0.0791993
-0.0377701
-0.0531745
0.0539102
-0.117302
-0.0769435
-0.0853407
0.0495618
-0.0874577
-0.0336986
-0.110117
0.0726419
-0.0313671
0.0455591
-0.105001
0.0735399
-0.0791575
0.0581277
-0.00156652
0.0462564
-0.0570286
-0.0760995
0.0702758
-0.120267
0.0235555
-0.0403905
-0.122862
-0.0835251
-0.020181
-0.0448189
-0.0386647
-0.0168095
-0.0599086
0.0220601
0.00337562
-0.0967652
0.0372367
-0.0654034
-0.0206903
0.00227253
-0.0371634
-0.0783271
-0.0788124
-0.12164
0.0384433
-0.0749048
-0.0885309
0.0598721
0.0186141
-0.0690979
0.0682893
-0.0175968
-0.0863902
-0.115986
-0.0054362
-0.0198892
-0.0419001
0.0625478
-0.00274317
-0.0600255
0.0685095
-0.0146612
0.050911
-0.0073616
0.0588401
-0.0957412
0.0393102
-0.0141254
0.0677176
-0.0100953
-0.037491
0.00592986
0.0580231
-0.0253569
-0.0298209
-0.0130501
-0.107261
-0.114862
-0.0335832
-0.0309178
-0.0115433
-0.122945
0.0394699
-0.00632909
-0.022376
0.0326192
-0.095087
-0.0615021
0.0432777
-0.0857958
0.0422747
-0.0450997
0.0333249
-0.0662381
-0.0657109
0.00879589
-0.12292
0.050179
0.139858
0.107206
0.0960686
0.0820253
0.0783552
0.173903
0.0273217
0.169088
0.151257
0.0150117
0.181537
0.0638668
0.0239447
0.0507317
0.138241
0.150315
0.108838
-0.722825
0.0335924
-0.106692
-6.14543e-05
-0.0399867
0.061503
0.0162446
-0.0546926
-0.0523103
-0.0100676
0.027554
-0.0129903
-0.0629224
-0.0665406
0.0652161
0.0164642
-0.122484
-0.0209289
-0.0355977
-0.104007
-0.0876264
0.0216699
0.0200771
-0.0942772
-0.0854033
-0.0751826
-0.0131769
0.0527455
0.0590063
-0.0691714
0.0378288
0.0541461
-0.0522079
-0.00787669
0.0747255
0.0318535
0.0172267
-0.0312149
-0.112502
-0.0169921
-0.037748
-0.0746454
-0.0853642
-0.0778125
-0.0999249
-0.104557
-0.0768449
-0.0248552
0.0440659
-0.05154
-0.100043
0.0218739
-0.0476181
0.052648
-0.0109269
0.000100132
-0.0290243
-0.0110421
-0.101553
-0.032421
-0.0615922
-0.0811815
0.00942826
-0.0641789
0.0150971
-0.00213958
0.00269657
-0.0504734
-0.103145
-0.00794429
-0.100877
0.0274112
0.0444629
0.041264
0.064203
-0.108095
-0.0557841
0.0602457
0.0619672
-0.0376076
-0.0885446
-0.100146
-0.109582
-0.0483392
-0.00886491
0.0171044
-0.0857318
0.0306908
0.0162254
-0.124329
-0.00468125
-0.0297583
-0.0624255
-0.00958105
0.0558885
-0.0431363
-0.0386702
0.067181
-0.0631643
0.0363876
-0.0597434
0.0235766
-0.0718065
-0.0417161
-0.102764
0.0526591
0.0640158
-0.123207
-0.117087
0.00884477
0.0320634
0.0520202
0.039729
0.0297748
0.0514056
-0.110927
-0.0848547
0.0217505
-0.046046
0.0448923
0.0516103
0.0134076
-0.0715694
0.0401865
0.0358803
-0.0777997
-0.0352814
0.00271755
-0.0199691
0.00346735
0.0322827
-0.090406
-0.0313715
-0.0820345
-0.0808915
-0.0944254
-0.0726855
-0.114735
-0.0550122
-0.0261355
0.00387922
-0.0729363
0.0275557
-0.0988801
-0.0953775
-0.0444505
0.0584221
-0.0686821
-0.0775171
0.0318622
-0.101953
-0.0662494
0.0251733
0.0507621
-0.00318376
-0.0243424
0.0113084
0.0443622
0.0365549
-0.0156109
0.0163159
-0.00879763
0.0339984
0.053818
0.0299532
-0.0218656
0.0413231
0.0189708
-0.0390908
0.0544222
-0.0879776
0.0485286
-0.074053
-0.0115981
0.023605
0.00987153
-0.036782
-0.110226
0.0138973
0.0239491
0.0461692
-0.0910244
-0.079262
-0.109127
-0.0568043
0.0111738
-0.074146
0.00183835
-0.0853252
0.0473131
-0.0682539
-0.0202962
0.0316303
0.0748789
0.00154475
-0.0667749
-0.10656
-0.0799525
0.0657079
-0.120996
-0.0775447
0.0350229
0.0194186
0.0595906
0.0707472
0.0157182
-0.0649007
0.0664131
-0.0300177
-0.0763529
-0.0800841
-0.0015787
-0.0176491
-0.0323794
-0.00994509
0.0119417
-0.0892859
-0.0436601
-0.0725537
-0.0787163
-0.03272
-0.0203033
-0.114841
0.00177133
0.0272269
-0.0950014
0.0288822
-0.0373605
0.0506935
0.0420698
-0.0622137
-0.086788
0.0596069
-0.115443
0.00289345
-0.0890766
-0.0942762
-0.061697
-0.095637
0.0466924
0.0634681
-0.0688864
-0.123714
-0.0794348
0.00775361
-0.119279
-0.105814
-0.116219
-0.0375986
0.047824
-0.109949
-0.0855503
0.0242847
-0.0166606
-0.071832
0.00125076
0.0420736
-0.112441
-0.0212488
0.0741052
-0.0648202
-0.102003
-0.113224
-0.0286219
-0.0626385
0.0536086
0.0116013
0.117074
0.064022
0.101437
0.0776358
0.154857
0.0804112
0.176628
0.056063
0.169619
0.0712331
0.0296897
0.184527
0.178079
0.0224873
0.0558549
0.172515
0.0830253
0.0199838
0.0851902
0.0522558
0.110201
0.138403
0.0855831
0.050027
0.0698649
0.176785
0.055019
-0.603262
-0.0780716
-0.077871
0.00176451
-0.111559
-0.0986123
-0.0389221
0.0528305
0.0151848
0.0218417
-0.00769832
-0.0312821
0.0381881
-0.0316247
0.0729539
0.0186513
-0.114672
-0.0858293
-0.0665733
0.0264808
-0.0950399
0.0201247
-0.0889609
0.0684362
0.00363937
-0.0232143
-0.0236673
-0.0895239
-0.0988087
-0.0475686
-0.113228
0.0207275
-0.0817258
0.00368346
-0.0678044
-0.0271353
0.00779754
-0.00629663
0.0315018
-0.0505041
0.0240117
0.024153
-0.0856423
-0.101587
-0.0486098
-0.0477318
-0.112838
-0.0613265
-0.0784582
-0.113824
-0.0136251
-0.0368758
-0.0360337
0.0491155
-0.0353952
-0.11008
-0.00603528
-0.116223
-0.0392273
0.0346076
0.0462145
-0.0307298
-0.0273646
-0.0123968
0.019858
-0.096929
-0.045359
-0.0800484
-0.0130421
-0.0283842
0.0213921
-0.0799359
0.0598418
-0.0998016
0.0036054
-0.0793037
-0.0686391
0.0538517
-0.0737121
-0.118376
0.0603218
0.0147834
-0.00511037
0.0412387
-0.00658173
-0.0519263
-0.0134177
0.0611794
-0.095909
-0.0937468
-0.0307424
-0.116172
-0.110451
0.0488379
-0.087624
-0.114963
0.0190285
-0.0901852
-0.102641
-0.0720336
-0.0809018
0.0572821
0.0608368
-0.025955
-0.0804653
-0.120606
-0.0870764
-0.0756704
-0.03031
-0.108984
-0.051362
0.0171163
-0.0248143
-0.0261817
-0.12411
0.0396454
-0.0467578
0.0539555
-0.0831246
-0.121457
-0.0206178
-0.0108015
-0.0845133
0.0243819
0.0418499
-0.0353866
-0.0414763
0.0484715
-0.105553
0.0583913
-0.029003
-0.0336766
-0.0425906
0.0361753
-0.0298245
0.06577
-0.112662
0.0418029
0.0437818
-0.0598451
-0.123907
0.0375092
-0.0405719
0.0235523
0.0399706
0.018932
-0.00233257
-0.0431637
-0.0698424
-0.0842187
0.068959
0.0361256
-0.113945
-0.120204
0.012273
-0.0515601
-0.0219801
-0.0656552
0.0509266
-0.0479769
-0.022718
-0.0692065
-0.066421
-0.0409934
-0.06353
-0.100106
0.0300838
-0.123355
0.00937617
-0.109176
-0.0946989
-0.105147
-0.0197921
-0.0639009
-0.0304113
0.0603664
0.0208966
-0.079463
0.00716607
-0.0380961
0.0196885
-0.0266468
0.0573915
0.0716453
-0.10234
-0.0664289
-0.0848018
-0.113349
-0.0455167
0.0401793
0.0629162
-0.00111582
0.0702583
0.0412835
0.0253427
-0.0662257
-0.0629865
-0.00826102
-0.064719
-0.00452713
0.0674272
0.0491493
-0.0241185
-0.115015
-0.0330526
0.0343372
-0.0181595
0.0289641
-0.10547
-0.115979
-0.0646486
-0.0481719
0.0570563
-0.0876153
-0.0487161
-0.00910346
-0.0981967
-0.0537319
-0.0910029
0.00916315
-0.11025
0.00461465
-0.0500299
-0.00350079
0.00667808
-0.0575916
0.0437796
-0.0366612
-0.0704417
0.06071
-0.00448041
-0.0538975
0.0221943
-0.0625366
-0.0511979
0.0723104
0.0524549
-0.0416566
0.0410166
-0.0378598
0.0252609
-0.0382582
-0.0279505
-0.0847138
-0.121891
0.0494542
-0.0198305
0.0606584
-0.0369956
-0.034214
-0.0636174
0.0454883
-0.00418063
-0.0705016
0.0712712
-0.0939542
-0.00313136
0.00173185
0.172286
0.0755134
0.0356253
0.154588
0.119302
0.075454
0.0136494
0.048606
0.122239
0.0581104
0.109078
0.0549489
0.0921794
0.0260309
0.0556647
0.159589
0.0184364
0.0755593
0.0972901
0.0637772
0.150944
0.0627418
0.15481
0.187875
0.0591433
0.0471378
0.171378
0.0468848
-0.440703
0.0397246
0.0252938
-0.082884
0.0402232
0.0568572
-0.026303
0.0473964
-0.0253108
-0.107378
0.00765964
-0.0687862
0.00904209
0.0709834
-0.0105287
0.0626637
-0.03367
0.053296
0.0669323
0.0502617
0.0445978
-0.0901836
-0.0550328
-0.000426892
-0.0366137
-0.0563746
-0.116986
0.0532853
0.0499382
0.0566975
-0.0680831
-0.0788253
-0.12236
-0.0920283
0.0656253
-0.047556
0.0604186
-0.062091
-0.105409
0.00959988
0.0546719
-0.0392711
0.00233116
0.0595833
-0.0630709
0.052736
0.00450403
0.00118726
0.037298
0.067178
-0.0114643
-0.0880973
0.0454257
-0.102851
-0.061789
-0.105442
-0.0804448
-0.0813477
-0.0708207
-0.0990609
-0.118004
0.0521921
0.0644344
0.054928
0.0508267
-0.0363073
-0.0577814
0.0156768
-0.108764
-0.0350074
-0.119994
-0.0152956
-0.0244063
0.0630821
-0.0140961
-0.105788
0.0193289
0.0586172
-0.0625712
0.0425531
0.0640473
-0.0427569
-0.0362831
0.0724219
0.0129712
-0.0502906
-0.0703169
0.00186592
-0.0216113
0.0169599
-0.0781886
0.00318742
-0.0437674
-0.0202578
0.0152716
-0.0470359
0.0403268
-0.0286354
-0.103369
0.0743907
0.0535243
0.0303199
-0.00333412
-0.0383753
-0.0973001
0.0319738
-0.101271
0.0506201
-0.0573812
-0.0921997
0.0513364
0.0744889
0.0384858
-0.0740477
-0.0483618
-0.0821098
-0.0824075
-0.121567
-0.045202
0.00539227
0.0536018
-0.0783009
-0.0341594
-0.11713
-0.0153506
-0.114377
-0.0188392
-0.0281257
-0.106774
-0.0891926
-0.0225641
-0.107022
-0.0875437
-0.109953
-0.026718
-0.0809913
-0.114539
-0.113582
-0.0447725
-0.117655
0.0293701
-0.0342892
-0.0789056
-0.0110232
-0.11096
0.0687771
-0.122474
0.00946096
-0.1076
0.0504456
-0.0694336
0.0270806
0.000718925
0.0735858
-0.043464
-0.108219
-0.124603
-0.0518407
-0.0760966
-0.0570565
-0.0181142
0.040583
-0.113407
-0.103945
0.0667213
0.0273023
-0.00231176
0.0380723
-0.020046
-0.0515145
-0.0627479
-0.101129
-0.0319912
-0.00477151
-0.0580898
-0.0539747
-0.0143153
-0.119814
-0.0135751
-0.0738545
-0.00273098
0.0200056
0.0554181
-0.0330588
-0.100741
-0.0738137
-0.0391988
-0.068414
0.0111064
-0.046542
-0.0320502
-0.104653
0.0352556
-0.0950219
-0.0289231
0.0425604
-0.0433802
-0.0450337
-0.0311237
0.0137871
0.039878
-0.120713
-0.0860613
0.0471261
0.0651022
-0.0609378
-0.123856
-0.0530159
-0.116419
-0.0245064
-0.1247
0.00314684
-0.117621
-0.0308734
-0.117201
0.0565588
0.00863638
0.0127606
-0.000666602
-0.0255132
0.0673677
-0.0156248
-0.0668645
-0.0899233
-0.0550957
-0.0261808
0.0478305
-0.0850026
-0.0815966
0.0425152
-0.0576782
0.172491
0.125974
0.0970687
0.0574912
0.0271891
0.173199
0.0523058
0.127516
0.0249503
0.0965933
0.0838686
0.0373336
0.123062
0.0980273
0.0914263
0.111868
0.048328
0.117761
0.0551715
0.121316
0.178138
0.0658635
0.1535
0.150043
0.0558936
0.170309
0.0735321
0.110273
0.0991372
0.145832
0.103286
-0.774653
-0.0576134
-0.119646
0.0249827
-0.0220303
-0.0297688
-0.118198
-0.0627743
-0.0638879
0.0537863
0.0160798
0.0136078
0.035519
-0.063031
-0.0800556
0.0682686
0.0564201
0.00307486
-0.0946033
-0.0399316
-0.0402276
0.0385658
-0.0789202
-0.0363521
0.047635
0.05465
0.0594554
-0.0818134
-0.00291576
0.00144464
0.0158247
0.0632574
-0.0139034
-0.0847104
0.0544462
0.0351917
0.0123118
0.0695787
-0.0161292
-0.0106618
0.0520477
0.0322643
-0.0828839
-0.0918164
-0.0653086
-0.0045033
-0.0654179
-0.0895361
-0.0521243
0.0565315
-0.0345648
-0.0710974
-0.0726126
0.048492
-0.114247
-0.086325
-0.0411178
0.022515
0.0521048
0.027153
0.0235685
-0.11088
-0.072732
-0.115496
-0.0658923
-0.118743
-0.0973094
0.0543798
-0.00442376
-0.0152067
0.0241127
0.0218129
-0.0851446
-0.0976381
0.00347993
0.00970213
-0.12036
0.0375218
0.0713669
-0.101312
0.0114378
-0.0641726
-0.0677415
-0.106542
0.0604237
-0.041468
-0.117847
-0.0541397
0.00445661
-0.123842
-0.0745618
0.0536429
-0.0738513
0.0560285
-0.0139742
0.0528667
-0.0292893
-0.112376
0.0108207
0.0466056
-0.0688007
0.00708804
0.000967175
0.0317173
-0.100979
0.000395361
0.0464287
0.0261625
-0.00151385
-0.0739772
-0.122351
0.0299009
-0.00651923
0.0596728
-0.104579
0.054612
0.00117317
-0.0419809
-0.0725803
-0.103159
0.0521976
-0.0880263
-0.000736658
0.0198146
-0.0343658
-0.0457904
0.0565935
-0.0138556
0.0161977
0.0678478
0.0290022
-0.0719493
-0.104852
0.039673
-0.0130426
-0.0177327
-0.0893879
-0.0920798
-0.00993541
-0.0218476
-0.0773675
-0.111969
-0.0924589
0.0254842
-0.0815571
0.0121742
-0.0416616
0.0272335
0.0523409
0.0722795
0.0398356
0.0425985
-0.0847352
-0.0990607
-0.100438
0.0491459
-0.0578432
-0.0102359
-0.0393511
-0.0419973
-0.0321796
-0.112857
0.039598
-0.0804987
-0.047839
-0.0284867
0.00373714
-0.0553303
0.0331238
0.0187492
0.029642
0.0599007
0.0656989
-0.0768446
-0.058156
-0.0451969
-0.0936708
-0.0621824
-0.0501382
0.0276296
-0.0670224
-0.00309564
0.0463747
-0.0688224
-0.0625522
0.0162005
0.0483859
-0.0315398
-0.00465377
0.0279855
-0.10869
-0.0274468
-0.027273
0.0472419
-0.060641
0.0431051
0.0720329
0.0729994
-0.0602169
-0.104748
-0.0813686
-0.0188717
-0.0180868
-0.021244
0.0212129
-0.0360346
-0.110779
-0.0416968
-0.109117
-0.0309104
-0.0852759
-0.0619432
0.0292599
-0.01687
-0.012429
-0.0126488
-0.0364952
-0.122886
-0.0087125
-0.0659783
0.0209079
-0.0815137
-0.0397417
-0.124376
-0.0458483
0.125418
0.101691
0.188733
0.0577131
0.0203057
0.114076
0.0942176
0.0759341
0.164873
0.159148
0.112197
0.07092
0.112115
0.133535
0.148883
0.111603
0.140564
0.0824964
0.11851
0.0529764
0.169062
0.107427
0.0256343
-0.482257
0.0292166
0.00276186
-0.0878904
0.0252346
0.0201269
0.0402218
0.0406988
0.0613398
-0.0292974
-0.0760668
0.0501908
-0.0628861
0.00667316
-0.0768172
-0.0253624
0.0580737
-0.0200433
0.00344892
-0.0783854
-0.0960148
0.0100543
-0.115224
0.0700916
-0.0584203
-0.022153
-0.123362
-0.0986426
0.0514688
-0.108225
0.050041
-0.0259561
0.0564489
0.00222987
-0.00200568
0.0271806
-0.0709198
-0.0417149
-0.0793282
-0.0425365
0.00612139
0.0700719
-0.0483705
0.0718925
0.0583779
-0.116791
0.0531536
-0.0598541
-0.0741611
-0.0549139
-0.0886793
0.0209007
-0.100566
0.0113002
-0.0409595
0.0190934
-0.0849068
-0.019369
0.0592397
-0.0347076
-0.0790817
-0.0435491
-0.0827353
-0.102421
0.0021282
0.00176875
-0.033843
0.0147415
0.0369252
0.0650222
-0.0846043
-0.0840081
-0.0291067
0.0366347
-0.0141743
0.0647756
-0.0566329
-0.0627972
-0.00539081
-0.0502896
-0.102668
0.0340196
0.0665931
0.0329098
-0.100226
-0.0176464
0.0132215
0.0281941
-0.00938691
-0.0765939
0.0390738
-0.00349057
0.0098884
-0.103965
-0.0525866
-0.116321
-0.00631153
0.0133602
-0.0681823
0.0381175
-0.0390052
-0.0857605
0.0491261
0.00838795
-0.0947882
-0.0307154
-0.0214092
0.0177972
-0.0978614
0.0729187
0.0152625
0.0374121
0.03463
-0.0631121
0.0284916
-0.102112
-0.0262703
-0.058554
-0.095589
0.000975102
-0.00453785
-0.10614
0.00848455
-0.0794705
0.00572181
-0.0373108
0.00214819
0.0245913
-0.054343
0.0564895
0.0207667
0.0538893
-0.0197483
0.0504315
0.0449668
-0.0369999
0.0605513
-0.12406
-0.0452351
-0.0444125
0.0498698
-0.0105219
-0.0891402
-0.0730923
0.0554885
0.0471639
-0.0403366
0.040046
-0.0828331
-0.124055
0.0554749
-0.0284994
-0.019019
-0.123531
-0.0883773
-0.122242
-0.0772121
0.00645767
-0.0851447
-0.0294161
0.0219314
-0.083583
-0.0955527
0.0663521
-0.0772639
0.0201641
-0.00819394
-0.0516363
0.0372223
-0.0903352
-0.074674
0.0588642
0.0251938
0.0747581
-0.100345
0.0468783
-0.0967203
-0.107009
-0.0460438
-0.00787854
-0.0789361
-0.0394602
-0.00377413
0.0344541
-0.0149884
-0.0848378
-0.00289546
-0.000745315
-0.100531
0.0394564
-0.00793014
0.0567038
-0.0168283
0.0659102
-0.058358
0.0270729
-0.0531794
-0.0294341
0.0745705
0.0550725
-0.0728909
-0.10181
-0.0550833
0.0545267
0.0701778
-0.0890885
-0.015736
-0.0552469
-0.000260133
0.0628699
0.00756612
-0.0424152
0.00683396
-0.0644525
-0.111453
-0.0715709
-0.0836524
-0.0419216
0.0163796
0.0700759
0.055247
-0.0735664
-0.0927288
-0.0977892
-0.105079
-0.0482991
-0.00557766
0.070124
-0.105244
0.0136793
-0.118283
-0.0776407
-0.0369486
0.0162009
-0.0780861
0.0653689
-0.0380165
-0.0904561
-0.0165455
-0.0811144
-0.0591549
-0.109573
0.0923024
0.0756596
0.0773529
0.184833
0.181055
0.123706
0.189088
0.0905694
0.161076
0.0714847
0.13582
0.0861402
0.128337
0.087248
0.151583
0.0697623
0.165733
0.0322782
0.183018
0.0119007
0.180572
0.131019
0.065623
0.0671735
0.0334059
0.134251
0.376815
-0.104887
-0.019408
-0.0261839
0.00938121
-0.124157
-0.1222
-0.0864843
-0.0239731
-0.0899123
-0.111298
0.0584895
-0.080477
-0.0666663
0.0505659
-0.108209
-0.056362
-0.0296153
0.0226913
-0.0407943
-0.0642646
-0.0720894
0.00697789
0.0172201
-0.0751413
-0.046731
0.05634
0.0437679
0.0245901
0.00764531
0.0655208
-0.0105584
0.0539525
-0.109004
-0.0198094
-0.059836
-0.064274
-0.119096
0.0406879
-0.00911313
-0.0269975
-0.0668552
0.0519282
-0.0403433
0.0334579
0.0536765
-0.123476
0.0348953
-0.0598688
0.0308845
0.0698519
-0.115101
-0.0144765
-0.0104925
-0.0739082
0.00377508
0.0205983
-0.0902432
-0.0724513
-0.0458091
0.00307281
0.00875439
-0.0757859
0.0438716
-0.0700729
-0.0443246
-0.0439935
0.0207975
-0.081478
-0.0597135
0.0155473
0.0680405
-0.00275211
-0.041871
-0.0616985
0.0365539
0.0677496
0.0289311
-0.124666
0.0242519
0.000463495
0.0385371
0.0138565
-0.0591899
0.0568723
0.0281346
0.0537957
0.0707268
-0.0913979
-0.0374244
0.00823832
-0.0279648
-0.0556913
0.0239267
0.0255777
-0.0398858
-0.100139
0.00953755
-0.0529963
-0.0796159
0.0421917
-0.111393
0.0143257
-0.11992
0.063587
-0.0889436
0.0111645
-0.0903377
-0.0386645
-0.0610543
0.0137586
-0.0804409
-0.0265432
-0.0295886
0.0641471
-0.0155025
0.04229
-0.0414122
-0.0314982
0.0562359
-0.104316
0.00596365
-0.114551
0.0499008
-0.0381452
0.0279189
-0.0682148
-0.121174
0.0108873
-0.0849786
-0.113323
0.0190697
0.0268902
-0.0206718
0.0257095
-0.0516123
-0.107453
-0.0481681
-0.0970542
-0.118918
-0.0988014
0.0161227
-0.0495259
0.0155703
-0.0429544
0.0462175
-0.0763635
0.0213683
-0.00704489
0.00722291
0.0181266
-0.0430282
-0.0875739
-0.0626757
0.0423766
-0.0457238
0.0259039
0.0411178
-0.0450947
0.00248851
-0.0738209
0.0609498
-0.0228999
0.0416079
-0.0326944
0.0132619
-0.0315972
-0.0402924
-0.0569716
-0.0213134
0.0570142
0.062267
-0.0243258
0.0262382
-0.112745
-0.11989
-0.0745102
0.00674123
-0.115049
-0.00380859
0.0209253
-0.121723
-0.0358045
-0.122311
-0.123466
-0.100123
0.0167009
0.0460978
-0.0184195
-0.118734
0.0255325
-0.0354484
0.00443319
-0.0464093
-0.0390799
0.00682956
0.0145325
-0.0781569
-0.0683837
0.0132187
0.0732498
0.0562127
0.0617191
-0.0226743
-0.1021
-0.0151975
0.00377693
-0.105269
-0.00848837
0.0180938
-0.0895758
-0.0575729
0.0512825
-0.0223585
-0.084135
0.0321393
-0.0421922
0.0599237
-0.0622843
0.0736125
0.0427524
-0.0952214
-0.0633334
0.0552644
0.0552889
-0.00600564
-0.0507012
-0.0412212
-0.0689292
0.0207618
0.046965
-0.0162878
-0.0226293
-0.101782
-0.0386927
0.0421182
-0.11132
-0.110201
-0.108465
0.00889602
-0.0988202
-0.00450827
-0.0382159
0.0571344
-0.027959
-0.0546398
-0.0264263
-0.0405184
-0.00991001
0.0460565
-0.0182866
-0.0284662
-0.00272896
-0.0654188
0.0116316
0.00707907
0.0674059
0.0395251
-0.0687776
0.0168144
-0.057344
-0.049445
0.042502
0.0626183
0.0642366
-0.103759
-0.0190397
-0.101459
-0.0764732
0.0530824
-0.0203095
-0.028305
0.0462693
0.0570255
-0.0448037
-0.0235774
-0.0529395
0.154792
0.15997
0.0994989
0.0431334
0.0360653
0.0944731
0.0504939
0.0118997
0.186098
0.0296954
0.118367
0.0217788
0.166626
0.0128612
0.174158
0.0842167
0.131694
0.139324
0.0214761
0.0721916
0.0410388
0.0595648
-0.883089
-0.0318555
-0.0523049
-0.121337
0.0169263
-0.0411946
0.0207093
-0.0147406
0.0646899
-0.0682971
-0.0344373
0.0375828
-0.0162268
-0.121629
-0.008336
0.00677141
0.0659052
-0.043348
0.0239907
0.0345176
-0.0667633
-0.0660905
-0.0220116
0.0100455
0.0492321
-0.0477713
-0.0422429
-0.124359
-0.0791301
0.0355572
0.0253578
-0.0551528
0.0392929
-0.049636
-0.0721673
-0.00292301
0.0598223
-0.0687942
-0.0891402
-0.0944019
-0.0765117
0.0295393
-0.0283397
-0.101791
-0.012723
-0.0847815
0.0615832
0.0657235
-0.0698638
0.0628669
-0.00132209
-0.121415
0.0388057
0.0360485
-0.114935
-0.041003
-0.10506
0.00986699
-0.0994027
-0.0575816
-0.0385529
0.0363063
-0.0125266
0.0387431
-0.0357705
0.0342996
-0.106866
-0.119318
-0.0869959
0.0544032
-0.0914177
-0.124178
-0.0217527
-0.0500346
-0.0633824
-0.0150754
-0.0227427
-0.0934431
-0.00536158
0.0033622
-0.0872687
-0.0049646
0.0553303
0.0153992
-0.10787
0.010443
-0.0916287
-0.118787
-0.0904161
-0.118395
-0.0839618
0.0488943
0.049526
-0.0532637
0.0441017
0.0262852
0.0340962
-0.0836755
-0.0644723
-0.0914998
-0.047679
0.0603025
0.0722271
-0.121946
-0.0741387
0.0162394
-0.123486
-0.00883688
-0.0135258
0.0731933
-0.0775175
0.00571248
-0.00166345
-0.0440861
-0.0277227
-0.10108
-0.0764607
-0.0191583
-0.0983017
-0.0249392
0.0179234
-0.0329918
-0.0662125
-0.11629
-0.0205431
-0.0899127
-0.00961524
-0.116595
0.0058892
-0.0951264
-0.116083
0.0642604
0.0071846
-0.0902387
-0.123238
-0.11899
-0.0606832
-0.0838735
0.0671802
-0.0203942
-0.0831863
-0.0786167
0.0518795
-0.0550275
-0.0451981
-0.0424948
0.0188728
-0.0487325
-0.0909984
0.0128207
-0.0105832
0.040224
0.0693902
0.019381
0.00513355
0.0329783
0.0121034
-0.00450907
-0.0154021
-0.0492789
0.0156056
-0.124195
-0.0346218
0.0245126
-0.0386458
-0.0748392
-0.0327775
0.0585624
-0.0337943
-0.101212
-0.117891
0.0396302
-0.0930611
-0.0175332
-0.0494661
-0.113479
-0.0663409
0.0624454
-0.104009
0.0399758
-0.0304107
0.0546797
0.0214644
0.0728249
-0.0104455
-0.0951235
-0.0325419
-0.0514855
-0.00727285
0.0235833
-0.0158276
-0.104537
0.00902986
-0.10089
-0.0410037
0.0493948
-0.00167583
0.0717588
-0.032396
0.0456212
0.0457358
-0.0792662
-0.00188689
-0.083695
-0.104232
0.00314694
-0.0615127
-0.104716
0.0668485
-0.108684
-0.0659242
-0.0797383
-0.0578931
-0.0839357
0.0454294
-0.0490283
0.0184044
-0.106802
-0.0496058
-0.110473
0.0723129
0.0301834
0.0419463
0.0526716
-0.0929603
0.0183681
0.068257
0.0729872
0.0105509
-0.120086
-0.0176041
-0.120985
-0.0836239
0.051381
-0.0950264
0.0213919
0.0170636
-0.0994936
0.0652605
0.0618733
-0.0528757
-0.117507
0.041074
-0.0708604
-0.0793271
-0.116227
-0.105442
-0.120051
0.0718315
0.032391
-0.0688999
-0.00221343
-0.0275878
-0.113389
-0.0436491
-0.0575635
0.0516012
-0.103961
0.0653226
0.0322198
0.0231176
0.182329
0.0747189
0.098692
0.0887835
0.154442
0.0803083
0.174694
0.150509
0.114353
0.0649955
0.0929333
0.0978799
0.0478572
0.0231199
0.075646
0.0745511
0.164016
0.0564362
0.0212415
0.189198
0.166042
0.0371965
0.0878382
0.171837
0.106351
0.0129032
0.020315
0.0722102
0.15578
0.0393744
-0.0560687
-0.0253324
-0.0232031
-0.0704674
0.0694987
-0.0800784
-0.0623088
-0.0541301
-0.0865935
-0.0701835
-0.12216
-0.0794577
-0.0713993
-0.12057
-0.0867344
0.0516371
-0.0883204
0.053811
-0.00419218
-0.11261
-0.0644215
-0.00783974
-0.0251584
0.0213848
-0.100993
-0.123686
-0.0946237
-0.114334
-0.0867781
-0.05731
0.00759219
-0.0550918
-0.0777257
-0.074815
-0.0302706
-0.0742809
-0.093196
0.0307384
0.039814
0.0156901
-0.027099
-0.0977619
-0.109647
-0.013094
-0.116878
-0.107441
0.044431
-0.0859277
0.0262479
0.0367222
-0.0250129
0.00932986
-0.0245662
-0.0203244
-0.120471
-0.0564897
-0.114774
0.0268622
-0.0333972
-0.114398
-0.0727366
-0.0815049
-0.11616
-0.12119
-0.0802857
0.0512128
-0.0232279
0.0498369
0.00613115
0.0632155
-0.108148
-0.0472854
-0.031046
0.0346138
-0.0133713
0.0451001
0.0256721
0.00332908
0.0593643
-0.0530348
0.0215454
0.026628
0.0707956
-0.0164964
0.0478351
-0.111189
-0.0615039
-0.0639162
0.0516417
-0.00135978
-0.0587325
-0.0588017
-0.0175367
0.0530296
-0.0658995
0.0698742
-0.0409601
0.00980092
-0.0243038
-0.0279838
0.0352266
0.0492473
0.0148321
-0.121019
0.016438
-0.0701962
0.0245983
0.0264565
0.0307857
-0.11936
-0.0440217
0.0318848
-0.0251453
-0.0181783
-0.0704768
-0.0673942
0.0159339
-0.0154616
-0.0750022
-0.0157248
-0.0350201
-0.0231954
0.00913
-0.0732237
-0.0711968
-0.04979
-0.0272753
-0.0343442
-0.048331
-0.0264947
0.0680124
-0.0713758
-0.0529032
-0.0331317
-0.11203
-0.0399459
0.0357128
-0.00244039
-0.0938675
0.0422971
0.038154
-0.0759291
-0.0531975
-0.0102808
0.0529541
-0.10975
0.0629337
-0.068625
0.0692969
-0.108252
-0.0703642
-0.100323
-0.0682805
0.0481559
-0.0515865
-0.0321854
-0.059209
-0.0710903
0.0349193
0.0336632
-0.0703089
0.0109117
0.0632723
-0.0555523
-0.0679612
-0.017516
0.005899
-0.120956
0.0732516
-0.1082
-0.0886338
0.0590295
-0.0800434
-0.0622454
0.0483761
0.0222521
-0.0613479
-0.0864168
0.0289225
-0.0310126
-0.0043758
0.0390006
-0.030935
0.0228447
-0.0942154
0.0412346
0.0242052
-0.0569043
-0.115975
0.0564658
0.0530795
-0.0785437
-0.00200783
0.0528052
-0.0234301
-0.103624
0.00485761
-0.101507
-0.048949
-0.034157
-0.0143671
-0.0716709
-0.0773759
-0.0517991
0.0555605
0.0495023
6.35386e-05
0.0568498
-0.00675139
-0.0719816
0.0625274
-0.0188027
-0.0311754
-0.123482
-0.0926482
-0.0696066
0.0702297
-0.0601795
-0.0480569
-0.124746
-0.0335706
0.0487325
0.00366303
0.0146334
0.0283745
0.0612412
-0.047321
-0.101704
0.0134918
0.0394227
0.0484042
0.0165158
0.0557345
-0.0342321
-0.0257389
-0.0783809
0.0661708
-0.110109
-0.0235708
-0.0550613
-0.0382428
0.0513442
-0.0251333
0.0731349
-0.0646681
-0.116024
-0.0896584
-0.0337557
-0.0279949
0.0727685
-0.119234
0.0313912
-0.00894321
0.000892412
-0.120667
0.00480337
-0.0335991
0.0215649
0.0538968
-0.0810474
0.0424826
0.0674569
0.0316908
0.172007
0.114213
0.0572777
0.0978578
0.0148927
0.0923729
0.090796
0.0911197
0.163185
0.120544
0.0391432
0.179992
0.0433352
0.0558929
0.0276577
0.0964918
0.156345
0.172968
0.0315611
0.0143502
0.023838
0.183232
0.105251
0.0739828
0.161927
0.0450242
0.0224462
0.115247
0.0391705
0.140166
0.173725
0.113518
0.340956
0.0326585
-0.0137089
0.0231759
-0.0051063
-0.0598908
0.0375286
-0.116208
0.0257131
-0.079265
0.0487981
0.0402422
0.0547768
-0.10897
0.0481762
-0.0801071
-0.107166
-0.0749257
0.000849372
-0.0300264
-0.122875
-0.0601428
-0.0885368
0.00465484
0.0240349
0.0128489
-0.0798909
0.0464761
-0.00422431
-0.106271
0.0446161
0.0188905
0.0653372
-0.0537813
-0.0493504
-0.0380682
-0.102605
0.00232748
0.0598467
-0.0172305
-0.10855
0.0702286
-0.119125
-0.0355557
0.00103578
-0.00355288
0.0110171
-0.00740193
-0.027946
-0.0910776
-0.0893684
-0.0352541
0.038529
-0.0174653
-0.0630146
0.0366071
-0.121873
-0.107333
0.0634401
0.0295578
-0.0140966
-0.0152939
0.0030863
-0.0410065
-0.0613601
0.00850347
-0.108526
-0.0761608
-0.121438
-0.0822545
0.0251188
0.0519728
-0.0395844
0.00871507
-0.0146518
-0.0441758
-0.0404376
0.0120523
-0.105418
0.0688381
-0.00544192
-0.0368681
-0.0621932
0.0687285
0.0586308
-0.0311915
-0.0634333
-0.00433995
-0.0174711
0.01588
-0.122924
-0.0149675
-0.106703
-0.100407
-0.00211479
-0.0398984
0.0645222
0.0178381
-0.107837
-0.0462515
0.00544317
0.00600031
0.0230313
0.0506167
0.00902261
0.0331568
0.0540541
-0.0570136
-0.0772921
0.0179324
-0.100702
-0.0739654
-0.084009
-0.0783637
-0.0730426
-0.0795473
-0.0655785
0.060952
-0.101175
-0.0986831
-0.030231
-0.0367552
-0.11706
0.00855214
-0.0816722
-0.0835933
0.0455611
-0.0245631
-0.0278826
0.00385997
-0.00868618
0.00974392
-0.00479317
-0.0892512
-0.113496
-0.0110273
-0.0376349
-0.0806313
-0.0145357
0.0280304
0.0520291
0.0443473
0.0726039
-0.0890933
-0.0183038
-0.105408
-0.0885375
0.0601
0.0284311
-0.001397
-0.107312
-0.0946122
0.0577361
0.0205184
-0.0127266
-0.0719194
0.0465262
-0.0817615
-0.0486652
-0.0282461
-0.115118
-0.0362806
0.0728043
-0.091364
-0.0255378
-0.0814534
-0.0988903
0.0115666
0.0547137
0.0747922
0.0694505
-0.0638369
0.0602521
-0.0890809
0.0667881
-0.00899526
0.0348172
-0.0539307
-0.0736245
-0.102312
-0.0121736
-0.111588
-0.0969349
-0.0801983
0.0511788
-0.0599357
-0.122553
0.0215231
-0.0810499
-0.0623229
0.0279545
0.0335011
-0.0919688
0.0159048
-0.0755759
-0.109316
-0.114621
0.00611709
-0.099345
-0.00324823
0.0445529
-0.0910008
-0.0140222
0.067871
-0.0950996
-0.0630116
-0.0951453
0.023339
-0.0734518
0.0729364
0.0281951
-0.0171321
-0.0304597
-0.00515615
-0.0264149
-0.080311
0.0637467
-0.0304853
0.000486255
-0.0488373
0.0492585
-0.0987908
-0.0404077
0.0102786
-0.0842827
-0.000828547
0.0564277
-0.0499673
-0.0270838
0.0206285
0.0731949
-0.0976619
-0.0660734
-0.0786298
0.00179003
-0.11093
0.0597022
-0.117927
-0.0658935
-0.0165436
-0.124078
0.039021
-0.039325
-0.035286
0.0584772
-0.115181
-0.124101
0.0322788
0.0319737
0.0680548
-0.0263055
0.0213437
-0.0373179
0.0686796
0.0176391
0.00508107
-0.0242307
0.13563
0.0895504
0.120992
0.0830405
0.0362786
0.178108
0.107586
0.0431301
0.0165792
0.0596998
0.187151
0.140331
0.114098
0.13603
0.117172
0.0889809
0.0466336
0.161491
0.0728316
0.093206
0.459564
-0.117949
-0.0910849
-0.0103833
-0.092314
0.0499095
-0.0241743
-0.0133151
0.0184338
-0.112868
0.014922
0.0430438
-0.124403
0.047912
-0.0352667
0.0595296
-0.0232414
0.011253
-0.122809
-0.0640447
-0.0818212
0.0700927
0.0674713
-0.0852362
-0.037796
-0.119442
-0.0721997
-0.119856
0.0519107
-0.0106532
-0.0769439
-0.0779861
-0.0579973
0.0486699
-0.0320924
-0.0302185
-0.0858955
-0.0259288
-0.0496103
-0.113554
-0.0774065
-0.0294949
0.0741549
0.0589769
-0.0870334
-0.0206343
0.00270025
-0.117912
-0.022951
0.0546784
0.0469678
0.0372577
-0.0375338
-0.0295651
0.0126055
0.00445741
-0.0351503
0.0305472
0.0606987
0.0172744
-0.0438903
-0.0275948
0.044443
0.0550724
-0.0443598
-0.119877
-0.0833232
0.0421711
-0.0895784
0.0283967
0.0616549
0.0453957
-0.0718679
0.000233755
0.0406025
0.0707683
0.0407147
-0.00712655
0.0383016
0.0171187
-0.00147042
0.0369404
-0.0693796
-0.0509485
-0.0914252
0.00236135
0.0451455
0.0450326
0.0691877
-0.113553
-0.0169736
-0.075361
-0.0877187
0.0595758
-0.0374299
-0.120234
0.00399127
-0.0941749
-0.0153613
-0.0448399
-0.0665139
-0.0716521
-0.0739568
-0.0922512
0.0375318
-0.0333505
-0.000945535
0.0151107
-0.0443638
-0.112758
0.0124291
-0.0380961
0.000231534
-0.113634
-0.0392129
0.0611938
-0.0646139
-0.0219384
0.0104475
-0.0209375
0.0212429
-0.0147741
0.00731946
0.042114
0.0194966
-0.0575656
-0.0143273
0.00739812
-0.112524
0.0509232
-0.0418834
0.00323029
0.00848074
0.0416581
-0.0545131
-0.0111477
-0.0227139
-0.0361568
0.0716917
-0.00790097
0.0343788
0.00527781
0.00869338
0.0641968
-0.0654683
0.0314019
0.0668589
0.0365131
0.0363768
0.0534725
0.0581801
0.0471304
0.0116573
-0.0247122
-0.0288106
-0.122838
-0.0788437
-0.124012
0.029384
0.0126085
-0.115784
-0.101177
-0.0200201
0.0711469
0.03825
0.0167183
0.0595884
0.0355013
0.0165624
0.068486
-0.0511424
-0.119143
0.0171593
0.071653
-0.108391
-0.117609
-0.110241
-0.0515475
0.0275886
0.0271826
-0.0139113
0.0246627
-0.0365683
-0.0105702
-0.0778421
-0.0233416
-0.0378659
-0.0949919
-0.112414
-0.00318669
-0.0575935
0.0570829
0.060632
0.00539368
-0.0917256
-0.0546523
0.0461663
-0.0899865
-0.119624
0.0643547
0.0124694
-0.0336142
-0.0224179
-0.0253388
0.0615003
0.0123498
0.0363131
-0.057167
0.000717888
-0.0855797
0.0111293
-0.090503
-0.0649049
-0.112165
0.0287062
0.0553761
-0.0652383
-0.0397351
-0.0666655
-0.115191
-0.0981801
-0.123482
-0.0746474
-0.0162861
-0.0231264
0.0638953
-0.104292
-0.0191496
0.0711468
-0.0450867
0.0621381
-0.0236049
0.0567494
0.0328437
-0.0511743
-0.0704874
-0.0405446
-0.0861446
-0.122813
0.0702374
-0.108333
0.0685024
-0.0597988
-0.108287
-0.00103591
0.0657656
0.0404164
-0.123808
-0.039381
-0.0553916
-0.0886143
-0.0231728
0.0792509
0.112094
0.112043
0.122638
0.130029
0.123975
0.0848696
0.0901931
0.150237
0.0701155
0.15035
0.163661
0.18319
0.0833908
0.140361
0.0496439
0.135973
0.158467
0.0515196
0.153788
0.144372
0.0439455
0.0438416
0.0180658
0.104221
0.032878
0.113224
0.124908
0.383916
-0.0837172
-0.10789
-0.0820111
-0.106939
0.0303832
-0.0549635
0.0309672
-0.120647
-0.034032
0.0627666
0.0609569
-0.121716
-0.00996502
0.00431382
0.00476086
-0.0454459
0.0214752
-0.0679132
-0.0736732
0.0174553
-0.0435153
-0.0302149
0.00732064
0.0603995
-0.120416
-0.120542
-0.0751042
-0.0331191
-0.0130166
0.0183677
-0.00102386
0.0569325
0.0379464
-0.12294
-0.0968628
0.00532595
-0.0144931
0.071085
-0.0952099
-0.0757612
0.0395864
0.0533368
-0.120862
-0.119526
0.0262529
0.0382945
-0.0708382
-0.0352039
-0.058962
0.0148352
-0.108145
-0.0680278
-0.116961
0.0477173
-0.0206029
0.0295458
0.0367931
-0.0654709
-0.00337892
0.0168444
0.0339889
0.0557161
0.0207585
-0.0676744
0.0136814
-0.0246799
-0.0522936
0.0459055
-0.0256448
-0.0789686
-0.112778
-0.0476691
-0.121162
-0.05149
-0.0337808
0.0476169
-0.114683
0.0324647
0.0745566
-0.00196457
0.0339869
-0.113098
-0.110922
-0.0247889
-0.117722
-0.10531
-0.0797062
-0.0876378
0.0396785
-0.0645596
0.060617
-0.0218015
-0.0163723
0.0235008
-0.0841523
-0.0683479
-0.0700922
-0.091031
-0.0479773
0.00320754
-0.0927
-0.0835129
-0.0280763
0.036999
0.0688753
-0.103706
0.00381607
-0.0713196
-0.0984341
0.0329327
0.052547
-0.0391659
-0.0263315
-0.0732933
0.0290136
-0.104815
-0.0789609
-0.0649565
-0.0600003
0.00928842
-0.0300692
-0.0735327
-0.0351219
-0.11019
-0.0690212
-0.0409163
-0.0838531
0.05064
-0.071764
-0.0398959
0.0598874
-0.123265
0.0506511
-0.109428
-0.0946931
0.0634776
0.0397864
-0.0225646
-0.0320709
-0.0111528
-0.0839212
0.0311547
0.0106746
0.0709131
0.0409139
0.0108695
-0.102119
-0.0756202
-0.0498767
-0.054895
-0.0656255
0.0581198
0.061078
0.000396216
0.00777031
-0.0029721
-0.121432
-0.10015
0.00350659
-0.00929728
-0.00872432
0.0473719
-0.0301254
-0.116973
0.065046
-0.00153659
0.054038
-0.124696
-0.102603
0.0559991
0.0168467
0.0380854
-0.0227918
-0.00670928
-0.021854
0.0129903
0.0332357
-0.0511156
-0.0285848
0.0420519
0.0690139
0.00482066
-0.0919853
-0.0104178
-0.0434542
-0.107848
-0.0391577
0.0454778
-0.110766
0.0126212
-0.0174076
-0.0591734
-0.0257924
-0.0369022
-0.0406678
0.0718535
-0.087678
-0.0156839
-0.0504363
0.00135259
-0.0634594
-0.0963325
-0.0351672
-0.016715
-0.0833143
0.0502038
-0.0891872
-0.0249343
-0.0813466
-0.103276
-0.035494
0.0146941
-0.11481
-0.0190154
0.0671146
-0.0323676
-0.060728
0.0599008
0.0543453
-0.0148968
-0.0765366
-0.072277
-0.0442125
0.0106953
-0.0755801
0.024209
-0.0794261
-0.00340286
-0.0732229
0.0187386
-0.00274319
-0.040735
0.0704669
-0.0529583
-0.0946794
-0.0549276
-0.101641
0.0509147
-0.0857795
-0.100464
0.0839677
0.0545392
0.101204
0.0199642
0.121535
0.141171
0.157192
0.0341129
0.0345579
0.0246972
0.0512935
0.100209
0.185858
0.145074
0.142366
0.0384806
0.0301118
0.0125942
0.0385778
0.183631
0.189162
0.161453
0.0678954
0.0171541
0.177119
0.138736
0.118417
0.116535
0.207555
0.0308762
0.023891
-0.121243
-0.0627013
-0.00394292
-0.0805912
0.0635427
-0.114488
0.0402986
-0.0106065
0.00213448
-0.116045
0.0229038
0.0200902
0.0504608
0.0625607
-0.016822
0.00479478
0.0230806
0.0554429
-0.0416849
-0.0707817
-0.00634715
0.022261
-0.115819
0.0161301
0.00963382
-0.0282829
-0.0730941
-0.00929411
-0.0644384
0.0524237
-0.0314976
-0.0938502
-0.107896
0.0472183
-0.0735772
0.00329347
-0.0713108
-0.0316575
-0.0418567
-0.102394
-0.0234456
0.0259214
-0.0885632
0.0617511
0.0192715
-0.0978289
-0.0658824
-0.0195004
0.0524389
0.0418858
-0.0102953
-0.0612657
-0.0216408
-0.12368
-0.0727663
-0.00182995
-0.0172375
0.0280221
-0.0760712
-0.00834542
0.0278855
0.0490678
-0.00778068
0.0075909
-0.0852332
-0.0872995
-0.0117985
0.0616381
-0.096936
-0.113763
-0.0670301
0.00662339
0.0716704
0.0498909
-0.0901851
-0.0602956
0.0180824
0.0280019
-0.10019
-0.0148769
-0.000567254
-0.0796393
-0.0508248
-0.0311606
0.00328954
0.0309358
-0.0498206
0.0542618
-0.10343
0.0639299
0.0326546
0.0523428
-0.0259649
0.0471529
0.0681501
-0.0566728
-0.0298186
0.030777
-0.084221
-0.0538978
0.00841848
-0.0479794
-0.024676
-0.114274
0.0263994
-0.0502773
-0.0837819
0.0237504
-0.0627351
-0.00846181
-0.0945939
-0.113533
-0.101218
0.0591839
0.0280211
-0.00777451
-0.0418624
-0.00390282
-0.00707857
0.0458682
-0.110882
0.0064113
-0.0803331
-0.0750642
-0.00641347
-0.0818857
0.0325419
-0.0450534
0.0231452
-0.0906449
-0.00116308
-0.0657457
0.0706074
-0.0737721
0.0632511
-0.0445709
0.00646697
0.009033
-0.0362745
0.0739763
-0.0255554
-0.0771427
-0.0941394
-0.0942039
-0.0325155
-0.0626749
-0.0765832
0.0566683
0.0228549
-0.00605112
-0.020706
-0.116831
0.0721523
-0.119464
-0.087142
0.000583962
-0.102641
-0.0468354
-0.124128
-0.0620399
-0.0272898
-0.0475116
-0.0734854
-0.113563
-0.0821707
-0.0815103
0.00479562
0.0643774
-0.0469713
-0.0497666
-0.0915751
-0.00510321
0.0727399
-0.0856603
-0.0519013
-0.0377254
-0.0436378
-0.0922301
-0.108815
-0.0889941
-0.0615288
-0.0559408
0.0644811
-0.031026
0.0747407
-0.111029
-0.014056
-0.0337849
-0.0391544
0.0512872
0.0734186
0.015596
0.0431656
0.0604292
0.0198238
-0.0345751
0.0236403
0.0366817
-0.0924735
-0.0494047
-0.0496033
0.00164525
-0.00497621
-0.0269374
-0.0720725
0.051524
0.0335469
-0.00711898
0.0601005
0.019119
0.0175283
0.0125554
-0.0211084
-0.021191
-0.0221814
0.0738997
-0.026137
-0.107893
0.056341
-0.0992665
0.0243062
0.0389728
-0.0916388
-0.0312198
0.0311207
-0.0174392
0.0209807
-0.0606896
0.073122
0.0691668
-0.0623896
-0.00453406
0.0323489
-0.035957
-0.0981831
0.020879
0.0608701
-0.0437918
-0.0240576
-0.0766153
0.0730288
-0.0205191
0.0342428
0.0520776
-0.0946937
-0.0993831
0.0163512
-0.00914936
0.0486077
-0.0884695
-0.0881028
-0.11589
-0.0633129
-0.0228095
-0.120297
-0.026882
-0.0982366
0.028605
0.00624117
-0.0549857
-0.0330363
-0.0686765
-0.00741278
-0.109738
-0.0642289
0.0305148
-0.0482064
0.0289531
-0.119706
-0.0843864
0.0293633
-0.0763022
0.177292
0.0445349
0.186972
0.0122692
0.0865249
0.189059
0.0186871
0.0993118
0.0714778
0.167882
0.032719
0.144365
0.189106
0.189461
0.186628
0.156626
0.18163
0.175507
0.100905
0.14392
0.176247
0.0918806
0.0187795
0.0491086
0.136795
0.0415613
0.134775
-0.885572
0.0193173
0.0232456
-0.0573501
-0.104149
0.0280621
-0.0562361
-0.058185
0.0408307
0.0687122
-0.108757
0.0399403
-0.031335
-0.0108806
-0.123097
-0.0391582
0.0355466
-0.0743099
-0.0702123
-0.0498984
0.00760716
-0.117599
0.0713032
0.00621648
-0.00528335
-0.0080615
-0.0213231
-0.0347242
0.011835
0.0351089
0.0431362
-0.0149362
-0.0840593
0.022301
-0.0701476
0.0675122
-0.0835459
-0.118437
0.0484526
-0.097124
-0.0547951
0.0646282
-0.0227265
-0.01149
-0.119554
-0.0827286
0.0749736
-0.104998
-0.0983484
-0.115158
-0.0140895
-0.0864217
-0.102571
-0.121253
0.0565258
-0.0432152
0.038434
-0.00632404
-0.0182284
0.0646552
-0.066645
0.0354093
-0.0351334
0.0500021
0.0392868
-0.0395632
0.065631
0.0591579
-0.031386
0.00900515
0.00504587
-0.0148219
-0.0506901
-0.0103662
0.0624521
-0.0999541
-0.0694617
-0.0674801
0.0480047
0.0587589
-0.0500752
0.00387871
-0.124502
-0.102683
-0.0177004
-0.100969
-0.0658998
-0.0678734
-0.0221811
-0.078102
-0.00193956
-0.0737089
-0.0738584
0.0437981
0.0525675
-0.0867378
0.0577842
-0.124724
-0.113654
-0.0882027
-0.114264
-0.0673536
0.0375737
-0.0109077
-0.0702342
0.0436313
-0.0497435
0.0315066
0.0390727
0.046911
-0.0434389
0.0358739
-0.0429712
-0.061465
-0.123098
-0.072309
0.070099
0.0661996
-0.109385
0.033523
0.0260572
-0.0228729
-0.0627142
-0.0855349
-0.0537338
-0.100154
-0.0611898
-0.121746
0.0162078
-0.0893594
0.0243892
-0.0217476
-0.0738791
-0.113826
-0.0733168
-0.0987111
-0.0131361
-0.0324901
-0.00418511
-0.111398
0.0641572
0.0530257
-0.0359417
-0.0384449
-0.0911534
0.03491
-0.0344414
-0.106727
-0.0114858
0.0347821
-0.0562165
-0.00616984
0.0378826
-0.00964346
0.0694232
-0.0811087
-0.0721725
-0.0774288
-0.0458308
0.0166475
-0.0809907
-0.00907954
-0.0356396
0.0560014
-0.10707
-0.032728
-0.103214
-0.0722341
-0.0762853
0.0077336
-0.0211169
-0.0471638
0.0229206
0.0365099
0.0416485
0.0673263
0.0180314
-0.0973206
-0.057628
-0.117657
-0.0618033
0.00133455
0.0696404
-0.0352419
-0.0791842
0.0674879
-0.0782993
0.071633
-0.0234899
-0.0756266
-0.00487677
-0.0767206
0.0309345
-0.0220202
0.0319149
-0.0798371
-0.0489027
-0.113643
-0.0831059
-0.0844699
-0.061841
-0.0866568
-0.0387465
0.000888472
0.0659988
-0.0853724
-0.0986281
-0.0522061
-0.0806137
0.0490303
-0.0261143
-0.0411403
-0.0733764
0.0513539
-0.0812175
-0.052095
-0.0158288
0.0735469
0.0177881
0.0533474
-0.0851319
-0.0691033
0.0700855
-0.0650586
-0.0358815
-0.0639949
-0.0354166
-0.105968
-0.00936445
0.0425494
0.0121788
0.0242097
0.00701967
0.0504986
0.0546931
-0.0471717
-0.0938658
0.00602787
-0.0807694
0.061083
-0.0935814
-0.119272
-0.0175018
-0.102602
-0.0872333
-0.08016
-0.12156
0.0201673
0.116538
0.0862931
0.0282151
0.185436
0.0148395
0.124407
0.156578
0.181729
0.134679
0.110042
0.130626
0.0624868
0.0719434
0.0676327
0.133831
0.130365
0.14739
0.010399
0.0495053
0.0584791
0.078419
0.0226768
0.106012
0.0157815
0.183255
0.135099
0.0593705
0.182884
0.111155
0.161714
0.0860599
0.175307
0.806795
-0.0744189
-0.0462743
0.0351456
0.010126
0.0547902
-0.104536
-0.062417
0.0671411
0.0234033
-0.0753635
0.0539277
-0.118685
0.028225
-0.0209313
-0.0396973
-0.107412
-0.0687766
-0.124413
-0.0895013
0.025967
-0.0863757
-0.02408
-0.0171287
0.00496967
0.0155918
-0.115309
-0.12404
0.0561144
0.020248
0.0462925
-0.0709515
-0.0453608
0.0658295
-0.107476
-0.11423
0.0327928
0.0467583
-0.0492956
-0.0388812
-0.0610452
-0.119882
-0.0996451
-0.116969
-0.0476186
-0.0640675
-0.0153325
-0.0668135
-0.00133314
-0.0175185
0.061374
0.0252846
0.000433058
-0.0428635
-0.00999747
0.059163
0.0503665
0.0351693
-0.0562909
-0.0532977
-0.0232111
0.0594208
-0.014519
-0.0432376
-0.00944476
0.0169415
-0.0483104
-0.114563
0.0356148
0.038048
0.0198335
0.0196296
0.0244043
0.0247751
0.0185523
-0.118997
-0.062435
0.059046
0.0484781
0.0150444
0.00835283
0.0487482
-0.0962903
-0.0175334
0.0307018
0.0223463
-0.0414077
-0.122129
-0.0221243
-0.0788358
-0.0693418
0.0567355
0.00502572
0.0307292
-0.0375184
-0.0212555
-0.12035
-0.0944465
-0.0328068
-0.0505335
-0.118515
-0.0775549
-0.11851
-0.0353611
0.000630677
0.0136621
-0.0657271
0.0394748
0.0293811
-0.0956285
0.0302161
-0.103185
-0.100316
-0.0713699
-0.102333
-0.0346292
-0.123976
-0.0796166
0.0156822
-0.117403
-0.05414
0.0719424
-0.10985
-0.0150744
0.0516054
-0.06195
-0.0942796
0.0129654
-0.105873
-0.0731438
0.029383
0.0185013
-0.0502174
0.0161239
0.0520434
-0.110138
0.0716327
-0.0764726
0.0177569
-0.0114642
0.00709587
-0.0739994
-0.0156475
0.0335148
-0.0270813
-0.0466999
0.0566192
-0.0764878
0.00643594
-0.065073
-0.102133
-0.0973256
-0.120086
-0.0190173
-0.0066419
0.0707298
0.0479655
-0.0294707
-0.107636
-0.0928943
-0.0293842
0.0451851
-1.47708e-05
0.0691805
0.0621162
-0.100051
-0.019875
-0.121584
0.0388677
-0.0385343
0.0421344
-0.0747664
-0.0387874
-0.00552538
0.0310154
0.00933856
0.0512011
-0.00917708
-0.0921381
-0.00548225
0.019932
0.0737929
-0.0215411
-0.077727
0.071998
0.037134
-0.0220688
0.0103666
0.05344
0.0585494
0.0302069
0.0622216
0.0215817
0.0488877
-0.0379268
0.0382983
0.0331291
-0.00176261
-0.0648928
0.0289994
-0.0427472
0.0507382
-0.0791904
0.000943661
-0.113819
0.0211662
-0.121726
-0.111416
-0.0392862
-0.0100696
0.00937489
-0.0778568
-0.124261
0.0356028
-0.102752
-0.00336873
0.0255482
0.0315683
0.0630688
-0.105964
0.0465574
0.0399579
-0.0683099
0.0671578
0.0542858
0.0657817
-0.0803806
-0.0109826
-0.0695398
-0.0461821
0.00717898
0.0634514
-0.0190587
-0.0258741
0.0545188
-0.0102341
-0.0797296
-0.018418
-0.0632344
0.043779
-0.10808
0.00337094
-0.115368
0.0646087
-0.0291545
-0.107867
-0.00711559
0.0673862
0.000373835
-0.0670589
0.0600176
-0.105675
-0.0245005
-0.0396355
0.0365715
0.0380248
-0.115745
-0.104658
-0.0156611
0.0568177
0.0554735
0.00885083
-0.0188876
-0.0271035
-0.0269942
0.0655958
-0.0850919
-0.0755451
-0.100085
-0.00650712
-0.0815672
-0.0703566
0.162782
0.0819581
0.124037
0.076414
0.0923348
0.146881
0.0849131
0.0638205
0.11127
0.0953819
0.137166
0.0825997
0.0492127
0.0411723
0.14943
0.166955
0.0985822
0.03008
0.107887
0.116012
0.0259104
0.189367
0.0285676
0.0142463
0.035739
0.0847792
0.113368
0.0430652
0.153871
0.10657
0.121987
0.135552
-0.195465
-0.0229432
0.0392704
-0.0723512
0.0727417
-0.124773
0.0637764
-0.00144803
-0.0831629
-0.0827088
0.00742229
0.0100166
-0.0824298
-0.0904558
-0.0472157
-0.0101314
0.00042009
-0.0701274
0.015409
-0.0776414
-0.00343361
0.0710628
0.0247765
-0.012759
0.017374
-0.0300074
0.0714899
0.0156527
0.0549771
-0.0949527
-0.0713329
-0.0317062
-0.00214898
-0.0526021
-0.035084
0.0454908
-0.0365681
-0.0995357
0.0592171
0.0371618
-0.050997
-0.0626691
-0.0634706
-0.104564
-0.0969043
0.00688188
-0.0933057
0.0400601
-0.0787921
0.0265146
0.0620835
0.00423197
-0.0575055
0.0459709
-0.0694003
0.0580094
0.0587505
-0.046747
0.0728519
0.0650304
-0.0960523
-0.0288019
-0.0509903
-0.0781666
0.0194027
-0.0439946
-0.0476474
-0.0111428
0.0173214
-0.107789
0.0589354
0.0051595
-0.0787242
-0.0711681
0.02166
-0.0798009
-0.093326
0.0278075
0.0720389
0.042276
-0.00645619
-0.0405643
0.0367627
0.0356844
0.073369
-0.0247732
0.0673154
-0.110999
0.0520537
0.0205891
-0.088208
-0.07338
-0.118655
-0.0114131
-0.0989229
-0.100394
-0.115713
-0.0911935
-0.0526861
-0.0148108
-0.109843
0.0201688
-0.107058
0.0492166
0.0582556
-0.0439717
-0.0354777
0.0309655
0.0235018
-0.102942
0.0689599
-0.0416002
0.0466851
-0.0936685
0.0204681
0.00200646
-0.0686262
-0.0970065
-0.0249477
-0.122043
-0.100895
0.0670735
-0.0650886
0.0183825
0.027501
-0.116942
-0.0317139
0.071572
0.0246844
-0.00566754
-0.00242719
0.0262697
-0.0420032
-0.110643
-0.0252286
0.00772667
0.0412339
0.0616433
0.0688957
0.0629532
0.0405162
-0.0232651
-0.0233765
0.073337
0.0501831
-0.028494
0.0647728
-0.00562592
-0.0609299
-0.0348537
-0.019585
-0.0872277
0.0438456
0.0289154
0.0648555
-0.0547715
0.0344974
-0.0904493
-0.0850637
-0.116773
-0.073548
0.0684532
-0.072082
-0.0814039
-0.0175662
0.0212944
-0.0195408
-0.0415948
-0.111602
0.0140833
0.0580577
-0.0454908
-0.0318979
-0.0308076
0.0700338
-0.0128534
-0.0733843
-0.0357016
0.0588556
-0.121614
-0.0445046
0.0614249
0.0361384
0.0662289
0.0450675
-0.0540807
5.93252e-05
0.00252876
-0.0887679
-0.0962448
-0.0368971
-0.0698453
0.0679131
-0.0388997
-0.0334159
0.0200674
-0.0539976
0.0326338
-0.0767181
0.0622369
-0.0587112
-0.101867
-0.0943517
-0.037533
-0.0326158
-0.0725791
-0.091773
-0.115788
-0.0948036
0.0666202
-0.116249
0.0124058
-0.0582792
-0.0060451
0.0284771
-0.0184702
-0.0786461
0.0245432
-0.0144037
-0.0795993
-0.0576647
0.0376913
-0.0963455
-0.0461055
0.00401673
-0.124868
0.0742103
0.144981
0.181403
0.0406468
0.180506
0.16654
0.0856033
0.166573
0.128825
0.0565197
0.162864
0.1565
0.164806
0.0271641
0.170931
0.0228977
0.0931383
0.0636923
0.143798
0.0603714
0.110478
0.022094
0.164746
0.183675
0.187255
0.0320942
0.0947551
-0.278183
0.0510616
-0.0728485
0.0613737
0.0498793
-0.00315253
-0.0279779
-0.0635893
-0.0392441
-0.0782357
0.00288562
-0.0250911
-0.053753
-0.0783711
-0.115054
0.0583844
-0.112412
0.0711284
-0.0261774
-0.112752
-0.0754828
-0.106411
-0.0642818
-0.12367
0.0663083
-0.100874
-0.0186078
-0.0607017
0.00372063
-0.113006
0.0084783
0.0459018
-0.00488896
-0.0696572
-0.0747253
-0.0506262
-0.00391907
0.0189867
-0.00269556
0.0211556
0.010593
-0.0467884
-0.05061
0.0637258
0.0276763
-0.0612568
-0.0156357
0.0220575
0.0225053
0.0428052
0.013507
0.0497093
0.00464246
-0.115626
-0.0163952
0.0369759
-0.0419346
0.0242205
-0.0264218
-0.0172223
-0.10085
0.0124315
-0.0188947
-0.0787757
-0.0460254
-0.0182964
-0.034077
-0.0147154
-0.0786486
0.0397239
0.0549425
-0.0639633
-0.0383201
-0.0727702
0.00277466
0.00242602
0.0364944
0.0493719
-0.112743
-0.0504321
0.0134896
0.0671534
-0.0679015
-0.11573
0.0527125
0.0647568
0.0508665
-0.0332171
0.0460302
0.0135971
0.0513487
-0.110294
-0.0978596
-0.0951047
0.0365096
-0.113814
0.074521
0.013716
0.0354755
0.043397
-0.0867225
-0.0157185
-0.0507304
0.0373744
0.043032
0.055011
0.0252752
-0.122095
-0.0323898
-0.110871
-0.0931919
-0.0264959
-0.0383054
0.0748886
-0.0639557
-0.099803
-0.109305
0.00811721
0.0181139
-0.0161537
-0.103704
-0.119317
0.000296667
0.0306257
0.0226131
-0.0450447
0.0369242
0.0437643
-0.0894811
-0.00200002
-0.104416
0.00444902
0.0377456
-0.0041265
0.0220998
-0.0790022
0.0528704
0.0586926
-0.122424
0.0421271
-0.113835
-0.0173858
-0.0819798
-0.0815031
0.0725295
0.0318338
-0.106627
-0.11148
-0.0486969
0.0254076
0.0472654
-0.0642836
0.0325491
0.0496569
-0.0381993
-0.0275143
-0.0741216
-0.067006
-0.00214744
-0.0234752
0.0327351
0.0369864
0.0722364
0.0715026
-0.0297402
0.00911012
-0.0972244
0.0535789
-0.0372875
-0.114614
-0.0942846
0.0522437
-0.035998
-0.0537557
0.0703817
-0.104637
-0.0440491
-0.0088695
0.000382796
0.0527221
0.01767
0.0705039
-0.0891864
0.0295875
-0.0989556
0.0683762
0.0440893
-0.0295398
-0.0643173
0.0104199
0.0723188
-0.048851
0.0670881
-0.0621721
0.0330624
0.0637618
-0.0952692
-0.112647
-0.0450929
0.0461808
-0.114099
-0.00836388
-0.000324951
-0.111487
0.00840847
0.00158619
0.0124219
0.0244849
-0.016811
-0.0691684
-0.0696122
0.0305104
0.0630855
0.0346911
0.019021
-0.0498134
-0.117864
-0.0403824
0.0659326
0.00321373
-0.0423289
-0.0174151
-0.0529994
0.0428764
0.0161095
-0.0362529
-0.0110048
-0.0689415
-0.0674425
0.0209305
0.00548677
0.0739859
-0.00791179
0.0439396
0.0662643
-0.0142636
0.00744297
0.0749532
0.0220402
0.152759
0.145667
0.125225
0.0320182
0.0819964
0.0499321
0.0408919
0.133418
0.103098
0.128413
0.176111
0.155872
0.0746418
0.151217
0.175302
0.173613
0.0816581
0.124884
-0.234264
0.0419033
-0.101969
-0.0643488
-0.0161428
-0.0590496
-0.120488
-0.0218132
0.0227942
0.0154604
-0.105705
0.0238293
-0.029888
0.0205971
0.0531243
-0.0751125
0.0437588
-0.0960061
-0.06271
-0.0343439
-0.0334716
-0.0938339
-0.0781634
-0.108598
0.0442578
-0.111138
0.0544151
0.0128001
-0.00215252
-0.0178916
-0.119553
-0.00714209
-0.0393258
0.00619028
0.00690969
0.0626615
-0.020282
0.0325755
-0.0112793
0.0362039
-0.118456
-0.0980913
-0.0198983
0.0569707
0.0646355
0.0274911
-0.0575944
-0.0568651
0.0450798
-0.0080975
-0.119914
-0.102131
-0.11512
0.0591527
-0.104396
-0.0686872
-0.079839
-0.101804
0.0605528
-0.0681863
-0.107749
-0.0490753
-0.0828872
0.0443188
0.0292891
-0.0620789
-0.0360288
-0.0400146
0.0140221
0.00261898
-0.0813332
-0.103474
0.0215218
0.0383965
-0.0211403
-0.0397874
-0.0815909
0.0619195
-0.123047
-0.0283999
-0.0224019
-0.0414502
-0.0405443
0.027184
-0.0305462
0.00386067
-0.0875491
-0.11612
0.0185594
0.0287558
0.0214844
-0.0983422
-0.0707261
-0.0790262
0.0514937
-0.0870274
-0.00823845
0.0146522
0.0681584
-0.0634153
-0.0346699
0.0216577
0.0529482
0.0196056
-0.110779
0.0231602
0.00147497
-0.0491136
0.0334518
-0.0622237
-0.0545518
-0.0949419
-0.0968751
0.0153321
0.0571251
0.0734284
0.0191886
-0.00665318
-0.0304786
0.0749309
-0.0296125
-0.0861469
-0.00154826
0.0175998
-0.117974
-0.105686
0.0304629
-0.0572182
0.0483598
-0.0268978
-0.0858131
-0.0611635
-0.00572975
0.00655255
0.0629056
0.0627251
0.0743978
0.0200997
0.0429372
-0.0618192
-0.0989698
0.00795085
0.0523951
-0.0426199
-0.122623
-0.0244832
0.0691979
0.0641794
-0.0299485
0.0541723
0.0122761
0.0133983
-0.118496
0.0153529
0.0247923
-0.0595805
0.0126052
0.0569735
-0.0782424
-0.12164
-0.0897531
-0.00772432
-0.106117
0.0130571
0.05528
-0.113358
-0.122807
-0.10983
-0.0353146
0.0349668
-0.00512933
-0.0470364
0.0462207
-0.0414389
0.0720263
-0.123117
0.00676015
-0.0502818
-0.00739883
-0.00678245
0.00378119
-0.0755333
0.0225889
0.0354352
0.00296902
-0.081546
0.0343175
-0.00409259
0.0509945
-0.0606299
0.0634968
-0.068
-0.0247716
-0.0170118
0.00762606
0.0543943
-0.0935726
0.0117002
0.0279465
0.071725
0.0384501
0.0520816
-0.0289378
-0.106753
-0.0227345
0.0118807
-0.000757074
-0.00668107
-0.00889399
-0.0376426
0.0190173
-0.0236054
0.0251192
-0.0271878
-0.0901124
-0.0221115
0.00725862
-0.0224292
-0.058183
0.00810495
-0.109377
-0.0109727
0.0475047
-0.123807
-0.0356512
-0.0524364
-0.0955372
-0.0091132
0.00496096
0.0223187
0.0489187
-0.0660609
0.0439917
0.0437366
-0.088358
0.0412218
-0.0136272
-0.121233
0.0342307
0.0723436
-0.0528553
0.0185934
-0.0249213
-0.0127489
-0.0918907
-0.0182977
-0.100208
-0.00771342
0.0231283
0.0556131
-0.116618
0.0532548
0.0650078
-0.111917
0.0308375
0.00766318
0.0642898
0.0483569
0.0314672
0.03534
0.150482
0.0550439
0.15633
0.0909118
0.111943
0.189694
0.155445
0.0317217
0.0232588
0.130875
0.0880515
0.168619
0.13896
0.120556
0.0593099
0.0789166
0.0831127
0.0813667
0.0283752
0.18
0.0600909
0.134109
0.0292166
0.115709
0.0172805
0.409467
-0.0979084
0.00409474
0.0732047
-0.0506117
-0.0332219
-0.0673198
0.00721123
0.0714859
0.0495576
-0.0747732
0.0682025
0.0441383
0.0566349
-0.115716
0.0424371
-0.0196608
-0.0950781
0.0705021
-0.0960867
0.0159604
0.070645
-0.0134449
-0.0808068
0.036555
-0.0310487
-0.0279567
0.00118474
-0.0779619
-0.102498
-0.0403508
-0.0866769
-0.092297
-0.124939
0.0368278
-0.123502
0.023501
-0.0249056
-0.00569987
0.0594592
-0.0428388
-0.101742
-0.111696
-0.118886
-0.053281
-0.107596
0.0453027
-0.0898535
-0.119307
-0.0980333
-0.0107791
-0.00341674
-0.0668015
-0.0138055
0.00694
-0.0808896
-0.106669
-0.0678143
0.020192
0.0490202
0.0553896
0.0279153
0.0429543
0.0307361
0.0535397
-0.0435517
-0.0237463
0.0461325
0.033932
-0.0234723
0.0280631
0.0276938
-0.00133346
0.0382253
-0.0395624
0.0223572
0.0216431
-0.00369164
-0.0668456
0.0600932
0.0442086
0.0289561
-0.00698483
-0.00156713
-0.00263651
-0.0955904
0.0627708
0.0384392
-0.0840255
-0.00817551
-0.0262957
-0.106843
-0.109086
0.0294812
0.0413599
0.0244124
-0.0785517
0.0253689
0.0444794
-0.110966
-0.105159
0.0562271
-0.115599
-0.110384
-0.065162
-0.0983721
-0.0793156
-0.0141526
0.0557874
-0.0137664
0.0467182
-0.0274977
-0.0375876
0.02309
0.0203779
0.0581931
-0.10587
-0.0757986
-0.0701149
-0.0343239
-0.0465151
-0.111924
-0.115072
0.00998153
0.0647517
0.027209
0.0690108
-0.051139
-0.0550603
-0.0323106
-0.0586296
-0.100037
-0.0489373
0.0156768
0.0504374
-0.0727376
0.0250771
-0.0218864
-0.0663354
-0.121279
-0.119937
-0.118218
-0.0462496
-0.0115284
-0.0372168
0.0535319
-0.024194
0.0346256
0.00195184
0.0695135
-0.0357563
-0.0149517
-0.109591
0.0520906
0.0020794
-0.00156961
-0.0871685
-0.0600486
-0.00651332
-0.103045
-0.108582
-0.0785851
-0.0427508
-0.0572935
-0.0812197
0.0462914
0.0693439
-0.0949254
-0.0740959
-0.00269273
0.041061
-0.0434835
0.0121776
0.0710909
0.00463748
-0.00567243
-0.0144684
-0.0773776
-0.017815
-0.107396
0.0471313
0.0704126
-0.0218475
-0.0151424
-0.0719991
-0.0112102
-0.055555
-0.032727
0.0443617
0.0654481
0.022326
-0.0189341
0.0505152
-0.0568244
-0.0407104
0.0161435
-0.106099
-0.103875
0.0623906
-0.0891197
-0.0973597
0.0492477
-0.0362672
0.0494166
-0.102933
-0.0632008
0.00935788
0.0727977
-0.0349083
-0.124045
0.0533764
-0.00892185
0.0286291
-0.0951741
-0.0994315
-0.0960174
-0.0594937
-0.0456579
-0.0315222
-0.0467574
0.0096879
0.0363863
0.0110346
-0.00692241
0.0712001
-0.119981
-0.0104605
-0.0207455
-0.00817176
-0.0638731
0.0640022
-0.0878299
-0.101234
0.0208569
-0.113089
-0.0959428
-0.0874338
-0.0846525
0.0602946
-0.0789015
-0.0304129
-0.023573
-0.0766619
-0.0250997
-0.050407
0.0024024
0.00984718
0.0701747
-0.115572
0.0284308
-0.0309525
0.0675116
-0.0672995
-0.121252
0.0109739
0.0634276
0.0403893
0.0243886
0.137316
0.0829046
0.187431
0.115867
0.0613243
0.113246
0.159084
0.0414813
0.135306
0.0883216
0.0705111
0.181601
0.0119135
0.0322787
0.072271
0.030154
0.0311292
0.0732757
0.112683
0.157455
0.152647
0.0455867
0.640746
-0.0914429
-0.0889566
-0.111796
-0.0178743
-0.0225414
-0.0534008
0.0397472
-0.115954
-0.10329
0.0619861
0.0206701
0.0284798
-0.0719194
0.038708
-0.0232601
0.0292011
0.0207519
-0.123599
-0.072193
0.012032
-0.0269926
-0.00398064
0.0529384
-0.0296084
-0.000701685
0.0423876
-0.0101076
-0.0940837
-0.0851376
0.0425896
-0.0772642
0.0128056
-0.124534
-0.11458
-0.00669372
-0.0737405
0.00176779
0.0515487
-0.0765753
0.0184667
-0.100802
-0.0537009
-0.0703902
0.057017
0.0535815
-0.12354
0.00512718
-0.0522758
0.0483241
-0.0874853
-0.00914133
0.0451969
0.00944108
-0.0386307
-0.062787
-0.055957
-0.0151252
0.039992
0.0357654
0.0225068
0.0702281
-0.118161
-0.0238908
-0.027531
-0.064824
-0.0151949
-0.0356072
-0.115001
-0.0905315
-0.106957
-0.0138889
0.00954413
-0.00700993
0.0585202
0.00775825
-0.0481262
-0.0835195
-0.0637359
-0.0627784
0.0663282
-0.0879617
0.0525105
-0.0683658
0.0154388
-0.0846194
-0.00987999
-0.107384
-0.105503
-0.110334
-0.0673071
-0.100058
0.00348072
0.0172177
-0.0115598
0.0664965
0.0712144
-0.107816
-0.0910964
-0.0805347
-0.0338999
-0.0529462
-0.0181783
-0.0799787
-0.0137256
-0.12116
0.0735733
0.0356142
-0.0174819
-0.100626
-0.0035008
0.0479686
0.0177368
-0.0315385
-0.0055088
0.0644049
-0.00265487
0.0406624
-0.00140042
-0.0199867
0.0471315
-0.0683869
-0.03622
0.045584
-0.0250829
-0.0735624
-0.00716323
-0.0675001
-0.0404043
-0.0522646
-0.0637645
-0.094786
-0.0658978
-0.0328428
-0.000970481
0.0529399
0.0283376
-0.106567
-0.0226314
0.0418893
0.00293547
-0.0838021
-0.124389
0.0246423
-0.0456672
0.066393
-0.0972234
0.0254345
-0.042876
0.0163616
-0.0253916
-0.0995333
-0.120292
0.0288254
-0.0330548
-0.0110495
-0.0650442
0.0432685
0.0203942
0.0363628
0.0673492
-0.0905766
-0.00798908
0.0237107
-0.00165263
-0.0326818
-0.0557441
0.0404644
-0.10429
0.0330135
-0.0996395
-0.0796897
0.0612396
0.0387587
-0.0268734
0.00723662
-0.0605003
-0.0597729
0.0634733
-0.0858291
0.0116581
-0.0313501
-0.0713404
-0.0268256
-0.108735
-0.0492065
0.0582573
-0.0783925
0.00673687
-0.0771164
-0.113412
-0.0148324
-0.047959
0.0593452
0.0711231
-0.0167342
-0.0913591
0.0185807
-0.0236095
-0.0243367
-0.00243587
-0.00845927
0.0418723
0.0207578
-0.0754944
0.0740741
-0.0667804
-0.0406403
-0.113255
0.0333388
-0.0579175
-0.0568704
0.0729477
-0.0905355
-0.0372613
-0.0107777
0.0588939
0.0196846
-0.0223926
-0.0318996
-0.073508
0.0551245
-0.0174383
-0.093377
-1.55754e-05
-0.0257624
-0.00768676
-0.00815866
0.0309252
-0.0859383
-0.0152473
0.0182788
-0.0806111
0.0563404
0.0529285
-0.00809063
0.0365103
-0.0234565
-0.101695
-0.0458598
-0.090818
-0.0647345
-0.110354
-0.0967634
0.0553153
0.0441722
-0.0686246
-0.0513754
-0.0868514
-0.0673442
-0.0409604
0.0746867
0.0457109
-0.0873001
-0.118205
-0.0508349
-0.0598033
0.168454
0.13084
0.11408
0.0654955
0.0281519
0.0951563
0.180794
0.045
0.168491
0.168835
0.0554324
0.0116483
0.0552821
0.067525
0.0301305
0.180532
0.0520018
0.167749
0.166289
0.0347094
0.042215
0.0862177
0.0903353
0.0671268
0.027351
0.0855444
0.0155783
0.673954
0.0405102
0.0450055
-0.117709
-0.0318375
0.0465213
-0.000430282
-0.0492855
0.0455621
0.0115965
-0.0551399
-0.111895
0.00493397
0.0638692
0.00536288
-0.107605
-0.0790849
-0.0292634
0.0156434
0.0527027
0.0284464
0.0286797
-0.100424
0.00927799
-0.091247
-0.0616736
-0.120321
-0.0140767
0.0483816
-0.0274526
-0.0389179
-0.0853309
0.0523265
0.00290849
-0.10891
0.0385618
-0.10288
-0.12489
-0.12104
0.0339238
-0.0450629
-0.0278022
-0.0911825
0.0692749
0.0737083
-0.121425
0.0149075
-0.0687181
-0.0501912
0.0306551
-0.0263139
0.0467818
-0.0906925
0.00771388
0.0326416
0.00304935
0.03426
0.0409091
-0.115213
0.0176044
-0.0781169
-0.0457841
0.0266131
-0.098933
-0.0463114
-0.0868954
-0.1228
-0.0402834
0.0571817
-0.089237
0.0293092
-0.0824017
0.0302698
0.00904598
0.0291767
-0.109949
0.0515876
0.0426794
-0.104714
-0.103851
-0.00748099
0.00630873
-0.0566538
0.0385213
0.0696447
-0.106244
0.0169019
0.0301086
-0.0627675
-0.0557622
-0.123798
0.0742752
0.0114097
0.0290868
-0.0232798
-0.0472226
-0.0611365
0.0406153
-0.00320488
0.0625012
-0.119566
0.0586185
0.0526842
-0.0153973
-0.0784015
-0.0205744
-0.107712
-0.0252964
0.0481439
-0.0591518
0.0144275
-0.0835473
-0.0975638
-0.050577
0.0116209
0.0315537
-0.112405
0.0670983
-0.0216591
-0.067327
0.0408597
0.0418087
-0.0332705
-0.0759689
-0.0297128
0.0661329
0.0202374
-0.0498474
0.00112963
-0.0431032
0.0699641
0.00740074
-0.112187
-0.0716485
-0.0661274
0.0227472
-0.1015
-0.00222637
-0.0929991
-0.0989089
0.0520768
-0.109741
0.0518531
-0.013933
-0.0748583
-0.105273
-0.0917202
-0.0436864
-0.0443729
-0.0361565
-0.105304
-0.0704685
-0.0307306
0.01286
-0.0701473
0.0666239
-0.123148
0.0310277
0.0718809
-0.0398491
-0.0794512
0.07438
-0.0382334
-0.0974917
-0.0853846
-0.0531434
0.0233863
0.0642181
-0.0236744
-0.0243898
-0.0509984
0.020102
-0.0934939
0.054271
-0.101585
-0.0924353
-0.0821637
0.0374163
-0.000306522
0.0711499
-0.090736
0.020959
0.0412861
-0.0370825
-0.102314
-0.115196
-0.112395
-0.0103991
-0.0559054
0.0122714
-0.0127751
-0.0543767
-0.0260642
0.0169865
-0.0303652
-0.0779319
-0.0273021
-0.0882113
0.0585309
-0.0834726
-0.122949
-0.108893
-0.0248717
-0.0382463
-0.0225842
-0.0388868
0.0213338
-0.0300241
-0.0228044
-0.0148245
0.0402718
-0.0525795
-0.0437057
-0.0313287
-0.0748265
-0.0493262
-0.0115523
-0.100029
-0.121157
0.0248689
0.0404114
-0.00311374
-0.0436466
-0.0951104
0.00989218
-0.100745
-0.110069
0.0431257
-0.068925
-0.0956171
-0.0663923
-0.0743502
0.0430626
-0.0776604
0.0122506
-0.0719104
0.0627703
-0.0738366
0.0447812
-0.0347133
-6.58855e-05
-0.0503173
0.0379394
-0.0986962
-0.0900831
0.0741606
-0.0150819
0.0303637
-0.0350557
0.0592164
-0.0272692
0.0308204
0.155985
0.0868743
0.0908287
0.0136416
0.0779329
0.0235523
0.178876
0.0638315
0.0580723
0.113012
0.129993
0.113587
0.0436733
0.115472
0.160525
0.0891197
0.0458717
0.0797068
0.139159
0.17668
0.144795
0.0102839
0.12144
0.0531643
0.0153697
0.185342
0.0536722
0.073564
0.186538
0.144548
0.0443588
0.140016
-0.976221
-0.0554731
-0.0218403
0.0161963
0.0641046
-0.0634512
-0.0150853
-0.0325295
-0.0196765
-0.025383
-0.0467064
-0.0791217
0.0427645
0.00112035
-0.0883393
0.0559517
-0.00894543
-0.0267788
-0.0907069
-0.0818789
0.00617977
0.00711851
0.0479624
-0.107835
-0.0153424
-0.0646326
-0.118716
-0.0584953
0.0253946
-0.0104103
0.0146275
0.0645265
-0.0316083
0.0702728
0.0166612
-0.0720925
0.0254681
0.024585
-0.0460132
-0.0480857
-0.0960973
-0.0995152
0.00764995
0.0046036
0.0567669
0.0160084
-0.0620579
0.0562464
-0.0383748
-0.0523754
0.0504371
-0.11892
-0.0931052
-0.00276794
0.0137687
-0.113296
0.0122824
-0.0148219
-0.11969
-0.0680923
-0.11379
0.0294892
0.0149674
-0.0343136
-0.0737478
-0.112627
0.0717148
-0.0479349
-0.0699854
-0.0109979
-0.0625202
0.0641564
-0.0336907
-0.102062
-0.0742797
0.0467873
-0.0752479
0.0606766
-0.0742384
0.02054
0.00491161
-0.117456
-0.0430471
0.0271476
-0.0296733
-0.123149
0.00290847
-0.0960833
0.017322
-0.0396429
-0.0272825
-0.0488756
-0.0809052
-0.0821723
0.0498898
0.00759341
-0.124875
0.0508776
-0.11252
0.0366065
-0.0246127
-0.0162892
0.00905125
-0.0900786
-0.0994515
-0.0924524
-0.0864577
0.0655303
-0.0807853
0.0464754
0.0333525
-0.0476328
0.0134798
-0.0983612
-0.118115
-0.113045
0.00518676
-0.0505812
-0.0745047
-0.114288
-0.0725015
-0.0841462
-0.0902995
0.0729206
-0.0917923
-0.0659405
-0.0130052
-0.120917
-0.114437
0.0297875
-0.00645984
0.0663551
-0.0559309
-0.0218369
-0.0547416
0.00669849
-0.0750369
-0.0941753
0.0440458
-0.0715542
0.0145649
-0.0454732
0.0285638
-0.0293014
-0.103436
0.0550285
-0.10035
0.0446406
0.0145985
-0.0489711
-0.0833392
0.0634015
0.0731908
-0.106321
0.073038
-0.0854429
-0.0943092
-0.110579
-0.0502207
-0.0162925
-0.0312705
-0.0795443
0.011306
0.0537876
0.0360777
-0.103685
-0.0749622
-0.00396531
-0.119923
-0.116763
0.0625851
-0.0392728
0.0107534
0.00800526
-0.087491
-0.123781
0.0203378
0.00503374
0.0531693
-0.0793674
-0.00571135
0.0462713
-0.0631534
0.0378765
0.0153196
0.0161112
0.06792
-0.0735203
0.0445901
-0.0811775
-0.0117058
-0.0592941
-0.121066
-0.109054
-0.0145643
0.00823569
0.0198844
-0.100264
0.0190223
-0.0957926
-0.0272497
-0.0541344
-0.0527097
-0.116696
-0.0710082
0.0469416
-0.112399
-0.00122782
-0.0726357
0.00533204
-0.118894
-0.124403
-0.027815
0.0508845
-0.124907
0.0192571
-0.00634918
0.00165353
0.0656961
-0.05218
-0.0469051
-0.00712426
0.0514603
-0.0728679
-0.0546264
-0.0721252
0.0590308
-0.0763127
0.0740038
0.0560372
0.015272
-0.0357017
-0.122639
0.0447173
0.0645382
0.0380411
-0.118175
-0.0586693
-0.075677
0.0678126
-0.0901407
-0.0395887
-0.00604731
-0.121692
0.0399816
-0.0923306
0.00719288
-0.0924127
0.0040512
-0.0571444
-0.0132513
0.0616461
0.0179352
-0.0988678
0.0431717
0.0870165
0.106197
0.147352
0.122277
0.189933
0.118193
0.139654
0.0703446
0.0997385
0.11388
0.0355469
0.860798
-0.0972707
-0.0362023
0.0449824
0.037234
0.000278031
-0.106294
-0.0266179
-0.0968737
-0.0582541
0.0587528
-0.0122289
-0.0471086
-0.0847361
-0.115216
-0.116194
0.0248252
0.016128
-0.0705389
0.0340791
-0.107507
0.021517
-0.0780657
-0.0772087
-0.124665
-0.00226256
0.0526453
-0.0580359
0.0593072
-0.107469
0.043697
-0.013805
-0.0752253
-0.0785531
0.0465706
-0.110811
-0.0490715
0.0652067
0.0393622
-0.0875694
0.0667552
0.0566034
-0.0646131
-0.0223503
-0.0188328
0.0237144
-0.00920064
0.0556196
-0.0775569
-0.0493912
-0.0745804
0.0339959
-0.0992788
-0.115122
-0.00382232
-0.0281648
-0.0795293
0.0181362
-0.0289658
-0.0215518
-0.0880779
-0.00589305
-0.114079
-0.0580492
-0.0134904
-0.0219231
0.026114
-0.0497179
0.0614141
-0.0247164
0.0701599
-0.0277407
-0.0717736
0.059342
-0.0576411
0.0689282
-0.0648826
0.0147762
-0.100994
0.0109997
-0.00409092
-0.0176458
-0.0817157
-0.124155
-0.115995
-0.0975298
0.0223585
0.013394
0.00584108
0.00734383
-0.0236043
0.0377929
0.025272
-0.0271784
-0.0475546
-0.102019
0.0727781
-0.0373886
0.00527791
0.0128682
-0.0518055
-0.117037
-0.113561
-0.0953657
-0.116913
-0.0813445
0.00201257
0.000276003
-0.00872043
0.0109898
-0.0793102
0.0173427
0.0398087
-0.108905
-0.105812
0.0230479
-0.0711826
-0.00618096
-0.073743
0.0527592
-0.0205966
0.0243654
-0.0471957
-0.0628103
-0.038034
-0.0768051
-0.00749005
-0.0615328
0.0520765
0.0452206
-0.00968063
0.00256814
-0.0649298
-0.0614284
0.0325874
-0.0206193
-0.104109
-0.104133
0.000259185
0.046126
-0.0672287
-0.0530923
0.0252816
-0.0983579
-0.12401
-0.0588669
-0.015085
0.00944463
-0.122396
-0.123462
-0.109554
-0.078832
0.0238223
0.0643789
-0.0179196
-0.00106691
-0.0677214
-0.0989522
0.0735387
-0.0965032
0.033687
-0.0702558
-0.042564
-0.0546025
0.0343345
0.00269436
-0.016738
-0.0641935
-0.0781243
-0.0340936
-0.0996325
0.0229457
0.0505807
-0.0312266
0.0362823
-0.114872
0.044108
-0.0210405
-0.120692
-0.122902
0.0235256
0.0539775
-0.0211539
0.0307131
-0.117204
-0.0455417
0.0453099
-0.0697886
-0.0419602
-0.0373496
0.00918062
0.0619308
0.0679864
-0.11834
-0.00520517
0.0362251
0.0394243
0.0293068
-0.0951451
-0.109866
0.0529409
0.00775812
-0.0723422
-0.116803
0.049435
-0.0352235
-0.00766317
-0.00461935
0.0234506
-0.0607052
-0.0137998
0.0577106
0.0653447
0.0530285
0.0588853
-0.122251
-0.0281084
-0.0178718
-0.0422374
-0.0179225
0.033234
-0.0705329
0.0730691
-0.0798802
0.0233948
0.0276867
-0.0277471
-0.0737562
0.0732726
-0.0619683
-0.0692444
0.126946
0.0512664
0.188138
0.15797
0.098549
0.173313
0.142482
0.10296
0.118611
0.0468789
0.0809685
0.154584
0.182942
0.170912
0.113024
0.045271
0.1032
0.144672
0.0567083
0.18717
0.181954
0.159294
0.177649
0.163349
0.142967
0.503732
-0.0111885
-0.11632
-0.0849196
-0.0675555
0.0172992
-0.0559088
-0.003548
0.0683569
-0.116622
-0.00099178
0.00546323
-0.0257514
-0.119167
-0.112018
0.0373363
0.0525954
0.0107733
0.0315081
0.05259
-0.124342
0.0510598
-0.115163
-0.120341
-0.00429615
-0.108243
-0.100252
-0.00987255
0.0732245
-0.0791374
-0.121527
0.0491576
-0.0469397
-0.123189
0.00883101
-0.11349
0.0332433
0.0574061
-0.103023
-0.0891957
0.070406
-0.0546277
-0.0849017
0.0398299
-0.068347
0.0151837
0.036764
0.0208313
-0.00984479
-0.11657
-0.0384789
-0.0124185
0.0316356
0.024581
0.0168099
-0.0648383
-0.0944988
0.0675144
0.0671392
-0.112291
0.0244852
0.0524475
0.033767
0.0313448
-0.00690972
-0.00616127
-0.0098863
-0.0386203
0.0024185
-0.0190186
-0.105701
-0.0422348
-0.0284833
-0.0923465
0.0736218
-0.0275435
-0.0208868
-0.0230034
-0.116484
0.000732761
0.0390247
-0.101553
0.0412143
-0.0706771
0.0723454
-0.10681
0.0385072
-0.012873
-0.0172894
-0.0799898
0.0625322
0.0402559
0.0580868
-0.0202901
0.0670711
0.00030449
-0.0880482
-0.0918419
-0.124967
0.0675962
-0.122898
0.0250724
0.0585782
-0.00448812
0.0289887
-0.120874
-0.00450208
-0.118308
-0.123271
0.0626099
0.0436686
-0.0765298
0.0532983
-0.0450443
4.94812e-05
-0.110259
-0.12153
0.00880003
0.0543233
-0.122818
-0.0802506
-0.0962809
0.0463064
0.00722042
0.042874
0.0506941
-0.0288452
0.0680243
-0.0529668
-0.0951579
-0.0716555
-0.111373
-0.100225
-0.0125139
0.0749522
-0.0220322
-0.019305
0.0415421
0.0690167
-0.0235343
-0.0608953
0.03917
-0.0903889
0.00684873
-0.0977937
-0.00229781
0.0420438
-0.0750277
-0.0520841
-0.0584807
-0.0370616
-0.0754327
0.0508427
-0.0474576
-0.114386
-0.104571
-0.100162
-0.0647395
-0.0297185
-0.079108
-0.10228
-0.115678
-0.00980464
0.033797
-0.114974
-0.0393206
0.0171039
-0.0971168
-0.0408735
0.0399972
-0.0777066
-0.0332646
-0.105167
0.0287515
0.0364714
-0.0264108
-0.0494626
0.0289637
0.0373824
0.0443043
-0.0289533
-0.0313942
-0.028106
0.00565495
-0.116579
0.00868887
-0.0964071
-0.0725974
0.0165669
-0.0700232
-0.107704
-0.0481646
-0.0106071
-0.0530137
0.000117511
-0.00470384
-0.00460276
0.0505766
0.0661844
-0.0196113
0.0377669
-0.068786
-0.0709767
-0.0115529
0.011292
0.00932866
0.0062332
0.00967187
-0.0507783
-0.0863265
-0.0984685
-0.0181392
-0.0596121
-0.00642946
0.0243507
-0.0797829
-0.0754638
-0.0490181
0.0676628
-0.0423791
-0.114254
-0.0503243
0.0403645
-0.0843412
0.0460217
0.000289809
-0.0878184
-0.0956108
0.0437775
-0.0113334
-0.00838398
-0.053018
0.0662461
-0.0858602
-0.00810848
-0.0490493
-0.0482259
-0.0500879
0.0208853
-0.010122
0.020084
0.0399119
0.0052854
0.0542394
-0.0723158
-0.0370726
0.0242132
-0.119584
-0.00801595
-0.00629311
-0.0741464
0.0669794
-0.0336343
0.0114143
-0.0995434
-0.118453
-0.113064
0.0348318
0.0618162
-0.0248881
0.0406204
-0.0694617
-0.0513498
0.0385024
0.0149753
-0.04309
0.0429722
-0.0893344
0.0440927
0.123284
0.160133
0.0448554
0.0597649
0.132354
0.0245449
0.0907377
0.0179285
0.0515009
0.0457531
0.11744
0.188409
0.0214191
0.0725658
0.186732
0.109619
0.121589
0.129355
0.100275
0.0510209
0.0655726
0.133118
0.0180978
0.083899
0.0492098
0.154913
0.122928
0.149606
0.115677
0.160497
0.157255
0.0539164
0.160737
0.187508
0.142717
0.0887483
0.0254386
0.0644059
-0.288703
-0.0852914
0.0142675
-0.115759
-0.12398
-0.104309
-0.0987958
0.0414887
0.0656861
0.0303656
0.0337284
-0.0952821
-0.0797906
0.0248091
-0.0194439
0.0737886
-0.122919
-0.103041
0.0123327
-0.0390013
-0.0688637
-0.117471
-0.026847
-0.103567
0.0338436
-0.0364974
-0.0637178
-0.0726604
-0.0796244
-0.0876009
-0.0938492
-0.0628703
-0.119276
-0.101254
0.0387914
-0.0649187
0.00838351
-0.120837
-0.049962
-0.0128008
-0.059687
-0.102047
0.0265819
0.0582155
-0.0812952
-0.101333
0.0385807
0.0403141
-0.112619
0.0693316
0.0183143
0.0135399
-0.0467784
0.0238533
-0.122006
-0.124612
-0.0321109
0.0290726
0.000115946
-0.0343068
-0.0131331
0.0330939
-0.0357132
-0.0540967
0.0566787
-0.00775757
-0.00659386
-0.0205215
-0.0201527
-0.123269
-0.105178
-0.0302566
0.0617908
0.0303058
-0.10092
-0.0410164
-0.0125953
-0.0890616
-0.0226476
-0.0570559
-0.0107768
-0.0220786
-0.0758744
-0.029863
-0.0829383
-0.10382
0.0417838
-0.00846942
0.063664
0.0384647
-0.0295677
-0.0306355
-0.0614582
-0.0714446
-0.0974277
0.0124391
-0.0132973
0.0509802
0.0242971
-0.0580468
-0.0588756
-0.0742245
-0.0144362
0.0744517
0.060304
-0.0347376
-0.00876464
-0.0843578
-0.00648914
-0.107217
-0.0423977
-0.0521097
-0.0151907
-0.0153327
-0.0796768
-0.0625097
0.0308405
-0.113574
-0.0343471
0.0562072
-0.0727732
0.0107089
-0.0508487
-0.00632424
-0.0954104
0.015605
0.0610682
-0.0548441
0.0146542
-0.0416834
-0.0933278
-0.0963986
0.0128826
-0.0533189
-0.0703372
-0.0169666
-0.0539283
0.0365274
-0.103411
-0.0467296
-0.040399
-0.0664179
0.00880625
-0.0372024
-0.0113042
-0.104604
0.0360709
-0.0454636
0.0128149
-0.124293
-0.0250888
-0.104099
0.0102272
-0.0368876
-0.0946034
0.0435259
0.00567327
0.0579512
-0.0019635
-0.0842294
-0.0739735
-0.11808
0.0176595
0.0248131
-0.0250163
0.0396243
-0.0151931
-0.0788666
-0.0138882
-0.0422912
0.0545093
-0.0918104
-0.0213339
-0.103866
-0.0676151
-0.120609
-0.031702
0.0299813
-0.0140151
-0.0276918
-0.10091
-0.0371574
0.0272782
0.0147671
0.0402531
0.0697889
0.0190677
0.0515698
-0.107406
-0.100294
0.00323537
-0.0751558
-0.0132497
0.0606382
-0.0105478
-0.0866191
-0.0471832
-0.122924
0.0100443
-0.111077
-0.114104
0.0157027
-0.0165239
-0.0958069
-0.0754388
0.0318649
-0.0766508
0.0418379
0.00204039
-0.0445143
-0.0617416
0.0457475
-0.0219096
0.0419012
0.0149483
-0.0926672
-0.0898364
-0.106847
0.0364308
-0.0466342
-0.0888977
-0.0958492
0.0498898
0.0285717
-0.0625298
-0.0410999
-0.0281253
-0.0823959
0.0619335
-0.118479
-0.0832668
-0.0704133
0.0251462
-0.0949418
0.0338048
-0.0272034
0.0157613
0.015086
-0.0399425
-0.0332139
0.0606653
-0.00366944
0.0424051
-0.0152779
-0.094884
-0.120965
-0.0323682
-0.0977648
0.0147652
0.0664921
-0.0568798
-0.0227162
0.0222577
-0.123104
0.0253436
-0.0350779
-0.0628386
-0.0257165
0.0349169
0.0406963
0.011365
0.112231
0.0360388
0.0594551
0.0269283
0.0111335
0.121051
0.048907
0.0828961
0.173146
0.0224957
0.180971
0.173674
0.129056
0.0492874
0.136192
0.0692764
0.0410588
0.157578
0.0553915
0.0983766
0.144262
0.0572795
-0.000173075
0.0403076
-0.0762079
-0.0926171
-0.0598078
-0.104659
0.0287517
0.0326312
-0.0306919
-0.0370773
-0.0686558
0.0406798
-0.0813301
0.0500573
0.0382599
-0.0870907
-0.085549
-0.123503
-0.0763652
0.0395439
-0.0596707
0.063151
-0.0451497
0.000461355
-0.0407941
-0.0737942
0.00666516
0.00985274
0.0277088
-0.0365064
-0.00669974
-0.0384537
0.0529634
-0.0815516
-0.0109565
-0.0259532
-0.11166
-0.0268271
-0.0117254
0.0410529
-0.108191
-0.0506942
-0.0379121
-0.065133
-0.0926625
0.0456787
0.0323602
-0.0258999
-0.119249
0.035155
0.071085
0.0189013
-0.102873
-0.089529
-0.0926965
0.0067087
-0.0491227
-0.037956
-0.0958246
-0.0564304
0.0468471
-0.091635
0.0685395
0.0332188
-0.0746167
-0.0923745
-0.0934906
-0.000584347
0.0444943
-0.103793
0.0364252
-0.0920858
-0.0710765
-0.120516
0.0589569
0.0240136
0.0215601
0.0679228
-0.113952
0.0316352
-0.0144566
-0.0204662
0.0537271
-0.107605
0.0684436
0.0581239
-0.00535561
0.0745318
0.0311699
-0.088685
-0.124791
-0.0385434
-0.103141
-0.0224217
-0.0383449
0.0358819
-0.0975648
-0.0825604
-0.0222649
0.0243717
-0.120257
0.0267234
-0.0314402
-0.0781664
-0.0376699
0.0166002
0.0644221
0.0708641
-0.0749146
0.0272801
-0.0630132
-0.0145589
-0.0121337
-0.0434323
-0.0799178
-0.0605769
-0.109329
0.00067756
-0.124279
0.0664082
0.0284622
-0.0229353
0.0551103
-0.065894
-0.0982474
-0.0119683
-0.0958769
-0.0347784
-0.0046753
0.0588556
-0.10112
-0.0647957
-0.0742943
0.0133522
-0.0906711
0.00397178
-0.0141659
-0.0273727
-0.109331
-0.083688
0.0483029
-0.0636521
0.0749338
-0.12451
0.0747537
0.00556404
0.0688318
-0.115727
-0.0588147
0.0218961
-0.0189535
-0.0267603
-0.0619609
-0.0939081
-0.102185
0.0207649
0.0362595
-0.0443007
0.0130711
0.039858
0.01041
0.0468049
0.0492677
-0.0382526
0.0376688
-0.0839775
0.0619056
0.00386902
0.0666944
0.0265206
0.0469031
0.00524766
-0.00816954
0.0674063
-0.0357357
-0.0863351
-0.0522118
-0.0593896
-0.00955116
-0.0463765
-0.122757
0.0644998
-0.0135875
-0.0754562
-0.0219836
0.0175094
0.0399395
-0.119576
-0.0766907
-0.0967077
0.0328111
0.0562505
-0.0571981
-0.0350615
0.0498423
-0.0787671
0.0422989
-0.0932861
0.0692252
-0.0514139
0.071337
-0.109546
0.034039
-0.0171976
0.023895
0.0496507
-0.0552066
-0.0550633
-0.0197926
-0.0166042
-0.0396765
-0.055603
-0.0128801
0.0700552
-0.0800974
0.0184175
-0.0867681
0.0445067
-0.0866146
-0.0716108
-0.110188
0.0202196
-0.119722
-0.068086
0.0701682
-0.0489987
-0.00752503
0.0642641
-0.0573561
-0.0306428
0.028713
-0.013176
-0.0491047
0.0131871
-0.0625287
-0.0549942
-0.0972251
0.0386755
0.0190283
0.0162955
0.122553
0.144729
0.155888
0.109563
0.12619
0.183223
0.0938566
0.124004
0.132625
0.0936165
0.121296
0.0712329
0.136153
0.093146
0.111009
0.132247
0.0380418
0.0212321
0.140998
0.112283
0.0789474
0.0674865
0.147015
0.186834
0.090247
0.791198
0.00199995
-0.071959
-0.0621987
-0.0937243
0.0565214
-0.00961949
-0.056969
-0.0725547
-0.047251
-0.00142711
-0.0875232
-0.0057232
-0.00497253
-0.0129558
-0.0768647
-0.0567159
-0.106517
0.054543
0.0175465
0.0215216
-0.11829
0.0569371
-0.107104
-0.0587331
-0.117623
-0.101856
-0.0376671
-0.0755186
0.0469484
0.0663863
0.0416323
-0.00444113
-0.0122961
-0.032334
0.0350491
-0.00617135
-0.0693458
0.0204156
-0.117973
-0.0915151
-0.0521931
-0.108068
-0.0603758
-0.0307931
0.0365863
-0.0164763
-0.104187
-0.0376349
-0.0830046
-0.0832074
0.0166752
-0.105193
-0.0054428
0.0532673
-0.0169898
0.0243905
0.0253771
0.0141024
-0.00771784
-0.0934625
-0.0621517
-0.00532308
-0.10575
-0.113022
-0.118614
0.00701098
0.0273681
0.0708972
-0.108325
0.0129036
-0.063599
-0.082327
-0.0539814
-0.0610454
0.0271033
-0.0643424
0.0654642
-0.0898736
-0.015982
-0.123406
-0.104654
-0.00736786
0.0493791
-0.0841543
-0.119069
0.0128283
0.0109292
0.00427131
0.0417613
-0.0492157
-0.121489
0.0323111
-0.0164515
-0.0678535
-0.101416
-0.0887258
-0.0833974
-0.0076565
-0.017176
-0.0188775
0.0143765
0.0408286
0.0661001
-0.0116711
-0.0386217
0.0418141
-0.0916751
0.0745616
-0.114615
-0.0990929
0.0423138
-0.0332058
-0.0812442
0.0646872
-0.1161
0.0293039
0.0139635
-0.0830283
-0.117117
0.000700414
0.0372519
-0.0430722
0.0303375
-0.0810085
-0.0666379
-0.0026716
-0.0746074
0.00825431
0.0224375
-0.119934
-0.038873
-0.0858054
0.0649217
-0.121116
-0.00274719
0.0676971
0.000345027
-0.0099541
-0.114054
-0.00930306
-0.0591568
0.069762
-0.0947047
-0.0671132
-0.112431
0.020595
-0.102445
0.0711094
-0.01147
0.0242413
-0.0496387
0.0400529
-0.0326907
-0.11111
0.00973553
-0.0741697
0.0417591
-0.0915642
-0.0149552
-0.0792099
-0.110626
0.028403
-0.0231828
0.0625552
0.0496104
-0.0734757
0.0342905
0.0205082
-0.117893
-0.104489
0.0139096
-0.0974224
0.0433489
-0.0780882
-0.124716
-0.113159
-0.0384717
-0.0685964
-0.119203
0.0609891
-0.00228366
-0.0822707
-0.0246476
-0.0215523
-0.118626
-0.0846553
-0.0189764
-0.0168258
-0.0360924
-0.0463551
-0.0544231
0.0515743
0.058038
-0.0458873
-0.068959
0.0717371
-0.0419387
-0.10835
0.0280255
-0.116536
0.0368541
-0.121509
0.0662087
-0.000651238
-0.0680052
0.0589716
-0.0623432
-0.0628268
-0.122167
-0.0852511
0.0421109
-0.0669214
0.0445582
0.0577741
-0.115732
0.0221591
-0.0779531
-0.0271772
-0.0614564
0.0691599
-0.122068
0.0560156
-0.0621359
-0.0254219
-0.0614392
-0.104619
-0.0668919
-0.0545642
-0.0662749
-0.029085
0.0674041
-0.119083
0.0295176
0.0201913
-0.0997387
-0.0609152
-0.0421312
0.0571903
0.0604097
0.0421944
-0.0527274
-0.0912772
-0.0174712
-0.0160867
-0.0383755
0.0671873
0.0650032
0.0519553
0.0487812
-0.102649
-0.0621824
-0.0405963
0.0907421
0.173527
0.0260332
0.153366
0.152188
0.176788
0.0713037
0.127876
0.0366272
0.0715698
0.187656
0.129533
0.055766
0.122035
0.131689
0.112938
0.0492601
0.11893
0.108399
0.1648
0.129321
0.0865409
0.0888116
0.0392966
0.0703644
0.113521
0.0418718
0.0886891
0.129358
0.165232
0.141741
0.0568579
0.130565
0.054256
0.142559
0.0972342
0.0810012
0.0129094
-0.0266358
-0.0254442
-0.032362
-0.0567432
-0.0233932
-0.088091
-0.0596842
-0.0494528
0.00977742
-0.109925
-0.104445
-0.0423437
-0.0391678
-0.0502618
0.0326638
-0.0940226
0.045077
-0.0867267
-0.119785
0.0428088
0.0260931
0.0454184
0.0150774
0.0572982
0.025356
-0.0769843
0.0588338
-0.0663583
0.02737
0.0328811
0.0270844
-0.0582935
-0.11091
0.0276086
-0.0439307
-0.0915233
-0.0113105
-0.00180535
-0.0780031
-0.122235
-0.0673443
0.0372028
-0.121359
-0.0799662
0.0631807
-0.020628
-0.0202537
-0.0908925
0.0452216
-0.0693374
-0.0626507
-0.0140978
-0.0544023
0.0423864
0.0294627
-0.000197882
0.0108729
0.0395614
0.0194824
-0.00576681
0.0252716
-0.0588787
-0.0989485
0.0401413
-0.0990164
0.0300637
-0.0997612
-0.0771825
-0.0466045
0.022801
-0.0236694
0.0120902
-0.105819
-0.106825
0.0411697
-0.0706825
-0.0832178
0.0544344
0.0484835
0.0704367
-0.0090388
0.00123113
-0.0580433
0.0180056
-0.106315
-0.0611995
-0.0364017
-0.0627368
-0.0758388
-0.00631031
-0.0337637
-0.0926893
-0.084922
-0.124741
-0.0226115
-0.00376146
0.0465522
-0.106023
-0.11869
0.0569094
0.0230092
0.0736264
-0.0127792
-0.0568028
-0.0771224
0.0214004
-0.0650982
-0.0119591
-0.0896776
0.0332167
-0.0889351
-0.00761863
0.022056
-0.104767
-0.108698
-0.0435094
-0.0885213
0.00332183
-0.0750434
-0.0335188
0.0158706
-0.0292487
0.00263348
0.0259279
0.0143164
