1431655766
240740
1
0
0.789085
0.0148661
0.79414
-0.601473
-0.591141
0.524087
0.940418
-0.945925
0.712166
0.924821
-0.0456639
0.553286
0.123024
-0.719421
0.772311
-0.453142
-0.314261
-0.509255
0.934073
-0.53638
-0.959554
0.969429
-0.615554
-0.476844
0.104474
0.769369
0.98841
-0.262401
-0.140277
0.257189
-0.773216
-0.759957
-0.336098
0.676133
-0.293647
0.626018
-0.743234
-0.0462703
-0.490475
0.0266693
0.295009
-0.0652914
-0.910975
-0.6269
0.588883
-0.490371
-0.0215669
0.692425
0.778779
-0.310416
-0.333431
-0.364689
0.810895
-0.974593
0.730871
-0.983706
-0.140843
0.520792
0.93167
0.602372
-0.811706
0.633762
-0.843892
0.268891
-0.465804
-0.452885
0.619545
-0.0825319
-0.152455
0.719452
0.866656
0.0877987
0.441461
-0.93612
-0.821299
0.269012
-0.27879
0.857516
-0.166902
-0.291551
0.552588
0.733703
-0.846285
0.614245
-0.974343
0.579021
-0.156924
-0.453029
0.753241
-0.266658
0.140734
0.395326
-0.948325
-0.885464
0.875811
0.438018
0.308521
-0.542967
0.478363
0.821445
-0.24658
0.119061
0.0167222
0.449783
-0.29978
-0.613502
0.901051
-0.68408
-0.611318
-0.951846
-0.867577
-0.870005
-0.12887
0.560057
-0.990972
-0.43491
0.293527
-0.666499
0.684579
0.280875
-0.477032
0.708036
0.598333
0.256227
0.766984
0.797208
0.781799
0.917656
-0.211729
0.568938
0.646387
0.554581
0.996483
-0.152408
0.851956
-0.0656076
0.332977
0.160612
-0.936967
-0.35495
0.972354
-0.0847152
0.163012
-0.817539
0.745217
0.852918
0.193941
-0.748117
0.419778
0.316949
0.828662
0.161266
-0.0728253
-0.0268574
0.502687
-0.049829
0.919123
0.274954
0.90576
-0.672684
0.130701
-0.627301
-0.140201
0.295827
0.590738
0.174858
-0.27625
0.146979
-0.736302
-0.106596
0.431506
0.326096
-0.0122069
0.308544
0.681998
0.44986
-0.856884
-0.00611449
-0.712116
-0.179435
0.170866
0.329417
0.409118
-0.61611
0.481729
0.931459
0.53953
0.863
0.330558
0.437028
-0.600892
-0.670156
-0.430306
0.842044
0.0638733
-0.292737
0.779477
-0.0879376
0.0223092
0.502175
0.848215
-0.179502
0.696671
0.725922
-0.347481
0.038591
-0.845106
-0.35535
-0.128532
-0.324035
0.141177
-0.691925
0.234458
0.679055
0.578803
-0.776547
0.514277
-0.578348
-0.213037
0.973291
0.476428
0.80842
0.774748
-0.172965
0.706835
0.755664
0.132277
0.681475
0.967949
-0.832521
0.764113
0.101149
0.46413
0.799331
-0.431682
-0.656171
0.398763
-0.138699
0.251264
-0.520866
0.526526
0.341762
0.181703
-0.0892658
-0.121995
0.374763
-0.792681
0.476012
-0.788334
-0.460692
-0.806337
0.253111
0.800903
0.344949
0.428577
0.906647
0.756816
0.372803
-0.817617
0.469178
-0.684507
0.351358
-0.108814
0.18719
-0.539573
-0.0789653
0.616588
-0.995101
0.123385
0.331536
0.50102
-0.401801
-0.361575
-0.484307
-0.674616
0.478584
0.782821
-0.216823
0.603238
-0.301342
0.666844
0.953523
0.298169
-0.953406
-0.667915
0.743146
0.269197
-0.212782
0.49199
0.0590682
0.13039
-0.505829
-0.888711
0.23816
-0.791128
-0.64579
-0.90772
-0.308962
0.709695
-0.424602
-0.759185
-0.367991
-0.28712
0.791607
-0.145036
-0.850613
0.0592976
0.2532
-0.947356
-0.375753
0.00674769
-0.713736
-0.42493
-0.948476
-0.609885
-0.82019
0.92115
-0.952114
0.191068
-0.957483
-0.159463
-0.0800899
0.360531
-0.989982
0.402843
-0.931316
0.544696
0.76338
-0.063339
0.959609
-0.697614
-0.0459751
-0.630048
-0.0937908
0.384179
-0.334678
0.0846127
0.803205
-0.255939
-0.64636
0.910596
0.776941
0.901088
0.209777
-0.177075
0.361811
0.946298
0.00503098
0.168709
-0.597768
-0.560017
-0.794742
-0.352515
-0.655257
0.363665
-0.54681
-0.990231
-0.870943
-0.466783
0.967162
0.644722
0.496733
-0.0456836
0.547718
0.423759
-0.520976
0.674825
0.818017
0.784298
-0.849588
0.0830054
-0.823494
0.914701
-0.22877
0.294258
0.369179
-0.218228
0.303094
0.397029
0.283314
-0.223532
-0.642899
-0.318285
-0.25437
0.998338
-0.899247
0.502083
0.0272349
-0.882502
-0.0395536
-0.279622
0.198795
0.713881
-0.651624
0.52475
0.256458
-0.227597
-0.366479
-0.803162
-0.602067
0.291226
0.464732
0.720627
-0.654289
-0.173637
-0.0800109
0.189536
-0.901073
-0.756385
0.160918
0.17184
0.88622
0.37859
-0.0417569
-0.423952
0.859937
-0.975929
0.0458556
-0.685011
0.718951
-0.615965
-0.536389
-0.946437
0.00663662
0.474454
0.348267
-0.449692
-0.633607
0.937897
0.795578
0.232916
-0.85458
0.303653
-0.00654218
-0.494902
-0.954941
0.20539
0.646205
0.345062
0.181192
-0.291491
-0.615406
-0.340736
0.130348
-0.650384
0.278527
-0.110122
0.017041
-0.692317
-0.588048
0.988043
-0.802629
-0.726732
-0.301229
0.160707
-0.103686
0.927853
-0.550011
-0.963227
-0.424215
-0.234696
-0.33617
-0.00593191
-0.306705
0.463225
-0.599129
0.414842
-0.266362
0.731593
0.00549814
-0.677514
0.36692
-0.976463
0.204452
0.08068
0.744682
-0.411053
-0.60446
0.149374
0.262627
-0.107683
-0.341489
-0.663406
0.986967
-0.404435
0.614843
0.380779
-0.581528
-0.0193172
0.436344
-0.120614
0.664967
0.153755
-0.929496
0.284922
0.916303
0.125004
-0.961124
-0.718024
0.149173
0.244025
0.252939
-0.596044
0.824669
0.4047
-0.626647
-0.430596
-0.721791
-0.529252
-0.718102
0.814504
-0.168801
-0.718727
-0.109063
0.896457
0.855215
0.175248
-0.609395
-0.930379
-0.190509
0.637609
-0.735631
0.107276
0.41068
-0.768146
0.764521
0.0740804
0.996386
-0.209398
0.712288
-0.253458
0.382991
-0.736693
0.560275
-0.488718
0.32246
-0.422556
-0.377719
-0.595192
-0.583315
0.295589
-0.362698
0.336494
-0.907203
0.216335
-0.302427
-0.117628
-0.8243
0.874209
0.747597
-0.943792
0.56866
0.175553
0.971424
0.642484
0.578669
-0.771566
0.454415
-0.219008
-0.833348
-0.619453
0.464915
0.0734656
0.685548
0.196907
0.888606
0.369255
0.970523
0.746887
-0.992021
0.190667
0.599678
0.317543
-0.398317
0.371982
0.0417421
-0.752353
-0.199873
0.583009
-0.303407
-0.263457
0.237621
-0.0564977
0.61851
-0.493027
-0.343489
0.645186
0.250716
-0.594155
-0.479264
0.400999
-0.29111
-0.742699
0.566572
0.435438
-0.896729
-0.584768
-0.855062
0.695499
-0.187762
0.905887
-0.813331
0.860116
-0.600413
-0.755156
0.549995
-0.300316
-0.455853
0.927028
-0.805263
-0.689883
-0.378825
-0.774294
0.283367
-0.0770623
0.793632
0.829535
0.0541448
-0.639442
-0.852248
0.560432
-0.328461
0.0316073
0.707282
0.0447474
-0.33442
0.693928
-0.593351
0.883125
0.862691
-0.617431
-0.726349
0.238553
-0.370075
0.0182405
-0.698205
-0.472972
-0.0470848
-0.329276
0.572138
0.27161
0.401712
-0.574416
-0.938245
-0.579629
0.871099
0.746165
-0.14584
-0.684855
-0.518079
-0.627251
-0.0939623
0.845354
0.972963
-0.325698
-0.459594
0.475421
0.980482
-0.735521
0.00118229
0.172134
0.882661
0.192349
0.9465
0.688168
-0.626977
-0.518803
0.0628789
0.119158
-0.979295
-0.141892
-0.909611
0.614966
0.0830204
0.616886
0.657654
-0.906894
-0.530096
0.392103
-0.71167
0.806778
0.639652
0.679156
-0.232588
-0.273793
0.356373
0.981682
0.412308
-0.504451
0.593311
-0.947683
-0.497602
0.855593
0.760556
0.645761
0.660295
-0.967058
0.11486
-0.864351
0.982892
0.87885
-0.676368
0.15151
-0.518278
0.216063
0.261347
-0.257147
0.357246
-0.328141
-0.822489
0.429306
-0.0959125
0.52314
0.260061
0.585022
0.683602
-0.930532
-0.397938
0.949899
0.922624
-0.372097
0.844434
-0.541731
0.884061
-0.02508
0.286514
0.901091
0.107784
-0.156537
-0.530436
-0.330572
0.118516
-0.908298
0.596129
-0.611042
0.297376
-0.488236
0.626023
-0.859288
0.249744
0.364067
-0.915742
0.0926577
-0.92636
-0.790231
-0.228878
0.611044
0.418335
0.834593
0.363747
-0.20048
0.55642
0.675779
0.59247
-0.171057
-0.545004
0.83561
-0.241705
0.41864
0.067794
0.173557
0.704572
0.768853
-0.682964
-0.750606
-0.343922
0.274482
-0.115664
-0.167326
-0.18731
0.528647
-0.842366
-0.753023
0.484725
0.914036
0.941274
0.583836
-0.33392
0.849484
0.065049
0.561061
-0.926153
-0.715742
0.343092
0.929237
0.184927
-0.0053766
0.733543
0.420765
0.0482357
-0.275541
-0.384794
0.516525
0.553537
0.217999
0.189136
-0.839263
0.334319
-0.881349
-0.226076
-0.974072
-0.956978
0.859945
0.617123
0.214401
0.864395
-0.234213
0.496985
-0.766321
0.859924
-0.773359
-0.675388
-0.289126
-0.872352
0.0512036
-0.055476
0.280822
-0.587066
0.841472
-0.0798107
0.217379
-0.656132
0.84047
-0.889565
-0.844959
-0.951942
-0.599368
0.904121
0.303711
-0.274713
-0.332764
-0.0233773
-0.815837
0.523284
0.821956
-0.963658
0.552611
0.543859
-0.75043
0.19777
-0.056518
0.277017
-0.854906
-0.914191
-0.600353
0.535794
-0.355348
0.561782
-0.60491
0.89024
0.722788
0.863625
0.758472
0.552102
0.439597
-0.94883
0.305903
-0.949434
-0.862853
0.80367
-0.227903
0.303334
0.776561
0.973208
-0.967906
0.79706
0.581464
0.778284
-0.771908
0.548707
0.723182
0.33178
-0.388854
-0.142111
0.067251
-0.677084
-0.814634
-0.855804
-0.475216
-0.618605
-0.231221
-0.511405
0.747819
-0.00756745
0.18247
0.991176
0.612682
-0.866044
-0.0735108
-0.623053
-0.106144
0.183149
0.0321301
-0.883367
-0.106694
-0.518584
-0.413518
0.901076
-0.386891
-0.571556
-0.346046
0.867896
0.805749
-0.447446
-0.42572
0.310764
0.275418
0.91217
0.657069
-0.480656
0.910741
0.939672
-0.46469
0.247484
-0.214025
-0.25712
0.456663
-0.534568
0.361948
0.511091
-0.189723
-0.573029
0.343843
0.393233
-0.406785
0.6139
0.510863
-0.332087
-0.644827
0.278834
0.129387
-0.367234
0.620416
0.594921
-0.890526
-0.891423
0.725252
0.870897
0.483434
0.268545
0.437596
-0.0335609
-0.899728
0.432336
-0.691647
0.541665
-0.4274
-0.94297
0.264711
-0.277111
0.821034
0.242838
0.971427
0.32254
-0.720623
-0.738157
-0.407295
0.103931
0.60226
0.805588
0.0751932
-0.547937
-0.8878
0.505913
-0.14222
0.389347
0.9518
0.197956
-0.231856
0.415301
0.0677235
-0.700135
-0.197154
-0.399604
0.680332
-0.734069
-0.0305328
-0.935544
-0.493475
0.916307
-0.0488365
-0.441781
-0.704358
-0.798411
0.944944
-0.681572
-0.446257
-0.124113
0.836396
-0.705262
0.847942
-0.970355
0.376152
-0.0100871
0.449975
-0.0540237
-0.390161
0.952875
0.195878
0.771056
0.439538
0.147715
0.499828
-0.457233
-0.800886
0.500401
0.029272
0.727847
0.775758
-0.93526
-0.278755
0.00788408
-0.845493
0.772379
0.723063
0.466424
0.631476
0.616802
0.132725
-0.692494
0.446362
-0.496855
-0.215265
0.930337
-0.381954
-0.334733
-0.00366048
0.652348
0.50268
-0.543945
-0.590563
-0.923655
-0.513478
-0.939929
0.617714
0.405999
0.512344
0.0189571
-0.0285225
0.703053
0.336082
-0.184348
0.149781
-0.169253
-0.181719
-0.294335
0.157821
-0.27076
-0.247032
-0.259123
-0.744629
0.71417
0.086142
0.888413
0.888662
-0.920573
0.519672
-0.654958
0.45437
-0.273602
0.857957
-0.216405
0.172116
-0.452905
-0.260859
0.195532
0.514396
0.477112
0.086513
0.222821
-0.395491
0.531372
-0.513622
0.0687794
-0.660348
-0.327032
0.295059
-0.936403
0.354715
0.380902
0.42988
-0.785379
-0.529199
0.520281
-0.88175
0.22871
-0.839584
0.228963
-0.742072
0.845222
-0.470581
0.57446
0.154088
-0.689341
-0.883845
-0.33315
0.199837
0.563215
0.723799
0.606796
0.292923
-0.562777
-0.152538
-0.622121
0.44984
-0.140267
-0.121452
-0.259138
0.988435
-0.333434
-0.957689
0.942286
0.88137
0.0415319
-0.641326
0.104939
-0.703185
-0.435018
0.250619
-0.576328
-0.917942
0.987405
-0.270507
-0.446508
-0.0657855
-0.182288
0.36444
0.0605465
-0.55512
-0.012384
-0.973028
-0.370118
0.0888566
0.732984
0.255966
0.411909
0.818427
-0.413913
-0.891255
-0.125866
0.27301
0.32172
-0.322597
-0.356313
0.0493781
-0.176401
0.714309
0.823727
-0.888611
-0.729903
0.716238
-0.706733
-0.357186
-0.428732
0.583569
0.612
-0.363657
-0.430554
0.851364
0.812205
-0.278893
-0.252903
0.266115
-0.0620826
-0.603457
0.827703
0.970004
0.462639
0.47968
0.124384
-0.900668
-0.637407
0.484683
-0.641085
-0.417719
-0.269213
-0.581975
-0.830679
-0.758379
-0.617933
0.451073
0.0320694
-0.090198
-0.678697
-0.233068
0.886109
0.617734
-0.467465
0.993796
-0.44224
-0.473494
-0.990824
0.737973
0.00144005
0.166415
-0.0966998
0.302439
0.401001
0.794535
0.151231
0.488852
0.9862
0.876256
0.864421
0.981263
-0.941305
0.830727
0.464806
0.497185
-0.97168
-0.60921
-0.24614
0.560131
0.588954
0.751331
0.501438
0.0905972
0.676921
-0.238557
0.0891328
0.77575
0.00597163
0.908801
-0.558888
0.512957
0.154921
-0.991541
0.1657
0.154971
0.0768198
0.823831
0.412939
-0.500466
0.886355
-0.486722
-0.0898271
-0.573983
-0.726613
0.376526
0.321311
-0.956504
0.688183
0.489837
0.88217
0.289317
0.486848
-0.647924
0.633715
-0.494781
0.65616
-0.843339
-0.522274
-0.0739896
-0.520572
0.454071
-0.282601
0.956567
-0.235941
-0.870324
0.2519
0.705675
-0.986314
0.301853
-0.266735
0.0153464
0.460515
0.111716
-0.137883
-0.396613
-0.774246
-0.249387
-0.277701
-0.236998
-0.622219
0.433236
0.29196
0.0802961
0.420366
-0.492341
0.709304
-0.0109659
0.159312
0.289756
0.735863
0.738581
-0.860732
-0.534405
0.400663
0.968484
0.368147
0.625062
0.808323
-0.0692204
0.0909779
0.432861
0.367299
0.254252
-0.54436
0.525222
-0.413024
-0.314886
-0.671331
-0.985579
-0.519034
0.553876
-0.149829
0.716978
-0.592915
-0.197395
-0.0757126
0.280066
-0.18855
-0.339186
0.368051
0.305107
0.295671
-0.211633
0.310839
0.555153
-0.805793
0.623145
0.353906
0.236836
0.466744
0.398659
-0.548891
0.178286
0.242439
-0.141995
0.225403
0.147433
0.394788
0.0168763
0.039903
-0.607224
0.70453
0.75796
-0.572736
-0.780398
0.641842
-0.184183
-0.941756
-0.326562
0.757253
0.485909
0.192097
0.480329
0.834247
-0.279783
0.171752
-0.262424
-0.922924
0.118009
0.96063
-0.43767
0.968306
0.552643
0.701804
0.248753
-0.653612
-0.930514
0.831533
-0.626708
0.569839
0.427535
-0.803138
-0.205777
0.228375
-0.173888
-0.00890596
-0.655411
0.140774
-0.547732
-0.00728104
-0.898339
0.783766
0.404484
0.715567
-0.0278216
0.796672
0.100791
0.574204
0.658094
-0.195395
-0.322816
-0.755887
0.215913
0.0322348
-0.755482
0.0372574
0.9037
-0.395347
0.72422
0.587824
0.989492
0.147585
-0.243217
0.499071
-0.00458804
0.433004
-0.289888
0.170404
0.45182
-0.973707
0.851342
-0.0846412
-0.229977
0.866907
0.436317
0.0886373
0.101534
0.676834
0.871996
0.437621
-0.0162373
0.291782
-0.318386
-0.264105
0.779983
-0.767639
0.119606
-0.820401
0.165066
-0.109137
-0.281551
0.549455
0.603977
0.949378
0.48436
0.0609663
-0.510452
0.44381
-0.0188693
0.722541
0.578098
0.154109
-0.854672
0.257596
-0.0290731
0.673171
-0.237846
-0.135481
0.177425
-0.94394
-0.594031
0.711604
-0.976156
0.95894
0.879426
0.0258289
-0.20219
0.545019
-0.118538
0.853393
-0.859327
-0.554964
-0.830107
0.95378
-0.0523825
-0.885485
0.875009
-0.53918
0.0350085
0.998903
-0.286345
0.674761
0.110668
0.446727
-0.623521
-0.00316592
-0.758414
0.293666
0.144174
-0.218364
-0.218255
-0.139863
-0.600433
0.161642
0.9092
0.124832
0.483166
-0.298741
-0.328145
-0.961312
-0.0765884
0.239726
-0.195867
-0.412151
0.773808
0.758386
-0.430539
0.21632
-0.54694
-0.260126
0.305099
-0.348608
0.988264
-0.137386
-0.723715
-0.233838
0.31326
-0.512239
0.747454
-0.251732
0.713993
0.147782
-0.00822746
-0.936637
0.61072
-0.0571468
0.210475
0.203096
-0.374753
-0.393891
0.225367
0.34403
0.833142
0.13057
0.327842
0.325672
0.810612
0.784769
-0.916649
-0.0512504
-0.350927
0.512283
-0.749687
0.821208
-0.345572
0.950472
0.607064
0.817709
-0.36922
-0.640155
0.500859
-0.196603
-0.840673
-0.221962
-0.268108
0.395436
0.343106
-0.241971
0.136401
0.143512
0.349138
-0.418203
-0.608489
-0.793309
-0.475577
-0.772667
-0.633404
0.148531
-0.294184
-0.615907
-0.690565
-0.718944
0.931527
0.141324
0.578949
-0.366476
0.471026
0.703014
0.0999916
0.332303
-0.17148
0.606759
0.580864
-0.661684
-0.917535
-0.158116
-0.556547
-0.860391
0.0704208
0.281427
-0.206937
-0.66429
0.0169598
0.675954
0.30509
-0.0687752
0.265447
-0.276256
0.115147
-0.411689
-0.123187
-0.542925
0.435526
0.737205
0.595631
-0.700187
-0.76712
-0.866746
0.682853
0.995089
-0.280164
0.656336
0.53361
0.417776
-0.751877
-0.49108
-0.972924
-0.27499
-0.664594
-0.226595
0.914162
-0.0840577
0.686169
0.984968
-0.0102818
-0.368012
0.133654
-0.93354
-0.397768
-0.199698
-0.828447
0.916811
0.540067
-0.218565
-0.821704
0.0597536
0.344926
-0.791311
-0.63777
0.117878
0.517265
-0.710431
0.952915
-0.793446
-0.696866
-0.527003
-0.906619
-0.47218
0.2268
0.970045
-0.606853
0.0270271
-0.770856
0.457473
0.105879
-0.347935
0.190355
0.605208
0.603931
0.879923
-0.710167
0.970282
0.220824
-0.742129
0.65112
0.815914
-0.110217
-0.0872054
-0.869295
-0.0228328
-0.629645
-0.365673
0.06363
0.84175
0.556177
-0.785989
0.934251
0.590142
0.506285
0.358503
0.986656
0.193863
-0.167318
-0.519169
0.946818
-0.63915
0.0819418
-0.0427995
0.549611
-0.894486
-0.776431
0.621328
0.231371
-0.722689
-0.461103
0.11355
0.977403
-0.0191461
0.609205
0.623958
-0.750762
0.0444457
-0.970865
-0.639555
-0.860062
-0.464397
-0.369677
-0.498395
0.757093
0.282127
-0.277101
-0.535495
-0.67646
0.697267
-0.0185646
-0.999897
-0.298137
-0.323591
-0.392666
0.909149
-0.552027
0.334697
-0.833354
0.198186
0.57513
0.424868
-0.655505
0.316911
0.304377
0.303864
-0.584662
-0.9399
0.965478
0.696816
-0.277017
-0.335412
-0.67254
-0.0838003
-0.985096
0.115922
-0.916399
-0.414321
0.310841
0.643173
0.626868
0.481894
0.756256
-0.283623
0.919456
-0.436137
0.173666
0.243097
0.631429
0.360785
0.741998
0.0437402
-0.0978674
-0.0820995
0.275116
0.805801
-0.676342
0.771408
-0.789107
-0.407238
-0.0256728
0.782603
-0.156668
0.412786
0.614135
0.985695
-0.879867
0.415612
-0.77811
-0.698867
-0.0190978
0.844628
0.790132
-0.523725
0.627326
-0.932559
0.239891
-0.0913935
0.102685
0.766266
-0.829838
-0.914698
0.326992
0.894202
-0.729827
-0.229939
0.404895
-0.718797
0.105851
-0.651847
-0.878244
0.0720007
0.811401
-0.000693442
0.50054
-0.453911
0.294829
-0.267674
-0.0536752
0.637258
-0.118915
-0.556608
0.600418
-0.251518
0.00308281
-0.258705
0.212702
0.639619
0.400118
0.538119
-0.824487
-0.575591
-0.757514
-0.414952
-0.191983
0.504552
-0.726147
0.0232349
-0.094193
0.828671
0.208992
0.433488
-0.248295
-0.289789
-0.340222
-0.848348
0.902113
-0.13031
-0.640764
0.145809
-0.793307
0.963186
-0.359656
0.435221
0.681725
0.981989
0.388046
0.808446
-0.560395
0.200347
0.0605476
0.94032
0.185293
-0.76675
-0.933335
0.416117
0.53793
-0.0509227
-0.356653
-0.320311
0.241468
0.949206
0.411203
0.594958
0.217447
0.845754
0.662033
0.742675
-0.682468
-0.811525
-0.0268626
-0.606326
-0.108872
-0.557574
0.427193
0.464238
-0.86167
0.510733
0.178449
0.858118
-0.678908
-0.175791
0.636892
0.153765
-0.187505
0.655502
-0.410793
-0.643368
-0.361883
0.0149923
0.242258
-0.312029
-0.52592
0.985101
-0.278761
0.437946
-0.711426
-0.333353
-0.103379
-0.38217
0.129348
0.844191
0.62373
-0.619599
0.556545
-0.893017
-0.715078
0.347725
-0.607369
-0.650373
0.81141
-0.469306
-0.290707
-0.535714
0.67108
0.415658
-0.898215
-0.451808
-0.662782
-0.967701
-0.472877
-0.708635
0.85455
-0.0633756
0.422938
0.366091
-0.196879
0.608183
-0.995922
0.879578
-0.606687
-0.133099
0.985826
-0.677071
-0.0709891
0.689384
-0.656213
-0.716579
-0.570957
0.905244
0.835212
-0.405778
-0.065606
-0.629545
0.0252059
0.968821
0.741229
-0.432328
0.540456
0.680301
-0.324454
0.434822
-0.575237
-0.324167
0.953356
0.760537
-0.744285
0.674501
0.675824
-0.18519
0.92706
-0.234573
-0.675785
0.187706
0.983732
-0.944843
-0.0670771
0.111226
-0.0923068
0.721097
0.0997638
-0.407194
-0.160928
0.635694
0.772334
-0.674075
0.902305
-0.0349414
-0.456806
-0.0893195
-0.780417
0.738415
-0.179285
0.783643
0.26279
-0.410771
-0.758224
-0.898071
-0.573834
-0.555972
0.538642
0.660962
-0.340247
-0.0937862
-0.467156
-0.585214
0.283772
-0.618767
-0.447348
-0.865613
-0.666343
-0.0458533
-0.812301
0.661786
-0.877556
0.905145
-0.484024
0.730364
0.341304
-0.81677
-0.342791
0.716098
-0.329276
-0.290252
-0.603512
-0.592655
0.296245
0.0146991
0.637948
-0.96405
0.196914
0.28877
0.326668
-0.340268
-0.0838349
0.738351
0.235312
0.441559
0.579423
0.340983
-0.550736
0.505839
0.067255
0.302635
-0.419896
0.597526
-0.10439
0.210065
-0.44639
0.606752
0.935014
0.951734
0.397692
-0.30537
0.589237
-0.244173
0.721421
-0.0397588
0.452898
-0.623086
0.733886
0.678514
0.309866
0.672732
-0.312784
0.623644
0.184681
0.0748409
0.809279
-0.961255
0.113213
-0.796729
-0.832689
-0.258096
-0.516675
-0.0565597
-0.196123
0.650245
-0.130294
0.437917
-0.977296
0.79171
0.938655
0.79627
-0.733592
0.450128
0.449152
0.949998
-0.20505
-0.600038
-0.121966
0.439266
-0.202213
-0.163537
-0.46732
-0.617011
0.890505
0.354533
-0.00127253
-0.770894
0.675794
0.591527
-0.251229
0.789359
0.48779
0.497579
0.087579
-0.379657
-0.83191
-0.139393
0.238435
0.0142376
0.102611
0.0764065
-0.776918
-0.891169
-0.576718
0.258437
-0.27473
0.223821
-0.328651
0.824186
-0.143124
0.191869
0.0348331
-0.471134
0.699353
0.797576
0.99769
0.552534
-0.263845
0.490877
0.64017
-0.650627
0.419617
0.234931
0.457501
-0.639705
0.755435
0.0203054
-0.75256
0.850555
-0.902439
0.471293
-0.0322486
-0.302417
-0.484437
0.736873
-0.625062
-0.788257
0.845859
-0.945126
0.39924
-0.52857
0.619821
-0.0338805
-0.456693
-0.702612
0.758621
-0.995073
-0.150794
0.139142
-0.448575
0.0786472
-0.821821
0.714912
-0.164228
0.853676
0.488723
0.307747
-0.646341
-0.123683
0.561027
-0.0967947
0.37222
-0.631687
0.0611105
-0.257353
0.273378
0.549055
0.108551
0.901981
-0.0968313
0.756121
-0.468575
0.88591
0.0304946
0.775825
-0.033977
-0.694288
-0.16983
0.774887
0.873419
0.994339
0.440612
-0.431311
0.667563
-0.42812
-0.551831
0.102442
0.52919
0.282268
-0.170225
-0.255176
-0.203201
-0.553562
0.331805
-0.747968
0.563278
0.688053
-0.531178
-0.809774
-0.0224658
0.671007
-0.356689
-0.878251
0.366846
0.205021
0.246456
-0.843394
0.884892
0.837063
0.228029
-0.731333
0.381283
-0.284403
0.107771
0.439222
0.800633
0.564847
-0.34788
0.670883
0.647944
-0.697608
-0.285679
0.174571
0.821578
0.12914
0.137751
-0.865957
0.836267
-0.0695565
0.536365
-0.664549
-0.463176
-0.806621
-0.766349
-0.915414
0.145139
-0.208084
-0.140503
-0.276373
0.601572
-0.376166
-0.0734114
-0.264406
-0.723944
-0.312813
-0.856001
0.952817
-0.740391
0.527473
0.941649
-0.638826
-0.464961
-0.381823
0.497435
0.0416968
0.704413
0.987195
0.957676
-0.92654
-0.135618
-0.118915
0.155843
-0.0739331
0.31922
0.360713
0.255277
-0.282947
-0.338043
0.119527
-0.183901
0.451277
-0.70072
0.46443
-0.0816851
0.278901
-0.385044
-0.964592
0.421808
0.220454
0.934946
0.481244
0.125793
-0.442657
0.456562
-0.246322
0.577351
0.0510445
0.922092
0.0112776
-0.700412
0.742216
0.548214
-0.801534
-0.850524
0.731613
-0.53322
0.327134
0.914483
-0.971334
-0.50326
0.261884
0.813075
-0.727178
-0.336032
0.600316
0.630481
-0.579531
0.634804
-0.966843
0.307576
0.910941
-0.344554
0.633079
-0.926628
-0.525608
0.124727
-0.0954584
-0.00737248
0.749208
-0.58991
0.460011
-0.931915
-0.104666
0.68989
0.981821
-0.0734642
-0.888193
0.619879
0.0762493
0.420307
0.612662
-0.465413
0.901012
0.138152
0.437189
0.168061
-0.495688
0.445447
-0.748616
0.882308
-0.110773
-0.97729
0.851898
-0.0987942
0.429086
0.359958
0.757509
-0.255917
0.706475
-0.135656
0.44305
0.0247842
-0.289386
0.378616
-0.654887
-0.977328
0.966505
-0.627187
0.687017
0.342309
0.226882
-0.0976901
0.903376
0.865007
-0.741363
-0.180797
-0.506114
0.77096
-0.2961
-0.465537
-0.464971
-0.70555
-0.521168
-0.134857
-0.108361
0.0920097
-0.542064
0.830192
-0.00664397
0.586045
0.827101
0.502363
-0.498966
-0.267761
0.304862
-0.339177
0.443118
0.592122
-0.960319
-0.345853
0.641548
-0.47704
0.284105
-0.13257
-0.80855
0.282217
-0.401798
-0.062462
-0.839258
0.846106
0.299839
-0.519465
0.817984
0.13043
-0.105545
0.844893
-0.106143
-0.647715
-0.700436
0.199162
-0.520823
0.664976
0.628136
-0.824341
0.0373687
0.523551
0.190355
0.0509297
0.0699943
0.48883
-0.923686
-0.0659872
0.659732
0.754051
-0.664411
-0.804108
-0.603169
0.387012
0.297186
-0.0647523
0.105263
-0.925544
0.3346
0.180093
-0.309657
-0.451265
0.755174
0.817
-0.26632
0.865129
0.752617
-0.680829
-0.307156
0.249708
-0.484164
0.897862
0.546698
-0.0210415
-0.943248
-0.842894
-0.9268
0.13308
0.932703
0.0954871
0.00517624
0.494846
0.685928
-0.806729
0.676176
0.599605
0.290195
0.489753
0.106697
0.423959
-0.874602
-0.0709264
-0.404759
0.204205
-0.725593
0.707258
-0.471381
0.215231
0.0278266
-0.593457
-0.272388
0.361915
0.0733947
-0.346069
0.769896
0.515177
-0.974718
0.469436
0.610459
0.571841
0.708815
-0.262977
0.835408
-0.829176
0.358424
0.980321
0.0790623
-0.671376
-0.0824275
-0.720306
0.703852
0.466585
-0.337943
-0.567811
-0.358703
-0.575908
-0.978717
0.817691
-0.670042
0.150268
0.771613
0.660687
-0.371204
-0.562475
0.653007
0.0164693
0.254124
-0.0695569
-0.746983
0.693184
0.163677
0.871118
-0.0451737
-0.941582
-0.972736
0.816796
0.508778
0.16344
-0.229281
0.607957
0.916504
0.523698
-0.394022
-0.072937
-0.223952
0.175715
0.068417
-0.846984
0.894584
-0.97548
-0.367109
0.198606
-0.892243
-0.980232
0.388321
0.463389
0.0329441
0.151498
0.0892867
0.819619
0.515869
0.71823
0.400611
-0.91782
-0.700045
-0.347906
0.191921
0.134432
0.856129
-0.969551
-0.135131
0.761152
-0.835974
0.184929
-0.39683
0.279313
0.746633
-0.758032
0.478514
-0.209514
0.548477
0.480131
-0.966568
-0.130367
0.837886
0.836371
-0.538611
-0.150356
0.638299
0.284667
-0.86304
-0.313789
0.089936
0.976328
-0.00648493
-0.648407
0.35552
0.0829574
0.237083
0.498102
0.362552
-0.386788
-0.0859873
0.973305
-0.123474
-0.743092
-0.135967
-0.0889422
-0.412695
-0.000200868
-0.807251
0.348675
-0.566166
0.085795
-0.651657
0.445319
0.0658041
-0.601933
0.602243
0.745692
0.826443
-0.214702
0.785087
-0.0766103
-0.973773
-0.145749
0.74591
0.957908
0.557043
0.646274
-0.431052
-0.312152
-0.529325
0.055853
0.139712
0.610948
0.32099
-0.742278
-0.602585
0.171249
0.558783
0.490397
-0.602166
0.618009
0.691116
-0.215307
0.149135
0.904597
0.298382
-0.606707
-0.261023
0.613994
-0.725947
-0.679255
0.366744
-0.822178
-0.84806
0.302256
0.00841319
-0.143849
-0.642089
-0.554147
-0.79177
0.255163
-0.682148
-0.571702
-0.798061
-0.700254
-0.872195
-0.705465
-0.3218
0.300303
0.908579
0.508404
-0.918606
0.340564
0.89482
-0.324737
-0.289873
0.980548
-0.976989
0.322551
-0.112581
0.0616718
0.465693
-0.918936
0.294201
0.242963
0.0963101
0.798308
-0.362149
-0.616362
-0.269871
0.774607
0.792547
-0.179744
-0.478407
0.926891
-0.0148766
-0.492514
0.760006
-0.794871
-0.301585
-0.562833
0.243149
-0.162876
0.37834
-0.243607
0.391285
0.649484
-0.0551495
-0.629435
0.350409
0.76162
-0.14509
0.10407
-0.0700759
0.28397
0.073995
-0.450379
-0.544748
0.255004
-0.455118
0.720147
-0.447445
-0.716506
0.923064
0.659114
0.210143
-0.62664
-0.13028
-0.942559
-0.599999
-0.745181
-0.770526
0.614902
0.345094
-0.309546
0.42635
0.974623
0.967009
-0.962738
0.62368
0.310808
0.958382
-0.398747
0.129823
-0.521889
-0.358742
0.70124
-0.509741
-0.391612
0.672906
-0.0488861
-0.73207
0.395476
0.652974
0.0691736
0.0390886
-0.57413
0.709499
-0.0705607
-0.736235
0.83372
0.667108
0.889923
0.852318
0.479786
0.930493
0.379459
0.147254
-0.370742
-0.216698
0.917054
0.159131
-0.257425
-0.528732
0.201209
0.00426645
-0.83753
-0.195472
0.572883
-0.860837
0.00173725
0.704472
0.362664
-0.997982
0.888213
0.293512
0.624394
-0.333281
0.0408477
-0.0289417
-0.81565
0.982016
0.724669
0.156748
0.353739
-0.918188
0.910032
0.76424
0.0257
0.0669093
-0.953538
-0.720887
0.0752034
-0.189666
-0.486747
0.866903
0.276751
0.245175
-0.556051
0.0777912
-0.467857
-0.0454744
0.312026
0.319986
0.646717
0.477636
0.639144
0.752431
0.701534
0.336217
-0.670035
0.0387815
0.141335
0.512402
0.98972
0.479156
-0.159572
-0.100843
-0.160203
-0.603937
0.833783
-0.700104
0.866071
-0.170763
-0.772245
0.86307
0.124267
0.155408
-0.440635
0.667204
0.852418
-0.711025
-0.013479
-0.429096
0.524626
0.765024
-0.997969
-0.258926
-0.798536
0.915501
-0.384366
0.582067
-0.374859
-0.788153
0.291206
0.501444
0.263118
0.883945
-0.582801
0.238281
-0.130654
0.387641
-0.809706
-0.197499
0.711329
-0.0354134
-0.125724
-0.335005
-0.836481
-0.766738
0.233592
0.215795
0.309068
0.814352
0.215741
-0.0298581
-0.904871
-0.195779
-0.243727
-0.869932
0.680041
-0.624821
-0.100993
0.263349
0.278756
0.840123
-0.337542
0.684976
-0.903294
0.642498
0.548046
0.0425351
-0.960717
0.422523
0.989305
0.321025
0.64769
0.600286
-0.996761
-0.518837
-0.84812
-0.12983
-0.14958
0.995559
-0.686271
0.214838
-0.428729
0.19823
-0.319397
0.1476
0.179807
-0.555238
0.459755
0.0376039
0.307397
-0.795573
-0.907813
0.752452
-0.152063
0.264184
0.0417706
-0.81184
0.219059
-0.108287
-0.309794
0.76885
-0.701132
-0.815567
-0.964602
-0.56932
0.271569
-0.351034
0.169872
-0.196251
-0.17124
-0.282762
-0.75603
-0.828751
0.130089
0.777413
-0.847528
-0.465077
-0.740281
0.0260345
-0.686021
0.222888
-0.762593
-0.82229
0.155949
0.658389
0.317748
-0.991926
-0.273045
-0.730044
0.0142545
0.665287
-0.800624
-0.0417237
-0.195007
0.567465
-0.101893
-0.457174
0.377492
0.300142
0.678818
-0.29832
-0.882919
-0.235652
0.250368
0.256936
-0.569578
0.333948
-0.561029
0.568154
-0.448379
0.798302
0.756804
0.255583
-0.639673
-0.862702
-0.923849
0.618555
0.1389
-0.149311
-0.885459
0.733235
-0.6701
-0.300828
-0.019508
0.255199
0.477738
0.773549
-0.331566
0.0196446
-0.567539
0.159879
-0.638438
0.385059
-0.626078
0.888047
0.220284
0.321062
-0.373457
0.0203495
-0.699579
0.0700016
-0.0443932
-0.256629
-0.0605183
0.0433645
-0.0263523
0.164818
-0.267513
0.832829
-0.620499
-0.412656
-0.266468
-0.137055
0.473651
0.640539
-0.810614
-0.514854
0.243634
0.512942
0.642014
0.0646898
-0.674429
-0.742646
-0.88569
-0.147145
-0.613064
-0.22973
0.0850682
0.832429
-0.46291
0.501558
-0.385779
0.0973258
-0.117186
-0.428551
0.127627
0.155722
-0.535563
0.00264304
-0.376436
0.465083
-0.276625
0.866268
0.313148
-0.192113
-0.915061
0.848151
0.628006
0.246078
-0.0571037
0.0293259
0.0756982
0.453671
0.587753
0.411004
0.333006
0.480428
-0.256419
-0.825213
0.256831
0.361002
-0.786018
0.0353155
0.960888
0.525714
0.563608
0.902782
-0.166253
0.419754
0.185606
0.920837
0.221389
-0.0182436
0.966926
0.681843
0.607832
-0.788514
0.0333412
-0.14717
-0.5755
0.666994
-0.263781
0.784678
-0.692268
-0.272374
-0.333257
0.0432839
0.690735
0.3504
-0.385127
0.719977
-0.671295
-0.000404106
0.125592
-0.718934
-0.237205
0.765119
0.77079
0.440817
-0.839926
-0.617127
0.109782
-0.167301
0.533929
-0.935237
-0.755701
0.260649
-0.55483
0.528012
-0.894355
0.0921316
0.0821026
0.330599
-0.605609
-0.629285
-0.426754
0.175162
-0.790148
0.846985
0.735441
0.99759
0.67195
-0.87185
-0.279592
-0.175366
0.597722
-0.789584
0.493217
-0.860443
-0.0743833
-0.128086
-0.663287
0.0645809
-0.00901542
0.761862
0.987989
-0.561548
0.885346
0.924076
0.219112
-0.12213
0.450739
-0.753406
-0.90166
0.360038
0.470715
0.646889
-0.48494
0.603757
0.354559
-0.696877
0.307959
0.568011
-0.864549
0.951443
-0.730869
-0.604036
-0.487604
-0.880841
0.955683
0.614025
0.930875
-0.413375
0.491631
0.455101
0.997296
-0.965874
0.660958
0.632393
-0.389362
0.906413
0.927495
0.828508
-0.558057
0.782307
-0.822462
-0.84546
0.669688
-0.643749
-0.895049
-0.610203
0.900121
0.0269092
-0.94962
0.780354
-0.608073
0.957703
0.77427
-0.234275
-0.704266
-0.735538
-0.259138
-0.366348
0.0865672
0.321282
0.557572
0.396781
-0.443747
0.0723128
-0.418154
0.661485
0.527691
-0.866063
0.275992
-0.939036
-0.604992
-0.660657
0.466439
-0.124336
-0.619989
0.217861
-0.539921
0.969315
-0.620376
0.247728
-0.893887
0.114577
0.970977
-0.862272
-0.107659
-0.563788
0.706339
0.976012
0.462013
0.110497
-0.40833
0.960434
0.368785
-0.0425162
0.578456
-0.748028
0.197401
-0.741058
-0.856312
0.960851
0.51667
0.421999
0.378204
0.604468
-0.444148
0.160442
-0.603523
0.81907
-0.531435
0.137443
-0.0752131
0.446649
-0.0610722
-0.258567
-0.620645
0.169053
0.468237
0.368603
0.0274233
0.968607
-0.361265
-0.440207
-0.495292
-0.76442
0.071741
-0.833474
-0.729298
-0.774224
-0.325133
0.761891
0.903631
-0.264191
0.507502
-0.590479
-0.489428
0.78007
-0.508091
-0.918176
-0.847456
0.223744
-0.027937
-0.817964
-0.0871723
-0.216052
0.392809
0.25986
0.0790641
0.620342
0.163557
-0.114972
-0.468053
-0.506679
-0.984941
0.305932
-0.342295
0.79895
-0.807142
-0.19848
-0.59334
0.853393
0.900769
0.145354
0.140722
-0.214782
-0.837241
-0.76638
0.939648
-0.977752
-0.731627
0.357748
0.516698
-0.617425
-0.831595
-0.217655
-0.0677202
0.480198
0.462818
0.956522
-0.850783
0.848831
0.247614
0.859181
-0.938683
0.718597
-0.757243
-0.544959
0.0202623
-0.373602
0.897599
-0.901605
-0.186978
0.410041
0.0573928
-0.173011
-0.612294
-0.931916
0.174991
0.981659
-0.0688695
0.432575
0.772255
-0.607786
0.863562
-0.39762
0.108974
-0.308313
0.288666
-0.84627
0.922349
0.145713
-0.0705853
0.846585
0.182708
-0.0209221
-0.240424
0.975907
-0.497252
-0.403785
-0.272306
0.803106
-0.023871
-0.343269
0.144702
-0.697141
-0.449178
-0.207845
0.60227
0.463671
-0.286422
-0.771305
-0.502402
-0.192327
0.330991
-0.113328
0.309066
-0.101788
0.422645
0.115442
-0.700762
-0.83409
0.801953
-0.670425
0.0771746
-0.780438
-0.314049
0.95512
0.84666
0.263238
0.22805
-0.426939
-0.226775
0.692106
-0.444468
0.54041
0.949114
-0.704911
-0.709456
0.0392827
-0.693487
0.691973
0.0998374
-0.906801
0.566297
-0.85341
-0.138807
-0.978275
-0.58439
-0.890327
0.228289
-0.733717
0.784356
0.376778
0.974229
-0.280284
0.178627
0.0394318
0.299486
-0.732342
-0.326518
0.430714
0.00637995
-0.0716848
0.325557
0.364257
-0.514393
-0.461406
0.573569
-0.980501
0.238067
-0.679391
0.345565
0.640471
-0.133004
0.458696
-0.261906
0.68599
-0.0839937
0.618946
0.209147
0.225677
-0.388277
0.501808
-0.276848
0.902461
-0.506801
0.0632117
-0.667393
-0.0619043
0.388544
0.246302
0.294801
-0.640531
0.0780288
-0.884094
0.802225
-0.0573108
-0.860859
-0.230851
0.831876
-0.962677
-0.688963
0.802363
0.352952
0.329706
0.682856
-0.653074
-0.682892
0.272866
-0.926759
0.551678
0.414201
0.048556
0.129077
-0.900183
0.714464
-0.112217
-0.536928
0.0230042
0.0216291
-0.130328
0.136884
-0.75997
-0.701815
-0.889311
0.074706
0.33355
0.94261
0.86931
-0.311486
0.923982
-0.670886
0.503734
0.768764
0.348732
0.974461
-0.433035
0.232685
0.357944
0.366436
-0.604488
-0.152926
0.251594
-0.951713
0.292393
-0.194279
-0.230225
-0.541927
-0.574451
-0.173638
0.477721
-0.492352
0.618948
0.0529285
0.13474
0.470532
0.721672
-0.148514
-0.716451
0.730076
0.772241
0.94958
0.131301
0.899077
0.960081
-0.803028
0.710078
0.120803
0.807887
-0.539643
-0.296833
0.64171
0.0989521
0.276384
0.510663
-0.568113
0.0493561
-0.621989
0.816767
-0.574535
0.929922
0.112186
0.730686
-0.653761
-0.213263
0.146508
0.528725
-0.158841
-0.242185
0.314536
0.0585557
0.314916
0.559456
0.600818
0.315768
-0.727218
0.497497
-0.724417
0.811611
-0.25268
-0.519214
-0.754985
0.769936
0.400294
-0.732257
0.506593
0.477177
-0.172166
-0.990761
-0.0577293
0.224806
0.40969
-0.834458
-0.171588
0.0981166
-0.531305
0.331689
0.704794
-0.346128
-0.438251
0.32025
-0.528525
-0.526094
0.20777
0.0953479
-0.351276
0.270093
0.350986
0.555545
-0.950223
0.142369
-0.778773
0.61049
0.118425
0.656004
-0.87112
-0.971865
-0.156071
-0.586133
-0.955114
0.843072
0.486596
0.966712
0.770549
-0.934303
-0.138375
0.348878
-0.915578
0.526162
-0.798943
0.773436
-0.268393
-0.907472
0.739535
-0.498479
0.543362
0.541374
0.27602
0.453191
-0.327973
0.00992434
-0.291137
0.495752
0.00917974
-0.643753
0.615127
-0.319419
0.7164
-0.310703
0.567499
-0.942415
-0.388385
-0.249214
0.305465
0.540551
0.375076
0.339564
0.884902
-0.00419005
-0.596333
0.326155
0.336228
-0.943643
-0.831776
0.426379
0.511541
0.805367
0.41454
-0.166117
0.36075
-0.927331
-0.485099
-0.925037
-0.450759
0.872957
0.0616324
0.685145
0.463683
-0.744587
0.871942
0.072253
0.223598
-0.500828
-0.419456
-0.479389
-0.827052
-0.702841
-0.267369
-0.766653
0.868512
-0.226601
-0.561396
-0.81946
-0.844693
0.213276
-0.0718355
0.123166
-0.533474
-0.0202948
0.37848
0.276636
-0.0127873
0.649708
0.547268
-0.441959
-0.659159
0.387482
0.870011
-0.741411
-0.369164
-0.838897
0.431601
0.189842
-0.71404
0.331278
0.153123
-0.457008
-0.333451
-0.855995
-0.392931
0.829593
-0.108538
-0.972245
-0.0417455
0.0763594
0.102954
-0.355597
0.898419
-0.056739
0.314567
0.217229
0.281553
0.422139
0.157849
0.635889
0.0623882
-0.667539
0.985702
-0.374529
0.586249
-0.17703
-0.211754
0.30415
0.175049
0.655424
-0.227733
-0.287881
-0.89176
-0.886763
0.944864
0.375421
-0.278085
-0.851369
-0.0206844
0.205302
-0.436937
0.843306
-0.46375
-0.408963
-0.135263
0.67711
0.231913
-0.482279
0.483083
0.525674
0.909978
-0.942863
0.696813
0.0714639
0.762398
-0.702314
-0.342142
0.524558
-0.706895
0.388043
0.949045
0.602273
-0.0831649
0.0892899
0.707276
-0.215682
-0.91863
0.313778
0.571841
0.397601
0.798444
0.359094
0.686211
-0.671608
-0.873646
-0.263344
0.893363
-0.373097
0.881798
-0.00757818
0.801083
-0.7407
0.242103
-0.901185
0.64252
0.354728
-0.83989
0.770555
0.812849
-0.148447
-0.962527
-0.637971
0.0254828
-0.889846
-0.0710465
0.310816
-0.49243
-0.746844
-0.122275
0.903077
-0.742609
0.423021
-0.336761
0.484741
0.734893
-0.702263
-0.711327
-0.80759
0.476317
-0.154447
-0.389662
0.425251
0.946359
0.978118
-0.561075
0.250806
0.804446
-0.691922
-0.299283
-0.108087
-0.0903528
0.243519
-0.529442
0.568146
-0.528193
0.0501115
-0.831522
0.984098
-0.668526
0.956386
-0.604184
-0.579567
-0.61921
0.823154
-0.122275
0.975065
0.491012
-0.918835
-0.962825
0.335566
-0.734908
-0.420863
-0.23333
0.385659
-0.332661
0.476188
0.0604132
0.835407
0.68458
-0.561491
0.0499358
0.324558
-0.861427
0.0211388
0.535054
-0.478926
0.498001
0.37457
0.860496
-0.407324
-0.163027
0.23643
0.653857
-0.929625
0.168328
0.755685
-0.133762
-0.917439
-0.636562
-0.962893
-0.747243
0.780752
0.280925
-0.345347
-0.937865
0.599292
-0.00351956
0.812766
-0.405052
0.918034
-0.00738238
-0.335481
0.417529
-0.612377
-0.425123
0.63627
-0.482455
-0.679214
0.780137
0.852745
-0.650957
0.370799
-0.310139
0.0778882
-0.643023
-0.513435
0.46196
-0.180709
-0.55929
0.0931617
-0.610328
0.49183
0.837816
0.365681
0.484031
0.601622
-0.186909
0.968539
0.576472
-0.401773
-0.791151
0.776515
0.600739
0.983185
-0.458246
0.246579
-0.59424
0.0833454
0.242321
-0.187029
-0.301973
-0.239521
0.25137
0.889896
-0.0641897
-0.662515
-0.585759
0.569389
0.968695
0.0814625
0.359043
0.771732
0.286878
0.702015
-0.425099
-0.54793
0.979774
-0.475048
0.987813
0.155465
0.49849
-0.781467
0.01403
-0.434027
0.698543
0.519616
-0.316028
0.191815
-0.433871
-0.425539
0.584935
-0.396848
0.692591
0.924162
-0.0392675
0.982417
-0.321652
0.384054
-0.995136
0.606799
0.971273
-0.946811
0.145829
-0.638102
-0.541402
0.31294
-0.314834
-0.255532
-0.24965
0.208597
0.528245
0.966655
0.361708
0.235951
-0.25633
0.796372
0.798575
0.8643
-0.620687
0.387012
-0.71679
-0.387866
0.212992
-0.550615
-0.0355781
0.0524222
0.0660258
-0.759536
-0.0896468
0.567501
-0.11765
-0.31535
-0.0168758
-0.787995
-0.820528
0.857249
-0.623098
-0.204824
-0.303233
-0.443541
0.728628
-0.213327
-0.631113
-0.0645461
-0.620525
0.314278
-0.813618
0.482346
-0.297968
0.195587
0.401882
0.00144548
0.0714194
0.372989
-0.990085
-0.200909
0.73752
0.452398
-0.13599
0.802367
0.770892
-0.662083
-0.629846
-0.213407
-0.341222
-0.330182
0.865878
-0.138997
-0.196961
0.280989
0.795677
-0.378646
-0.0667049
0.962805
0.143628
-0.660692
0.64186
0.156771
-0.418175
-0.20644
-0.751057
-0.148743
0.0186479
-0.914585
0.925546
0.957219
-0.954703
-0.593469
-0.623336
0.163486
-0.175013
-0.720042
0.889791
-0.962459
-0.329458
-0.52544
0.685037
-0.345339
0.618006
-0.54894
0.296771
0.925976
0.212468
-0.155062
-0.76302
0.0797688
-0.754619
0.793338
0.0331863
0.361918
-0.131187
-0.307775
0.525755
-0.701449
0.191651
-0.295177
0.208991
-0.949004
0.746838
-0.332411
-0.403057
0.140268
8.97199e-05
0.246677
0.80909
0.682319
0.0228558
-0.266694
0.554962
0.219009
-0.469266
-0.165888
-0.266472
0.122257
0.429404
0.472275
-0.732805
0.665695
-0.168977
-0.117037
0.407394
-0.619226
0.00373382
-0.765334
-0.54428
-0.169233
-0.0244712
-0.635177
-0.95017
0.940455
-0.60741
-0.131396
0.306107
0.41199
-0.126119
0.264723
0.162292
-0.654982
-0.567912
-0.020984
-0.775326
-0.825353
-0.24896
-0.211176
-0.170629
-0.436763
-0.79216
0.668583
0.440089
-0.543166
0.771656
0.835599
0.0211991
-0.424137
-0.650716
-0.735253
0.536969
0.772104
-0.00958503
0.110345
-0.277477
-0.755324
0.877227
0.923519
0.349282
0.0797184
-0.781385
0.662268
0.451288
-0.388552
0.139906
0.967775
-0.768028
-0.347036
0.254114
0.543488
-0.101932
-0.326233
0.159925
-0.564052
-0.485832
-0.87299
-0.103111
0.548171
0.231405
0.225078
0.381636
-0.866489
-0.595328
-0.625795
-0.281063
0.809741
-0.41124
0.67037
0.795542
0.0763813
0.579652
-0.730869
0.12343
-0.944278
-0.416168
0.542031
-0.191001
0.633192
-0.546714
0.223717
-0.501298
0.0510356
0.570228
0.270174
0.808818
-0.203261
0.413419
-0.0461142
0.1129
-0.907867
0.753109
-0.587944
-0.433503
-0.0208226
0.626532
0.0661812
0.23299
-0.255607
-0.781068
-0.796533
-0.619101
-0.163094
-0.848898
0.742269
0.10222
-0.592177
-0.255559
-0.484356
0.909861
-0.195123
0.0456908
0.0511534
-0.126984
-0.248853
-0.150439
0.0844499
-0.988657
-0.74359
-0.0821317
-0.766588
0.367702
0.571973
-0.0251218
0.224311
-0.403612
-0.496577
0.932349
0.678698
0.627287
-0.779214
0.892887
0.147552
-0.509713
-0.786704
0.681466
0.257224
-0.391
-0.630895
-0.496771
0.480521
-0.395024
0.242446
0.518399
0.167871
-0.893894
0.607221
0.0156263
0.601058
0.344873
0.372998
-0.0366875
0.530053
0.988942
0.124495
-0.809731
-0.982409
0.0999418
0.987755
0.61485
-0.42662
0.204006
-0.444705
0.78389
0.168351
0.923975
0.330037
0.634173
-0.531336
-0.381684
-0.0337774
-0.359184
-0.260142
0.0526744
0.668743
0.316018
-0.404286
-0.240852
-0.0846638
-0.0282295
0.887096
-0.21471
0.425344
0.520997
-0.64214
-0.225345
-0.468306
-0.720775
0.583446
-0.564814
0.118337
0.815645
0.53008
-0.471238
-0.356414
-0.883365
0.736668
-0.451132
-0.157977
-0.948529
0.567054
0.644103
-0.87358
0.409865
0.67794
0.399628
-0.0797164
0.811534
-0.70056
0.519697
-0.153703
0.422682
0.164137
-0.118876
-0.637622
-0.337139
0.0110983
-0.124594
0.842889
0.61415
-0.870736
0.357825
0.796604
-0.524766
0.0169624
-0.786869
-0.274678
-0.385668
0.0791308
-0.226581
-0.331008
0.201695
-0.449307
0.735106
-0.352674
-0.664325
-0.755903
-0.625095
-0.331977
0.463355
-0.976786
-0.277496
0.683006
0.841003
-0.612124
0.779245
-0.427293
0.0408505
-0.472317
-0.847008
0.942166
0.00503041
0.516127
0.791071
-0.979823
0.947081
-0.156609
-0.576248
-0.655813
-0.76515
0.636743
-0.625894
0.0502734
-0.859384
-0.869446
-0.553132
0.612047
0.555845
-0.805542
0.485588
-0.291568
0.234463
0.136415
0.00990423
0.0968837
-0.246864
-0.776993
0.835594
-0.897876
0.474523
0.780285
-0.214562
0.0157118
0.0611324
-0.316367
0.75448
0.697044
-0.165901
0.275757
0.195639
-0.882021
-0.49678
-0.804075
-0.968741
-0.326529
-0.0801516
0.186839
0.267948
0.790275
-0.750416
0.698998
0.0915263
0.813951
0.824886
-0.412656
0.603192
-0.25934
-0.942871
-0.366663
0.701438
0.67665
0.925817
-0.212705
0.731153
0.730192
-0.76301
-0.673242
-0.242392
0.0497361
0.352377
-0.860865
0.055405
0.00610406
0.0154617
0.289433
-0.460638
0.0697237
-0.398273
0.311267
-0.655006
0.156666
0.24056
0.302563
-0.938434
-0.583793
0.219366
0.113697
-0.267499
0.320661
0.59149
0.538805
-0.300497
0.11452
0.454913
-0.529684
-0.25753
-0.790221
-0.284088
0.118552
-0.647073
0.909531
-0.150155
0.454652
0.00114432
0.240135
-0.950087
-0.515285
0.0746615
-0.082094
0.825629
0.440635
-0.0321001
0.219508
-0.531752
-0.230373
-0.690204
0.32281
0.514475
0.367251
-0.719271
-0.500213
0.36741
0.931259
0.674738
0.244176
0.311304
0.875652
0.122566
0.279492
-0.69826
-0.148106
0.551087
0.599295
-0.0756687
0.649636
0.392212
0.829141
-0.127189
0.82098
-0.3225
0.762617
-0.937011
-0.324906
0.403063
0.812626
-0.785066
0.864844
0.393405
-0.859677
-0.674239
0.331357
0.334801
0.59063
0.124691
-0.760493
0.221658
0.394322
-0.663186
-0.762909
-0.272343
-0.582462
0.649989
0.0688314
-0.927105
0.98202
-0.27086
0.595693
-0.0641835
-0.218838
-0.215793
-0.41124
0.51257
-0.0776954
-0.816739
-0.580133
-0.354026
-0.214994
-0.196433
0.749408
-0.74763
0.254848
0.404361
0.462362
0.319029
0.435667
-0.259015
0.0303074
-0.689131
0.528988
-0.342939
-0.0604056
0.727318
-0.0266067
0.507167
0.240087
0.134033
0.840043
-0.724149
0.207156
-0.363208
0.971675
0.249869
0.800425
-0.62565
0.425116
-0.569455
0.430964
-0.877055
-0.167851
0.684745
-0.444912
0.998094
-0.362978
-0.650053
0.995088
0.0112865
0.514007
-0.663648
-0.501582
-0.0765934
0.234167
-0.806763
-0.10296
-0.502398
0.862444
0.895405
-0.0163724
-0.51239
0.355813
-0.192578
-0.296405
-0.869825
0.738624
-0.771511
0.949775
-0.299654
0.296315
0.720524
-0.225042
-0.974366
0.304
-0.0310056
0.497327
0.459853
0.248567
0.893995
0.412374
-0.558003
0.274707
0.0731222
0.745713
0.692887
-0.443988
-0.00579898
-0.655967
-0.353014
-0.262814
-0.757599
0.322289
-0.275489
0.694229
0.241615
-0.159023
0.536397
0.396599
-0.795978
0.694206
0.0606761
-0.907849
0.197254
0.25771
0.70283
0.278399
0.989426
-0.595625
-0.472595
-0.510944
-0.94959
0.753359
0.0786859
-0.324069
-0.303355
0.651076
-0.150646
0.555471
0.690587
-0.611116
-0.958223
-0.824877
0.634996
0.456679
0.980471
0.831562
-0.313458
0.684725
0.979397
-0.1395
-0.677903
0.354439
-0.975226
-0.655688
0.415919
0.473008
0.437865
-0.861546
0.877268
-0.20061
-0.476344
-0.978682
0.612364
-0.945839
0.0377818
-0.523182
0.0749582
0.497932
-0.280964
-0.592361
-0.474801
0.959007
-0.101992
0.764405
-0.897543
-0.0518464
0.719893
0.00751462
0.615813
0.015625
-0.616416
-0.128866
0.654021
0.563033
-0.771741
-0.0189846
0.20903
0.281585
0.877623
-0.571163
0.89395
-0.108787
0.0217599
0.896347
0.324371
0.325993
0.974444
-0.145226
0.0340457
0.655153
0.743283
0.77178
0.0312711
0.332108
0.000991705
0.20434
-0.203748
0.594015
-0.285594
-0.263169
-0.896061
0.540128
0.0958578
0.566407
0.869185
-0.571278
-0.532295
0.300578
0.495701
-0.338938
-0.790034
-0.595801
-0.382351
-0.340777
-0.515912
0.435639
0.209303
-0.933571
-0.659728
-0.503466
-0.232871
-0.640937
-0.775187
-0.530408
0.508794
0.794887
0.0675815
-0.0512559
-0.439387
0.649922
0.963878
-0.878708
-0.899761
0.715655
-0.958144
-0.880477
-0.0269534
-0.881101
-0.845041
0.927757
0.902676
0.550007
-0.556856
0.249398
0.969035
-0.916141
-0.891888
0.777989
0.337338
-0.124143
0.643539
0.0785036
0.502378
-0.68273
0.604966
-0.696704
0.682332
-0.27314
0.305341
0.805743
0.981343
-0.393494
-0.252869
-0.530587
0.971601
0.946217
-0.0271569
-0.63157
0.261537
0.3587
0.811099
-0.126131
0.16111
-0.93325
-0.150046
-0.789093
0.878562
-0.649224
-0.826118
-0.0271869
0.841879
-0.837389
-0.0968895
0.462621
0.1956
-0.31959
0.47719
-0.255338
0.648596
0.854326
-0.311274
0.760588
-0.58361
0.991193
0.113948
-0.856327
0.694197
-0.55229
0.376656
0.828099
-0.997973
0.125401
0.849458
0.104721
0.854925
0.0485043
-0.67405
0.361034
-0.0696673
-0.499672
0.930556
-0.168712
-0.462943
-0.581573
0.266425
0.775031
0.449489
-0.290796
0.389597
0.631846
0.675575
-0.675353
0.649336
-0.0687211
0.502989
-0.884668
-0.583861
0.665555
-0.853247
-0.816474
0.0527187
0.0855954
0.840862
-0.46187
-0.352298
-0.383644
-0.479275
0.910804
-0.338274
-0.00504123
0.982518
-0.477652
-0.977997
-0.464708
0.136779
-0.935793
0.0257325
0.791537
-0.632429
-0.340558
-0.863184
-0.563429
-0.125958
0.85323
0.60084
0.180216
0.657011
-0.85863
0.766643
-0.122329
-0.9216
0.505388
0.870473
-0.648881
-0.422022
0.937456
0.942885
-0.0910226
-0.98139
-0.900728
-0.17275
0.72925
-0.339421
0.764343
0.896254
-0.54854
-0.995828
0.0753522
0.866096
0.393224
-0.337929
-0.614073
0.226537
0.639447
-0.836056
-0.404242
0.176482
0.354236
-0.280577
0.955016
0.846969
0.203859
0.568075
0.740013
-0.944998
0.0757401
0.753002
-0.175054
-0.807129
0.312119
-0.373519
0.738524
-0.770425
-0.417727
-0.178836
0.449635
-0.423544
0.0852597
-0.98069
0.929657
-0.0781317
0.953153
-0.122535
0.95343
0.524772
-0.883749
0.698026
-0.0045935
-0.889072
-0.743481
-0.303339
-0.7725
0.955346
0.229621
0.341453
-0.787708
0.259762
0.0514667
0.612637
0.997414
0.124147
-0.549081
-0.940688
-0.0517585
-0.371987
0.470791
-0.849166
0.206933
0.423088
0.69561
-0.893487
0.442893
0.217632
0.594115
0.639717
-0.724051
-0.690652
-0.959501
-0.0953757
-0.972138
0.384839
-0.66906
0.45026
0.31587
-0.0836131
-0.393204
0.762698
0.375164
0.20045
0.355443
0.639398
0.223665
-0.773416
-0.937541
-0.652213
0.106147
0.751988
0.769573
0.462836
0.726158
0.0780391
-0.457551
0.17621
-0.850112
0.754841
0.118313
-0.525444
0.90906
0.733126
0.389062
-0.820156
0.609192
-0.923973
0.140685
-0.255169
0.540605
-0.746028
-0.46948
0.747379
0.573933
-0.927016
0.212397
-0.894509
-0.412423
-0.489862
-0.455494
0.548732
0.315655
-0.988887
-0.179247
0.270644
0.721853
-0.713692
-0.505651
0.921459
0.603959
0.247625
-0.390276
-0.816976
-0.671459
0.662927
0.479092
-0.368733
-0.495645
-0.644394
0.542872
0.0005638
-0.447867
0.610257
0.504672
-0.585622
0.948913
-0.0890117
0.554033
-0.235238
-0.744998
-0.433566
0.761968
0.867744
0.615162
0.276496
-0.309521
0.981867
-0.587027
-0.337338
0.688494
0.973775
0.205346
-0.609575
0.200513
-0.900158
0.435563
0.213779
-0.705988
-0.170516
-0.912729
-0.695537
-0.722764
0.178542
-0.826095
0.109993
-0.853624
0.995623
-0.560357
-0.986415
-0.757526
-0.0725267
-0.0327605
0.825666
-0.857581
0.289616
-0.461104
0.982372
0.839634
0.724972
0.979251
-0.0963831
0.729715
-0.18324
-0.368796
-0.304054
0.00151777
0.234582
-0.711566
0.978467
-0.401437
0.567427
-0.0475434
0.550035
0.968876
-0.201128
0.72204
0.670153
-0.970433
0.00362915
0.890658
-0.556497
-0.195853
0.957779
0.917877
-0.738936
-0.9912
0.0606754
0.716582
-0.970668
0.54803
-0.29139
-0.191188
-0.00588118
0.444719
-0.571414
0.457554
-0.132842
-0.0965754
-0.803213
-0.704349
-0.939079
0.952397
0.842924
0.627524
0.378216
-0.276595
0.545062
0.0916196
-0.198473
-0.745116
0.567624
-0.343149
0.258829
0.595503
0.749517
-0.0853865
0.415324
0.775101
0.512444
-0.385621
-0.298829
0.12007
-0.783852
0.814981
0.83419
-0.436851
-0.921414
0.856095
-0.159577
0.957199
-0.697808
0.597096
-0.772882
0.153777
-0.144116
0.556662
-0.358595
0.736701
-0.933892
-0.719434
-0.421008
0.0757542
0.935059
0.562852
-0.0777432
0.835101
0.252402
0.173912
-0.875906
0.564968
-0.922969
0.166112
-0.543123
0.634955
-0.827757
-0.677036
0.065308
-0.0743662
-0.727677
0.11219
-0.345521
0.555604
-0.411909
0.848211
-0.0271141
0.939105
-0.672919
-0.55104
-0.816252
0.880819
-0.0296943
0.999771
-0.467974
0.737329
-0.97173
0.659281
0.0907388
0.207624
-0.434006
0.635614
0.896399
0.638077
0.169108
0.933938
0.453781
-0.798105
-0.394891
0.268114
0.805159
0.581671
-0.743182
0.410403
-0.574681
0.270169
-0.333937
-0.174035
-0.166144
0.0139772
-0.921696
-0.26364
0.629723
-0.256551
0.732921
0.84295
0.675076
0.328048
0.465363
-0.587336
-0.682211
0.217561
-0.201536
-0.0880019
0.182492
-0.693156
-0.420452
0.0285606
-0.577255
0.806022
0.00220402
0.932431
0.0624393
-0.597934
0.827853
-0.277251
0.719251
0.235137
-0.760302
-0.0697648
-0.440011
-0.860803
-0.87614
0.987029
-0.343994
-0.0525804
0.939255
0.0456645
0.261897
0.456421
-0.374974
-0.72499
0.114226
-0.321765
-0.725588
-0.340572
0.226697
0.365194
0.305319
0.786536
0.338387
0.331898
-0.534676
-0.431835
0.0525945
0.962785
0.763386
0.269208
-0.407734
0.407283
0.019457
-0.378141
-0.793296
-0.467791
-0.480007
-0.288431
0.71248
0.709351
-0.228239
-0.699674
0.964573
0.232534
-0.275524
-0.601775
0.663323
-0.368211
0.406762
0.332807
0.646823
0.71265
-0.331557
-0.0446061
0.440874
-0.0926801
0.779755
0.654216
0.490114
0.874114
-0.203985
-0.263953
0.230971
-0.603937
0.801586
-0.256504
-0.547438
0.963835
0.00337905
0.177045
-0.405191
-0.781376
-0.0887651
-0.295992
-0.470909
0.194868
-0.0635436
0.606344
-0.362483
0.339475
0.232706
0.322841
-0.259875
-0.826276
0.724012
-0.61343
0.60927
0.567446
-0.602514
-0.214637
0.857393
-0.444865
-0.875475
0.251952
0.195078
-0.135944
-0.446817
0.711102
-0.276702
0.143522
0.550332
0.418676
-0.771176
0.868564
0.836659
0.852055
-0.160924
-0.0925162
0.182429
0.545312
0.625569
-0.883317
-0.657732
-0.386283
-0.523871
0.515842
-0.487369
0.957276
0.236148
-0.913543
-0.760769
0.33449
-0.805706
-0.349847
0.453515
-0.535524
0.121981
0.26146
-0.502262
-0.391169
0.661404
-0.93625
0.240753
0.935134
0.120222
-0.855073
-0.883494
0.631497
-0.0133743
-0.133467
0.152194
-0.857886
0.572126
0.607973
-0.408214
0.0996284
-0.00195483
-0.545715
0.643309
-0.730217
0.673421
-0.444397
0.0461753
-0.0179389
0.90645
-0.400572
-0.289395
-0.362129
-0.680682
-0.130229
0.54855
0.662518
0.299229
-0.0670047
-0.000368792
-0.947721
0.349974
-0.792059
0.642755
0.973101
0.472737
0.0730354
0.941865
0.85885
-0.302071
-0.832788
0.651518
-0.543235
-0.261547
0.992501
-0.965244
0.254591
0.0972558
0.56821
0.933384
-0.16778
0.527691
-0.12989
0.271852
-0.298126
-0.265148
-0.830377
0.944291
0.0819947
0.871586
0.630528
-0.315036
0.394641
0.507503
-0.00665955
-0.308253
0.84411
-0.852463
0.655633
-0.0220585
-0.358318
-0.60594
0.62186
-0.0316259
0.860145
0.860218
0.736486
0.311673
0.760535
0.860281
-0.676289
0.612943
-0.88282
0.664757
0.236062
-0.557475
-0.3834
-0.815441
0.66933
-0.0291786
-0.981591
0.841604
0.645643
0.62152
0.295567
-0.873987
-0.581075
-0.287892
-0.573038
0.99708
0.243202
0.929098
-0.436735
-0.547936
0.895538
-0.785459
0.749745
0.890541
0.399971
-0.949576
-0.254441
0.500876
0.800638
0.829604
-0.637131
0.978561
0.231787
0.888753
0.451959
0.174699
-0.513784
-0.475927
0.627518
-0.481534
0.754717
-0.130545
-0.829924
0.543387
-0.933489
0.62559
-0.495148
0.888035
0.479808
0.304879
-0.825882
-0.416955
0.434112
0.699654
0.350821
-0.844898
-0.530238
-0.229687
0.419114
-0.517018
-0.760657
0.946782
-0.143471
-0.129719
0.280667
0.0838746
-0.86643
0.424829
-0.801522
-0.0676205
-0.702951
-0.44204
-0.0751615
0.188239
0.676789
0.770905
-0.28456
0.948224
0.261352
0.44519
-0.983781
-0.000293907
-0.106923
-0.805408
0.733342
0.853279
-0.141705
-0.404989
0.597653
0.120163
-0.326386
-0.55628
0.976297
-0.147131
-0.971639
0.800267
-0.200245
0.200099
-0.272267
0.148623
0.298616
-0.650887
-0.961889
0.345839
0.443996
0.695899
-0.331084
0.369762
0.727645
-0.268207
0.494097
0.0617638
-0.0220093
0.782198
-0.56321
0.425499
-0.0319033
-0.222293
-0.920717
0.285211
0.966583
-0.281113
-0.739786
-0.195045
0.948824
-0.370068
0.187854
0.747243
0.239766
-0.718862
-0.554515
0.265463
-0.90749
0.248433
-0.284364
0.0406799
-0.736005
0.277825
-0.776434
0.93431
-0.664586
0.284289
-0.674397
-0.757469
-0.957461
0.910099
-0.270203
-0.711711
-0.561686
0.723122
-0.128935
-0.0247611
-0.576089
-0.102803
0.439335
-0.477902
-0.244118
0.638063
-0.109738
0.53051
0.255454
-0.650139
0.846224
0.10559
0.332117
0.135582
0.294569
0.393141
-0.16055
-0.347076
-0.634649
-0.275422
0.989726
-0.526043
-0.0414172
0.829712
0.879797
-0.801849
0.608721
-0.795382
0.969688
0.825383
0.520733
0.779255
0.484266
-0.10361
0.767544
-0.754284
0.5854
0.146862
0.0644004
0.667791
0.726781
-0.201591
-0.525757
0.836921
-0.173464
0.931686
-0.22664
-0.0341045
-0.223852
0.866728
-0.776486
-0.92674
-0.119066
-0.767582
-0.858314
-0.681808
0.662072
0.966146
0.19921
-0.236475
-0.861455
0.277957
-0.132921
0.895976
-0.623703
0.478515
-0.816158
-0.3041
-0.600334
-0.748603
0.167923
-0.741085
0.196132
-0.402247
0.120116
-0.280541
0.730392
0.35202
-0.0618171
-0.540973
-0.130425
0.32395
0.848958
0.903064
0.691422
-0.86606
0.890608
-0.620059
-0.384284
-0.549192
-0.433898
-0.0507839
-0.487944
-0.704497
0.637503
-0.623338
0.771054
-0.571428
-0.380638
0.768926
-0.810568
0.587735
-0.480301
0.165872
0.351797
0.884966
0.411291
0.664692
-0.536271
-0.683247
-0.0818694
-0.385964
0.804175
-0.200424
-0.622966
-0.077829
-0.846689
-0.96582
-0.231185
0.580354
-0.220724
-0.147526
-0.725286
0.777174
-0.570562
0.441276
-0.949203
-0.706125
0.895816
0.305799
0.355825
-0.296905
0.268412
0.276608
0.128003
0.878846
-0.856247
-0.0726118
0.375626
-0.24506
0.539708
-0.986247
-0.000265675
-0.410372
0.833596
-0.0715679
0.858654
-0.690404
-0.02814
0.564627
0.750889
0.0763
-0.189313
-0.337452
-0.447968
-0.0419667
-0.416449
-0.134279
-0.208187
0.574307
-0.96927
-0.0784819
0.579317
-0.46638
0.0755878
0.218638
-0.160987
-0.703698
-0.467736
0.0633672
-0.549764
0.301766
-0.849881
-0.437047
0.0117887
-0.498424
-0.65627
0.92131
-0.213278
-0.810383
0.756678
-0.521394
-0.0938193
0.728252
0.927268
-0.532482
0.39322
0.600528
-0.139682
0.64662
0.0564483
-0.504337
-0.611723
-0.456464
-0.870632
0.836588
-0.514672
-0.258875
0.80562
0.419138
0.869286
-0.380448
-0.0643355
0.44345
0.508701
-0.717716
-0.719509
0.833173
0.126634
-0.701418
-0.492349
-0.68213
0.895261
0.960751
-0.151143
0.902777
-0.373535
-0.0214579
-0.770464
0.613438
0.953492
0.435953
-0.769201
-0.333062
-0.152384
0.375529
0.827119
0.443354
-0.23802
0.62532
-0.403596
0.27655
-0.0410951
-0.0873096
-0.195244
-0.104652
0.281521
0.952279
-0.444835
-0.845107
0.770519
-0.431061
-0.895197
-0.810481
0.0208573
0.827279
-0.883337
0.331779
0.0312275
0.651863
-0.956445
0.844976
0.186927
-0.867996
-0.0225897
0.257465
0.756816
0.239237
-0.527479
0.696202
-0.644247
-0.797684
-0.688246
0.705805
-0.139921
0.473298
-0.419626
0.500411
-0.44364
-0.200289
0.299561
-0.897336
0.299956
0.143863
0.213827
0.332235
-0.736351
-0.655671
0.992546
0.8519
-0.272834
-0.189146
-0.628962
-0.520308
-0.787868
0.028205
0.80276
0.530081
0.175963
0.0937202
-0.390919
-0.864583
-0.829019
0.335687
0.89088
0.182407
0.736406
0.694723
0.507375
0.819763
0.861857
0.968648
-0.961402
-0.623831
0.338783
-0.775017
0.0418761
-0.822584
0.0544736
0.207298
-0.791473
-0.845636
0.791619
-0.0333399
-0.249783
0.556774
-0.459106
0.333143
0.926714
0.580937
-0.963051
-0.668427
-0.0941236
-0.38859
0.16807
0.898799
-0.13305
0.180462
0.221303
0.966033
0.569842
-0.944487
-0.600863
-0.649892
0.572744
-0.751141
-0.371881
-0.796387
0.351134
0.660277
-0.0225041
0.789186
-0.878055
-0.251876
-0.222927
0.882015
0.98293
0.595807
-0.816255
0.512737
-0.279345
0.296831
-0.931946
0.417183
0.408945
-0.696849
-0.0959761
-0.631815
0.707196
-0.370469
0.232321
-0.532778
-0.0249135
-0.77631
0.269343
0.940861
0.253553
-0.178032
0.550595
0.520672
0.534312
0.918156
0.979014
-0.881313
0.170842
-0.434604
-0.692347
-0.691884
-0.201995
-0.624847
0.587278
0.676531
-0.342992
0.822065
-0.724791
0.063061
-0.894935
-0.360875
-0.989225
0.180551
-0.430919
0.305318
0.149677
0.347489
-0.0696815
0.280288
0.305485
-0.266375
-0.141031
0.401533
0.81865
0.409424
0.916717
0.684128
-0.634679
-0.133908
0.180909
0.387498
0.0896899
-0.145683
0.991218
-0.344353
-0.389476
0.221796
0.360328
0.0956154
0.0873211
-0.211014
-0.787899
0.413606
-0.037418
-0.402426
-0.591975
0.540667
0.908843
-0.463661
-0.604117
0.69261
-0.556648
0.365078
-0.929806
-0.554286
-0.673119
-0.478974
-0.715128
0.375936
0.589631
0.336997
0.523991
0.0910041
0.336334
-0.00937289
0.0418065
0.849601
0.540397
-0.264551
0.759946
-0.541385
-0.671588
0.165662
0.863958
0.195908
0.0982386
-0.867512
0.0785256
0.436693
0.256876
-0.992803
-0.812508
0.815056
-0.544067
0.631484
-0.478319
-0.449883
-0.917558
-0.831532
-0.567112
-0.358293
-0.119771
-0.17193
-0.526167
-0.871836
-0.285787
-0.393755
0.183028
-0.794449
-0.364875
0.146196
0.153777
0.344183
0.33215
0.877314
0.630967
-0.486196
-0.651061
-0.862161
0.160705
0.93585
0.315317
-0.57526
-0.2444
-0.179594
0.555482
-0.719793
-0.896688
0.623309
0.197361
0.815653
0.0398505
0.188309
0.0321142
-0.655276
0.865201
0.33936
-0.65607
0.0563357
0.161602
0.0844124
0.515759
-0.226826
0.179986
0.516123
-0.0346329
-0.567314
-0.785425
0.0845981
0.7081
0.474866
0.847682
-0.583226
-0.810628
0.458874
0.705784
-0.0832864
-0.12628
-0.750268
0.144713
-0.442424
-0.9079
0.46428
-0.17183
-0.467764
0.790028
-0.354244
0.763028
0.634571
-0.177447
0.108581
0.32147
-0.327261
-0.674589
0.475166
0.959546
-0.949051
-0.746106
-0.312913
-0.388692
0.485188
-0.497882
-0.557669
-0.494647
-0.864767
-0.0433157
-0.52676
0.855977
-0.85954
-0.457055
0.377316
0.494754
-0.552923
0.712844
0.542406
0.0323174
0.122389
-0.894092
-0.57742
0.107525
-0.813399
-0.724514
-0.469109
-0.743455
0.88003
0.678623
0.186282
-0.986632
0.654843
-0.371426
-0.393637
0.16286
0.873716
0.934222
-0.645766
0.265814
-0.0429747
0.611719
0.560626
-0.647911
-0.304129
0.743204
0.543486
-0.746498
-0.302993
-0.550772
-0.617034
-0.325409
-0.0895467
-0.509312
-0.715901
-0.440033
0.280392
-0.541152
0.932044
0.426097
0.530266
0.36613
-0.0683404
0.428772
0.625445
0.0145055
0.396596
0.412114
-0.360714
0.372625
0.0415848
-0.0609608
0.575079
0.698636
-0.880075
0.275971
-0.432471
-0.054481
-0.722681
0.967107
0.109835
0.503534
-0.939496
0.487541
-0.761101
0.2751
0.27801
0.543277
0.580902
0.927508
0.670684
0.954131
-0.1622
-0.304252
0.0772823
-0.691712
0.613881
0.860409
0.297866
-0.658028
-0.221753
-0.166018
0.643232
0.432379
0.0781201
-0.735528
0.34717
-0.113798
-0.890455
-0.399576
-0.0992003
0.580502
-0.426887
0.830208
0.391969
0.719205
-0.0444583
0.565789
0.201166
-0.709567
0.252556
0.0234256
0.178378
-0.438424
0.359809
0.778567
-0.381141
-0.523748
-0.511655
0.23829
0.0420796
0.996994
-0.00296146
-0.33784
0.685762
0.677863
-0.129102
-0.867352
0.640619
-0.508314
-0.388707
0.271813
-0.787777
0.147909
0.348841
0.645688
0.953254
0.10157
0.821158
-0.24533
0.896742
0.698998
0.900674
0.930249
0.684307
0.696739
0.631287
0.425312
-0.239547
-0.490235
0.443231
0.299252
-0.986576
0.974852
0.48786
-0.458405
0.402326
0.452452
-0.932676
0.945974
0.496772
0.919912
0.95806
0.839706
-0.783893
-0.291331
0.301166
0.964399
0.508538
-0.850308
0.0193739
0.744731
0.576029
0.154012
0.403532
-0.458078
0.0725687
0.42861
-0.59414
-0.959251
0.998872
-0.971953
0.628243
0.345947
0.0846554
0.84146
-0.621366
-0.246683
-0.129658
-0.358704
-0.604672
-0.492925
0.834766
0.859281
-0.153088
0.55814
0.406725
-0.652456
-0.524139
0.705041
0.969906
-0.774119
0.767902
-0.757414
0.727856
-0.636667
-0.169332
0.982693
-0.975377
-0.896689
-0.681736
0.27212
-0.814981
0.182491
0.838805
-0.655023
0.695
0.236852
-0.543155
-0.648399
0.417474
-0.68792
-0.690082
-0.0559917
0.143302
-0.965166
-0.812178
-0.978208
-0.996128
-0.152831
-0.104721
0.707945
-0.205718
0.405883
0.0853503
-0.205683
0.0299292
-0.994677
0.295523
0.64055
0.320464
0.955947
0.455272
-0.896309
0.411262
-0.842252
-0.991214
0.699933
0.812568
0.719726
-0.113619
0.442935
-0.609586
0.122535
0.271172
0.159136
0.492551
-0.0141076
0.8832
-0.550313
-0.730357
0.52645
-0.687839
0.657836
-0.249419
0.972755
0.774187
0.422606
0.146137
-0.104746
0.0807793
-0.226385
-0.226421
-0.879221
0.153722
-0.226741
-0.816102
-0.20147
-0.805931
0.872845
0.581799
-0.409338
0.743192
0.256555
-0.213383
-0.146463
0.0175745
0.245417
0.901243
-0.809608
-0.254051
-0.526775
0.928431
0.683595
-0.49172
0.0841642
-0.0264737
0.402028
-0.477148
0.100673
-0.145464
-0.969948
-0.266359
0.738961
-0.858842
0.438661
0.729578
-0.416022
0.381223
0.132864
-0.173963
-0.142858
-0.154998
0.334327
-0.0661853
-0.393337
0.104946
-0.776618
0.540194
-0.483992
0.532039
0.954352
-0.830062
0.56129
0.972654
-0.486099
0.551825
-0.740154
-0.104645
0.510942
0.890682
-0.547225
0.870659
0.422091
-0.831081
-0.927005
-0.145368
-0.321466
-0.660195
-0.807244
-0.843088
0.934406
0.222858
-0.24782
0.73422
-0.274267
0.496694
-0.918787
0.391629
0.991117
0.564683
0.885431
-0.792779
0.2154
-0.566719
0.421926
-0.0862072
0.566604
-0.187404
0.701573
0.74783
-0.228261
0.175643
-0.318731
0.366126
-0.277936
-0.220068
-0.576593
0.570508
0.172985
0.977067
0.375204
-0.211286
-0.676178
0.358594
0.439327
0.333394
0.169788
0.600564
-0.713667
-0.0427519
-0.518464
-0.651064
-0.458918
-0.397707
0.244688
-0.739637
-0.365564
-0.619434
-0.521259
-0.259213
0.735018
0.271675
-0.365431
-0.210983
0.164888
0.72024
-0.817424
-0.369097
0.557222
0.332673
-0.458472
-0.13213
-0.402781
0.267154
0.472457
0.409232
0.890115
-0.64039
0.41085
-0.710438
0.0402443
0.842814
0.43476
0.603634
0.141439
-0.666416
0.614267
0.356923
0.261113
-0.265167
0.751467
-0.179645
0.368964
0.881555
-0.82632
0.941149
0.768109
-0.384315
0.740906
-0.899226
-0.784924
0.873132
0.808136
-0.214003
0.379631
-0.917264
-0.938631
-0.0342902
0.441826
0.392929
-0.777906
0.716978
-0.171278
-0.954575
-0.831484
0.147131
0.265241
0.600525
-0.585664
-0.700674
-0.608003
-0.9141
-0.240009
0.548071
0.658386
-0.203322
-0.289283
0.185767
0.53372
0.132268
-0.354175
-0.674878
-0.67413
0.133615
-0.789744
-0.0951253
0.120309
0.309021
0.750708
-0.846145
-0.851785
0.838829
0.382919
0.163083
-0.11258
-0.332905
-0.715653
0.716053
-0.447335
0.565982
-0.331236
0.868168
-0.468723
0.646412
-0.491332
-0.76135
0.487766
0.543129
-0.898057
0.0292998
-0.952163
0.586629
0.985719
-0.482211
0.462216
0.557643
-0.780616
-0.551482
0.75784
0.377223
0.707705
0.277418
-0.5458
-0.501163
-0.187176
0.690743
-0.167257
-0.574066
0.0906529
0.940377
-0.594376
-0.826557
0.444154
-0.795773
0.0759979
-0.47503
-0.544207
0.930927
-0.513624
0.415727
-0.932097
-0.339415
-0.783918
0.907261
-0.672171
-0.518811
0.346925
0.133183
0.590996
0.593321
-0.967859
0.810466
0.646821
0.579994
-0.826701
0.860362
-0.251249
-0.763944
0.260057
0.204305
0.820516
-0.818861
-0.483353
0.63756
0.287406
0.0963743
0.416216
-0.0128209
-0.563486
-0.920926
0.59035
0.58771
-0.882681
-0.751468
0.428193
-0.0790512
0.408745
-0.0364524
0.0107874
0.433971
-0.162737
0.587995
-0.723976
-0.151886
0.350317
-0.919221
-0.196392
0.382155
0.829125
0.363054
0.724702
-0.676461
0.0448543
-0.342796
-0.0944454
-0.71375
0.983593
0.183532
0.66797
0.693257
-0.968951
-0.217114
0.362571
-0.178026
-0.958713
0.403858
-0.394553
-0.134231
0.520203
-0.194799
0.958155
-0.487604
0.52008
-0.712442
0.339576
0.546659
-0.865866
-0.550616
-0.898405
-0.118666
-0.751782
0.682461
0.105828
-0.454777
-0.71912
-0.138904
-0.536043
0.754358
0.634145
0.070705
-0.960934
0.912209
-0.621766
0.557135
0.0703651
0.78388
0.977794
-0.0040495
-0.195122
-0.8691
-0.869348
0.590207
0.873962
-0.659654
0.643941
-0.63559
-0.898601
-0.352654
0.357176
0.259087
-0.0802867
0.9137
0.0219689
-0.0191865
0.934521
0.353034
-0.200962
-0.204132
0.263897
0.00756094
-0.471114
-0.944653
0.359072
0.827673
0.712561
0.434367
0.639972
0.521016
-0.0443802
0.0465444
0.98736
0.662433
0.221509
-0.040547
-0.210455
0.136858
-0.0768024
-0.808062
0.355399
-0.61165
-0.820659
-0.712627
-0.757089
-0.734247
0.905233
-0.922806
0.735884
0.615824
-0.362829
-0.393753
-0.690798
0.836286
-0.15422
0.497149
-0.409864
0.0537319
0.129656
0.677372
-0.159593
-0.344916
0.152149
0.554096
-0.701551
-0.171383
-0.0460812
0.853072
-0.562944
0.344395
-0.288568
-0.324962
-0.931889
-0.161116
0.892007
-0.615613
-0.320638
-0.289794
-0.238889
0.028434
0.990557
0.755877
0.415282
-0.328011
0.69614
0.8022
0.938285
0.682295
-0.89606
0.723176
0.309518
0.256273
0.924842
-0.102456
0.638678
0.769316
-0.985359
0.807384
0.872379
0.547681
-0.730457
0.1737
0.935722
0.911054
0.141014
0.818152
-0.639655
0.565856
0.0297592
0.931168
0.741676
-0.797992
0.964913
-0.757873
0.200034
0.286323
-0.048543
0.885265
-0.36314
-0.834247
-0.188654
0.724966
-0.370732
0.585984
0.542669
0.266733
-0.150274
-0.730858
-0.376169
-0.212483
0.896119
0.233753
-0.60039
-0.745786
-0.760351
0.816891
0.962814
0.276708
-0.0804495
-0.109721
-0.294766
-0.392732
-0.184074
-0.652288
-0.973231
0.428654
-0.59681
0.660758
-0.709342
0.276888
-0.67935
0.0144659
-0.119624
-0.639066
-0.205885
-0.612592
-0.30907
0.241109
-0.290259
-0.145338
0.271418
0.312945
0.191474
-0.426711
-0.519908
0.846533
-0.0144411
-0.656079
0.427821
-0.982297
-0.664893
-0.40331
0.836546
-0.467689
-0.233822
0.173895
0.0485215
0.215393
0.142269
0.705413
-0.23178
0.971299
0.220532
-0.192588
0.336611
-0.491555
0.9109
0.172849
0.718044
0.383823
0.555279
0.0374979
-0.629529
-0.490138
0.270825
-0.0471846
-0.626204
-0.937313
-0.891617
0.513199
0.368382
0.550958
-0.760385
0.18772
-0.577658
-0.00623353
0.286035
0.994006
0.474348
-0.908352
0.327764
0.00466932
-0.283146
-0.135273
0.0737105
-0.0440193
-0.422338
-0.584134
0.538207
-0.823264
-0.133413
0.725108
-0.341254
0.0965141
0.375965
0.196643
0.3181
-0.568319
0.612302
0.0942281
0.821019
-0.729008
0.401375
-0.920167
0.046185
-0.542017
0.516467
0.409054
0.17991
0.443451
-0.625083
0.0514675
-0.437573
-0.523073
0.988125
0.475848
-0.637605
0.129889
0.344655
-0.198309
-0.869149
-0.286966
0.731665
0.355144
-0.0975275
0.353703
-0.295174
0.723069
-0.123413
-0.259167
0.385678
-0.356176
0.448131
-0.828721
0.164624
-0.811226
0.620923
0.338387
0.467766
0.454348
0.219651
0.664106
0.266763
-0.774536
0.957582
-0.745893
-0.703129
0.408452
-0.506668
-0.491008
-0.707987
0.350009
0.561436
0.954029
0.0897431
0.999218
0.0587137
0.761738
-0.872869
0.929505
-0.386537
-0.0512062
0.845967
-0.129861
-0.809496
0.450399
0.838631
-0.887739
0.256557
0.736772
-0.53796
-0.881567
-0.956996
0.769472
0.175087
-0.800322
0.623764
-0.262335
0.345073
0.208342
0.532987
0.910456
0.832037
0.963722
0.169948
-0.758711
0.689257
-0.628795
0.497739
-0.879112
-0.0126565
0.861967
-0.210127
0.359173
0.533317
-0.527423
-0.801879
-0.546896
-0.648777
-0.638079
0.520117
-0.758053
0.734773
-0.757302
0.0822635
-0.154387
0.773971
-0.341349
0.499195
0.413436
-0.92313
0.495137
-0.866337
0.674083
0.315739
-0.0455487
-0.700273
0.972717
0.866643
0.499428
-0.901799
0.715639
0.606549
0.1666
-0.251573
-0.371667
0.587663
0.0270675
0.417754
0.589249
0.311071
0.438981
-0.0858406
-0.945785
-0.561432
-0.243787
-0.206177
0.166658
-0.438521
-0.844359
0.0712445
0.894763
-0.0814189
0.698982
0.962765
0.19245
-0.666907
0.289107
-0.865341
-0.103056
-0.986222
0.106234
0.484947
-0.591521
0.91127
-0.136456
0.315728
-0.889875
-0.00703317
0.908257
0.133325
0.847009
0.834393
-0.927379
0.56136
-0.130216
-0.660398
0.165769
0.812672
0.638605
0.996609
-0.835801
0.716824
0.369096
-0.0737683
0.234194
0.84885
-0.325105
0.95529
0.588734
-0.708479
-0.977183
0.180578
-0.614841
-0.0417246
0.773013
-0.0879627
0.105542
0.209172
-0.459243
-0.302601
0.482686
-0.759127
-0.392361
-0.677636
0.550847
-0.0117355
-0.346473
0.517883
0.977574
-0.864436
0.608215
-0.361974
0.793799
0.425593
0.77114
0.128384
0.96197
-0.564495
-0.736952
0.297293
0.0414069
-0.954856
-0.494555
-0.877088
0.317144
0.181014
-0.171352
0.752285
-0.899397
-0.673438
-0.0497607
-0.571173
-0.908978
-0.468675
0.311795
0.0588284
-0.534576
0.0418536
-0.111686
0.0128201
-0.841996
0.561995
0.773473
-0.646895
-0.830453
-0.0940233
0.682581
0.0642878
-0.0578466
-0.656979
0.497936
-0.59929
0.229204
0.186379
-0.491192
0.795826
0.52583
-0.376599
0.37683
0.327548
0.902293
0.198741
-0.0814711
-0.199621
0.20562
0.81937
0.981088
0.977419
0.628334
-0.129128
-0.0610796
-0.699097
0.414106
-0.366578
-0.607005
0.195616
-0.402704
0.475935
-0.926003
0.958366
0.517335
-0.525929
-0.162105
-0.861349
-0.563012
0.869229
0.512883
0.0449291
-0.70792
0.671898
-0.234217
0.938855
0.474979
0.142761
0.64377
-0.650653
-0.457237
-0.940372
0.0504473
0.569182
-0.845528
-0.142474
0.44826
-0.935607
-0.602094
-0.170944
0.38773
0.412714
-0.236214
0.664672
0.924915
-0.920454
-0.556164
-0.573574
-0.989868
0.33257
-0.769097
0.468703
0.952715
0.789611
0.225999
-0.613518
0.0591278
0.295232
-0.266827
-0.516879
0.507099
-0.757198
0.353288
0.858917
-0.010217
0.219492
0.358532
-0.461341
0.205674
0.477239
-0.791628
0.246943
0.977925
-0.345177
0.603486
0.826566
-0.212314
-0.767316
0.0971026
0.856254
0.458366
-0.862848
-0.895625
0.89412
-0.679254
0.874733
-0.437363
0.743647
-0.356655
-0.373384
0.672307
0.156844
-0.319694
0.331578
0.54501
-0.941931
0.153593
0.301068
-0.56153
-0.548338
-0.838218
0.118834
-0.915547
0.0829284
0.740085
0.160695
-0.28467
0.227479
0.962229
-0.884177
0.346845
-0.0830528
-0.517208
-0.606716
-0.959411
0.854456
-0.292121
-0.34289
-0.107751
-0.728085
0.823422
0.2563
-0.205406
-0.769495
0.205834
0.715937
0.312585
-0.780821
-0.677668
0.351073
0.768188
0.373294
0.162651
-0.518355
-0.367968
0.88274
-0.874461
-0.403948
0.106874
0.00833453
0.739506
0.47102
0.193879
-0.944669
-0.214085
-0.0497999
0.168437
-0.701545
0.503079
0.463914
-0.849918
-0.495127
-0.696628
-0.00573223
-0.994958
-0.192729
-0.416737
-0.983623
0.124874
0.342218
0.0320633
0.846804
0.417125
-0.45101
-0.336763
0.0799218
0.141368
-0.762887
0.448299
-0.426579
0.825223
0.549194
-0.195582
0.343437
0.480155
0.497816
-0.318903
-0.758045
0.567258
-0.274037
0.0482285
0.314662
0.781472
-0.929173
0.177992
-0.917183
-0.347462
0.0980084
0.238611
0.871015
0.407619
0.370709
0.911922
-0.167041
-0.509837
0.336233
0.573633
-0.96504
-0.150147
-0.484019
-0.86928
0.273538
0.658265
-0.502604
-0.978496
0.067001
-0.205918
-0.974401
0.808938
-0.784533
0.391906
0.413332
0.925776
0.619761
0.352257
0.321529
0.68244
0.743733
0.141228
-0.343549
-0.123551
-0.340482
-0.0785618
-0.513533
0.0293895
-0.599549
-0.712155
0.261988
0.238139
0.13693
0.150081
-0.358266
0.206981
0.168301
-0.0937887
0.937288
-0.540248
0.603466
0.976621
0.571185
-0.961064
0.361451
-0.389885
-0.68188
-0.447113
-0.120785
-0.144381
-0.395493
-0.500039
0.699617
-0.672963
0.112229
-0.221569
-0.285183
0.453606
-0.164875
0.193399
0.243384
-0.983206
-0.713097
0.494198
0.547135
-0.61673
0.743226
0.901532
0.0843777
-0.154698
-0.776544
0.358812
-0.337503
-0.153029
-0.609944
0.910478
-0.185942
-0.41109
-0.691788
0.306454
0.366362
-0.783684
0.957552
0.447181
0.025365
-0.938713
0.195633
-0.934829
-0.397032
0.194118
0.494265
-0.80963
-0.43484
0.70805
0.941103
-0.272658
-0.818225
-0.00636411
0.737742
0.798686
0.562427
0.93391
0.53075
-0.546813
-0.855576
-0.942166
0.463632
-0.372342
-0.834601
-0.278783
-0.302938
0.772949
0.745456
0.241839
-0.545657
-0.151762
-0.608523
0.405448
0.332841
-0.849357
-0.978083
-0.905368
-0.114834
0.0331243
-0.472979
-0.907667
0.302395
-0.51794
0.991485
-0.0985788
-0.306636
-0.0568989
-0.890219
-0.867081
0.997679
0.0219396
-0.854339
0.486006
-0.674223
0.724156
-0.315051
-0.682957
-0.401565
-0.129969
-0.905934
-0.577119
-0.846895
-0.982857
0.246522
-0.997678
-0.3308
-0.407015
0.967799
0.271658
0.794098
-0.41472
0.558848
-0.735114
0.462386
-0.181166
0.504283
0.721834
-0.38957
-0.0192223
0.398957
0.339761
-0.904538
-0.286972
-0.387018
0.123772
-0.286823
0.500415
0.168452
0.112898
0.631599
0.129816
-0.339187
0.782201
0.964321
-0.779096
0.294477
0.233539
-0.983047
0.929982
-0.281956
0.601385
-0.338158
-0.741622
-0.627564
-0.465291
0.814115
0.465737
0.569901
-0.803463
0.86451
-0.437619
0.0988806
0.881278
-0.279941
-0.444177
-0.573902
0.42393
0.642555
-0.466774
-0.298833
-0.690803
0.968263
0.408659
-0.0500958
-0.567456
0.93301
-0.457375
-0.208821
0.376115
0.888505
0.898609
-0.519633
-0.197004
0.133565
0.0409931
-0.646357
0.012756
0.134149
0.360239
0.135731
0.114854
-0.913649
-0.649131
-0.0747623
0.846062
-0.614412
0.637682
0.863053
-0.628611
0.683186
0.474371
-0.0710803
0.959248
-0.300173
-0.489009
-0.561524
-0.888873
-0.0336632
0.283666
-0.401421
-0.639434
0.0999993
0.818637
0.924566
0.74854
0.303988
0.316916
0.962357
0.0516962
0.484984
0.605081
0.155571
-0.288466
-0.0128647
-0.931815
0.948642
-0.48165
0.488065
-0.555415
0.448424
-0.718673
0.424737
-0.86167
-0.163021
0.709786
0.524939
-0.272779
0.926756
0.690687
0.00651654
0.904869
-0.00317704
0.130591
-0.054794
-0.833971
-0.859695
0.597131
-0.000622397
0.657884
-0.527614
-0.859728
-0.462769
0.937768
-0.16179
0.631194
0.541079
-0.870955
-0.418987
0.160613
-0.0865101
-0.36056
0.865832
-0.815653
0.323909
0.140413
-0.120946
0.0367328
0.893075
-0.242625
-0.714295
-0.478967
0.66709
-0.350955
-0.493163
-0.745871
-0.395686
0.939725
-0.843956
0.218672
-0.430827
-0.294122
0.292397
0.726472
-0.969019
0.115322
-0.98323
-0.213273
0.828636
-0.358853
-0.974408
-0.702631
-0.585042
-0.928035
-0.137188
-0.83566
-0.224435
-0.354586
0.255795
-0.439812
0.970576
-0.345782
0.71877
0.24944
0.623504
0.206233
0.849291
0.95449
0.23709
-0.864503
-0.123722
0.864154
0.913461
0.315563
-0.853941
0.880835
-0.235074
0.555493
0.61517
0.375834
-0.702547
0.880586
-0.0284014
0.921431
-0.487048
0.112856
0.801821
-0.430048
-0.00315823
-0.649293
-0.0119985
0.162275
0.32817
0.0643626
0.142807
-0.689446
0.671133
-0.78394
-0.090528
-0.916817
-0.814131
-0.994363
-0.930726
-0.974054
0.145774
-0.26207
0.961023
-0.484751
0.48742
-0.105201
-0.762804
0.121728
0.472891
-0.960911
0.625085
0.761036
-0.355465
-0.270721
-0.549047
-0.949785
0.136803
-0.487885
-0.800723
-0.869034
0.42295
-0.60268
0.452424
-0.0452027
-0.133483
0.396332
-0.0203787
-0.129909
0.0751319
-0.100436
-0.534936
-0.440314
-0.519674
0.329105
-0.0130251
0.732631
0.16076
-0.127597
0.642204
-0.710024
-0.536995
0.694787
-0.929513
-0.692628
0.135351
-0.856351
0.641048
-0.516089
0.564001
0.67471
0.950399
-0.394789
-0.718429
-0.087652
-0.571343
-0.00133304
0.605386
-0.955838
0.303512
-0.609161
0.364378
-0.93154
-0.876575
0.512949
-0.0987343
-0.0325933
-0.65182
0.273771
-0.489685
0.154389
0.18536
0.394135
-0.784314
0.309344
-0.44831
-0.330386
-0.757104
-0.480769
0.590705
0.124659
-0.97599
0.312521
-0.938598
-0.599323
-0.649831
0.327881
-0.238747
-0.0282368
-0.00690908
-0.119248
0.252046
-0.0742594
-0.682817
0.261031
0.965921
0.83674
0.05849
-0.83429
0.385102
-0.0280182
0.425227
-0.0216433
-0.32805
-0.965813
-0.747638
0.670403
-0.207843
0.68778
-0.698646
-0.283934
0.895356
-0.871201
-0.476482
0.663561
0.222721
-0.656688
-0.304168
0.751284
-0.0149896
0.896637
-0.80842
0.341498
-0.962078
0.0765607
-0.428184
0.889586
0.472012
-0.02021
0.390018
-0.120878
0.785076
0.21556
0.210668
0.618324
-0.374244
0.867792
0.878265
-0.72066
0.354122
0.303398
0.967999
-0.882799
0.514381
-0.819597
-0.533893
0.940984
0.760159
-0.604596
0.110707
-0.440356
0.928908
-0.669824
0.701451
-0.257049
0.311399
-0.0306525
-0.358914
-0.68658
0.766423
0.539218
0.36567
-0.529072
-0.992022
0.502051
-0.581934
-0.308341
-0.330054
-0.0285136
-0.285646
-0.130739
-0.315666
-0.963158
0.187985
0.571153
0.525237
-0.581579
0.213303
0.363857
-0.345395
-0.499627
0.581286
0.261285
0.81647
-0.513084
0.265444
-0.13044
-0.694215
0.242835
0.24551
0.0477541
-0.589468
0.507356
-0.247287
-0.411139
-0.403859
0.465387
-0.503593
0.168456
0.156044
0.131271
-0.208102
-0.36476
0.75875
-0.686081
0.629337
-0.440286
0.129182
0.910415
0.230392
0.15236
-0.159888
0.396767
0.691293
0.455197
0.469732
0.283843
0.0972253
-0.249305
0.0963528
-0.724958
0.734633
0.976498
0.92461
0.346829
0.476751
0.546082
0.724616
-0.922279
0.356744
0.223492
-0.547551
-0.464774
-0.913238
-0.139931
0.924828
-0.190328
0.675635
-0.945763
-0.458371
0.931148
-0.780202
-0.270169
-0.132913
0.149328
-0.200393
-0.26169
0.255505
0.280603
0.64586
0.775808
-0.217484
0.573689
0.319871
0.974122
-0.557612
-0.98902
0.576668
0.688106
-0.899517
-0.498108
0.388199
-0.620109
-0.965845
-0.453932
0.856094
-0.38189
0.322696
-0.185413
0.53736
0.499587
0.90623
0.0385282
-0.831673
-0.900367
-0.845283
-0.415134
-0.439648
-0.39067
0.382959
-0.725468
-0.755214
-0.225686
-0.691932
0.147526
0.485079
-0.833685
0.146267
-0.0474819
-0.197244
0.158883
-0.658865
0.736933
-0.0356137
-0.388468
0.0417858
-0.202196
0.263173
-0.0327028
-0.0753167
-0.160186
-0.752976
-0.580849
0.0754986
-0.952944
-0.828072
-0.91138
-0.00213742
-0.862226
0.303339
0.779595
0.755244
-0.278629
0.688528
-0.77805
0.423157
0.455371
0.650183
-0.890024
0.855274
0.803992
-0.492106
-0.617445
-0.0461717
-0.516883
0.952747
-0.295312
-0.331622
-0.0515234
-0.854467
-0.981222
0.594955
0.21074
0.576709
-0.729393
0.858916
0.665341
0.643281
-0.68283
-0.230729
0.98461
-0.0776954
-0.164514
0.141427
0.0700387
0.442239
0.423701
-0.908424
0.894211
0.592634
-0.425225
-0.816678
0.222338
-0.578468
-0.228238
0.0105554
-0.203923
-0.768297
-0.528781
-0.633532
-0.153029
-0.0840957
0.483116
-0.905547
0.699614
0.213421
0.403266
-0.658652
0.797672
-0.0978181
0.895781
0.317097
-0.532254
0.270969
0.252407
-0.331256
-0.98852
-0.51596
0.673278
0.343359
-0.173645
0.626663
0.926263
0.26779
0.0507717
0.897482
0.306493
-0.337478
-0.481783
-0.470024
-0.784384
0.813331
-0.124496
-0.88611
-0.404036
0.693061
0.0311567
0.197241
-0.807742
-0.883032
-0.728217
0.509656
-0.851244
0.848226
-0.442265
0.808074
0.0669086
0.760321
-0.364844
-0.358436
-0.219818
-0.610828
-0.427307
-0.854333
0.540355
0.110559
0.0684121
-0.274987
-0.501419
0.475667
0.484114
0.56975
-0.61243
0.639897
0.069555
-0.863517
0.982904
-0.897128
0.755647
-0.576265
0.587392
-0.177456
-0.477626
-0.342081
0.819472
-0.738729
0.263969
-0.893224
-0.696767
0.0608547
0.642226
0.538047
-0.606985
0.227262
-0.718849
0.382844
0.290537
-0.759413
-0.763525
0.142909
0.329011
0.104844
-0.323247
-0.147591
-0.160048
0.634337
0.625347
0.477649
-0.0511942
-0.735788
0.201992
-0.321661
0.460852
-0.69616
0.617797
-0.816133
0.32597
0.160959
-0.951568
-0.363848
0.168084
0.895963
0.0483018
0.751607
0.221776
0.169982
0.266218
-0.650234
-0.544528
0.783885
0.554336
-0.367665
0.429639
0.531078
0.081961
0.177397
0.822859
0.874072
-0.489397
0.698991
-0.127168
-0.721399
0.673938
0.6283
0.0691366
0.0813034
-0.665076
-0.92849
0.176712
-0.884545
0.542376
0.419524
-0.528059
0.468155
0.742019
-0.289072
-0.623821
0.592067
0.255152
0.322908
0.44537
0.351973
0.945251
-0.617506
-0.078983
0.663899
0.0543115
-0.193977
-0.699692
0.301523
0.292698
-0.402062
0.206228
0.726432
-0.423586
0.136814
0.327626
-0.122869
0.372801
0.969351
0.481429
0.564449
-0.230243
-0.899813
-0.417259
0.212283
-0.763891
-0.958143
-0.817172
-0.697163
0.984138
0.765815
0.470713
0.0912788
-0.946492
-0.88045
0.483251
-0.590974
-0.836132
-0.150051
0.514264
-0.953314
0.267623
0.858931
0.170137
-0.927452
0.0923577
-0.869969
-0.467189
0.181982
0.0929478
0.476335
0.838396
-0.124872
-0.283366
0.0994287
0.868811
-0.0811024
0.0815225
-0.699384
0.824438
0.565069
0.722768
-0.409369
-0.731611
-0.324364
-0.605116
0.0996071
0.309677
-0.0373784
-0.261764
0.448737
-0.443524
-0.398732
-0.590727
-0.881331
0.586228
0.548386
-0.195161
0.503117
-0.657662
0.923252
-0.670035
0.0918608
0.604509
-0.875293
-0.904124
-0.936383
0.649611
-0.790842
-0.398134
0.621081
0.611868
0.0904106
-0.756171
-0.0412954
-0.414362
-0.099665
0.0774067
-0.734247
-0.0566515
0.332103
-0.900072
0.736469
-0.0518698
-0.155622
-0.860969
-0.554583
0.840134
0.510678
0.264509
-0.93461
0.0128583
0.234907
0.272452
-0.667212
-0.170145
0.548177
-0.390474
-0.692815
-0.399661
-0.345706
-0.638688
-0.0518489
0.276125
-0.111036
0.0113701
0.2384
-0.379756
-0.578184
-0.122256
-0.907567
-0.430837
-0.00366499
-0.916481
-0.500956
-0.402583
0.227312
0.919786
-0.0843242
0.232379
-0.0222912
0.276719
0.502353
-0.475493
-0.104303
0.328885
0.414243
0.496912
0.885032
0.0806999
-0.407571
-0.696386
0.988071
0.488736
0.473855
0.153016
-0.429776
0.829861
0.176266
-0.206955
-0.972037
0.834486
0.176035
-0.545726
-0.248167
-0.684516
0.74126
0.210787
-0.455716
0.964749
0.645601
0.505131
0.934085
-0.563805
-0.512238
-0.490278
0.190334
0.468057
0.575952
0.634491
0.696443
-0.293655
-0.613707
0.0681595
0.6064
-0.930467
-0.569707
-0.857113
0.311264
-0.657686
0.611642
-0.419729
-0.335808
-0.489816
-0.759294
0.508009
-0.350908
-0.140316
0.511132
-0.615483
-0.735432
-0.309615
0.913341
0.643117
0.895559
0.639573
0.531913
0.634198
-0.0443104
0.0407496
-0.0031738
0.125178
-0.269153
0.760357
0.862234
-0.307274
0.296973
0.827703
0.982307
-0.555739
-0.687895
-0.458653
0.934215
0.927306
-0.885113
0.157765
0.377369
0.273073
0.651149
0.707935
-0.609288
0.678145
-0.420144
0.81363
-0.967582
-0.484788
0.794273
-0.136944
0.636461
0.596391
0.379236
0.736831
-0.503076
-0.536988
-0.412104
0.0377548
0.673756
-0.227509
0.16953
-0.0341344
0.544262
-0.21936
0.753266
-0.505997
0.565489
-0.882335
0.96171
0.145328
0.42771
-0.774687
-0.504619
-0.334186
-0.426524
0.314727
0.126714
-0.659265
0.916493
-0.970663
0.935727
-0.849901
-0.21245
-0.679509
-0.696092
0.825363
-0.290408
-0.312126
-0.714594
-0.0034096
-0.109009
0.880517
-0.346526
-0.25045
-0.563644
0.532162
0.864676
-0.803458
-0.399552
-0.192037
0.614426
0.159574
-0.873189
0.915129
0.826865
-0.767162
0.273564
0.881835
-0.386885
0.702347
0.770835
-0.903852
-0.240916
0.829488
-0.804874
0.135924
-0.987166
0.53381
-0.615738
-0.0160676
0.209131
0.626415
-0.867398
0.0382701
0.00330476
-0.55695
-0.138752
-0.218685
0.627393
0.405809
0.894535
-0.398045
-0.900461
0.0107983
-0.183894
0.27296
-0.785451
0.709224
0.830335
-0.178398
-0.547228
0.740134
0.604099
0.00678255
0.730304
0.209978
-0.522426
0.995923
0.271878
-0.471187
0.75956
-0.0578431
-0.554659
-0.956689
-0.107015
-0.524795
-0.688138
0.596835
-0.79901
-0.727288
-0.891862
-0.552851
0.595936
-0.836368
-0.393264
-0.960552
-0.273357
-0.958855
-0.921174
0.0502477
0.529196
0.508231
-0.290159
0.407292
-0.455014
-0.43958
-0.775334
0.368082
-0.248499
-0.208343
0.735152
-0.370005
-0.501473
-0.993274
-0.513105
0.496214
-0.18851
-0.935204
-0.322591
-0.968613
-0.313471
0.634276
-0.713066
0.426642
-0.00110406
0.123182
-0.130619
-0.206848
0.124235
0.832662
-0.404063
0.330432
-0.179136
-0.00804444
-0.675786
-0.76386
0.146771
0.0718188
-0.408613
0.4026
-0.287071
0.907775
-0.633596
0.977391
0.836518
0.743346
-0.533493
0.378045
0.991443
-0.343214
-0.274692
-0.997615
0.10345
-0.925996
-0.571568
-0.644196
0.853419
0.58806
0.999212
0.84544
0.291821
0.275483
-0.631646
0.320846
0.192659
-0.423034
0.501478
0.354411
-0.944341
-0.169085
-0.0533751
-0.932909
0.276406
-0.769467
-0.583652
0.361512
0.427227
0.617399
-0.0919331
0.10226
0.914665
0.706942
-0.0795615
-0.00968501
0.496712
-0.57485
0.327494
0.554662
-0.345269
0.663839
0.467037
0.299658
0.928057
-0.642294
0.182728
-0.896067
0.746335
-0.944727
-0.216216
-0.501577
-0.345002
0.583961
-0.837845
0.522219
0.148235
0.764626
-0.699645
-0.939173
-0.467006
0.961614
0.936124
-0.460752
0.684937
-0.609044
-0.298721
0.730078
0.466889
0.162955
-0.743732
0.434178
-0.387336
0.898808
0.0900253
-0.381037
0.590791
0.107731
0.194088
-0.990935
-0.683468
0.296562
-0.145964
0.399115
-0.554231
0.744183
0.589901
-0.586733
0.636332
0.026024
-0.26363
-0.0835646
0.78264
-0.48186
-0.644472
-0.334993
-0.593835
0.325987
-0.151854
0.478329
0.611243
-0.768582
0.65886
0.655832
0.193601
-0.524875
0.39701
-0.470874
-0.575766
0.414578
0.215702
-0.0743976
0.936902
-0.475383
-0.239673
-0.536739
0.142588
0.825435
-0.0759402
-0.439858
0.204247
0.898488
0.197856
-0.078516
-0.738378
0.233529
-0.101684
-0.809404
-0.863209
-0.930249
-0.0228492
0.0735934
-0.0794885
-0.737886
0.59548
0.263033
0.787775
0.412982
-0.0240389
0.111853
0.174889
0.733031
-0.827011
0.498746
0.532794
0.289061
0.929416
-0.537505
-0.378722
0.696167
-0.522716
-0.219816
0.501737
0.435384
0.405799
0.0683951
0.70374
0.124033
0.134662
0.574404
0.570762
0.81492
0.323219
0.5042
-0.472737
-0.886686
0.100659
-0.55466
0.353128
-0.779925
0.360523
0.655917
0.809046
-0.640914
-0.278495
-0.791784
0.840511
0.132411
-0.0307086
-0.769847
0.718004
-0.346295
-0.12907
-0.156198
0.871909
0.606813
-0.140223
-0.546092
-0.215587
-0.788791
-0.891141
0.0478892
0.41723
0.445062
-0.721176
0.812174
-0.0159736
-0.194193
0.72942
0.455529
-0.0645073
0.0357343
0.9864
-0.544388
0.266112
-0.268162
-0.724282
-0.971015
0.32974
0.553114
-0.0475537
-0.739226
0.365919
-0.120032
0.31884
0.139365
-0.437094
0.334927
0.99206
0.408083
0.641934
-0.484485
0.527844
-0.726454
-0.759822
-0.326199
0.788481
0.421882
0.536056
-0.176323
0.320717
-0.625837
-0.960739
-0.233215
-0.075658
0.502075
0.230007
0.607854
-0.431045
-0.278551
-0.220649
-0.307194
-0.94012
0.338201
-0.0517081
0.667667
-0.64926
-0.751659
0.0121644
0.0482703
-0.582655
0.856926
-0.715779
0.741772
-0.805818
-0.997459
-0.35464
-0.791118
0.560926
-0.167541
-0.916255
0.144664
0.863431
-0.896025
0.298102
-0.163864
-0.645902
-0.419584
-0.857475
-0.216676
0.414271
-0.00663056
-0.159505
-0.790136
0.931357
-0.94084
0.254859
-0.891288
-0.0178411
0.0274268
-0.116933
-0.756429
-0.461105
0.618676
0.998833
0.738728
-0.435526
-0.451656
-0.140581
0.627208
0.178861
0.365541
0.050211
-0.0165782
0.920104
-0.559812
-0.215367
0.442414
-0.865603
0.65358
-0.211679
-0.69014
0.633284
-0.118096
-0.226036
-0.191858
0.65775
-0.436706
0.490386
-0.0967837
-0.625028
0.516506
-0.0291979
-0.360002
0.371325
-0.600812
0.506445
-0.0877348
-0.556165
0.578248
-0.340149
0.444475
-0.738386
0.212617
0.465219
-0.288368
0.780279
0.65436
-0.969087
0.219695
-0.461463
-0.8512
0.781987
0.569761
0.820771
0.705188
-0.689374
0.997137
-0.912217
0.0201606
-0.477281
0.480736
-0.203984
-0.273664
0.793949
-0.665783
0.761329
-0.0758226
0.0244414
-0.40031
0.375411
-0.991306
-0.315844
-0.844492
0.331407
0.952422
0.579995
-0.284272
0.921501
-0.663022
-0.410461
0.740736
0.575738
-0.921491
-0.0339438
-0.49712
-0.958003
0.66469
0.0269742
-0.629395
0.666952
-0.833837
0.626493
-0.0912193
0.613245
0.813169
0.346976
-0.833101
-0.193308
0.704664
-0.0811634
-0.0276153
0.997868
-0.435341
-0.878209
0.00117303
-0.125053
-0.642601
0.989844
0.606189
-0.209376
0.154105
0.227557
-0.0032288
-0.2422
0.700314
0.566831
0.435055
0.10035
-0.38837
-0.396506
-0.888238
-0.0282273
0.630536
-0.765337
-0.347115
0.112195
0.667434
0.985561
0.565806
0.220603
-0.158526
0.614003
-0.959983
0.473182
-0.996898
0.788937
0.461842
0.60032
-0.510788
-0.735419
-0.221613
-0.0945612
0.5181
-0.246819
-0.146127
-0.688914
-0.28397
-0.891987
-0.491897
-0.624704
0.285937
-0.0225366
-0.0341661
-0.274978
-0.0606729
0.0503983
0.697841
-0.81176
0.132769
0.916488
0.444713
-0.134572
-0.358711
0.868811
0.76021
-0.243685
0.984751
-0.999518
0.586079
-0.522571
-0.110801
0.0833366
-0.913225
-0.674992
-0.723395
-0.827605
0.475327
0.485876
-0.166199
-0.990221
0.0821556
0.711371
0.230643
0.868419
0.308791
-0.00568021
0.792134
-0.0251349
-0.948554
-0.537109
0.526323
-0.658577
-0.0102831
0.10319
0.886962
-0.363119
0.658984
0.226402
0.30581
0.704329
0.338403
-0.606019
-0.555634
0.222699
0.897809
0.300019
-0.850098
-0.309667
-0.70404
0.783859
-0.601404
-0.0748503
0.379922
-0.485141
-0.0068835
0.324112
0.00311224
-0.83202
0.658326
-0.441774
-0.209334
-0.787507
0.433075
0.707936
0.699883
-0.707788
0.156067
-0.766413
-0.0537321
0.0156976
-0.56183
-0.0511194
-0.981004
-0.363165
-0.86745
0.300385
-0.948251
0.33422
-0.931208
-0.111926
-0.564747
-0.257806
-0.899518
0.0814224
0.477156
-0.896103
-0.498753
0.740204
0.385108
0.370158
0.887138
0.0421825
-0.346763
-0.873365
-0.620179
0.011264
0.885113
0.170645
0.172859
-0.0547177
0.533405
-0.439622
0.321261
0.134784
-0.645131
-0.889659
0.0225718
-0.728587
0.477023
-0.397665
0.257288
0.151557
-0.210444
-0.178843
0.0500534
0.728853
-0.620228
0.215386
-0.775423
0.455142
0.429071
-0.761159
-0.940285
-0.97285
0.410031
0.86672
-0.802034
-0.864818
-0.364723
0.427557
-0.721719
-0.743413
-0.194073
-0.320602
0.611488
-0.227142
0.815786
0.324137
-0.381199
-0.806438
-0.154082
0.141683
0.323144
-0.322467
0.922183
-0.713903
0.812024
0.643022
0.326449
-0.42439
0.953168
0.500947
-0.697479
0.790408
0.695223
0.532621
-0.336547
-0.0645845
-0.238137
-0.0749385
-0.497595
0.405389
-0.533843
0.889269
-0.919837
0.188083
0.531904
-0.308085
-0.0140951
0.246001
0.289933
0.0572685
0.25189
-0.477597
0.281353
-0.371353
0.687003
0.523175
0.289081
-0.441756
0.24914
-0.0604054
0.0574344
-0.481928
0.804244
-0.489243
0.652279
-0.153408
-0.346341
-0.602345
-0.452529
0.67499
-0.684313
-0.721029
0.364701
-0.119815
0.31765
0.61327
0.792192
0.910653
-0.681765
0.88125
-0.106931
-0.0954139
0.394675
-0.130756
0.897957
0.202601
0.484857
-0.668341
-0.948956
0.140043
-0.00859923
0.732044
-0.681723
-0.165681
0.685165
-0.327003
-0.774306
0.164052
-0.92742
-0.546786
0.0113218
-0.971043
0.129289
0.711097
0.163334
0.698284
0.0973661
0.0100275
0.57896
0.487161
0.173599
-0.728094
0.578717
-0.406885
-0.762798
-0.726767
-0.765083
-0.645828
0.615361
-0.847231
0.192784
0.109341
-0.503314
0.284517
0.289832
-0.672462
-0.292178
-0.147986
0.881689
-0.0614767
0.0145328
0.885761
-0.139157
0.789798
0.296101
-0.697018
0.984673
0.484813
-0.599324
-0.15423
0.879922
0.616349
0.151127
0.832247
-0.936725
-0.122508
0.713522
-0.613518
0.325008
-0.769178
0.998439
-0.514011
0.515173
0.136798
-0.770217
0.481459
0.706054
0.458763
0.734088
0.453816
-0.156332
0.0294324
0.478725
-0.83799
0.213959
0.718728
0.180017
-0.284421
0.611414
0.202681
0.82776
-0.675344
0.19086
0.296954
-0.69647
-0.586321
-0.805063
-0.233843
-0.865185
-0.55814
-0.425542
0.813088
-0.789769
0.392832
0.856827
0.132738
-0.976055
-0.951363
0.27565
-0.591721
-0.582897
-0.148809
-0.634584
0.635377
-0.805848
-0.0891375
-0.93209
-0.326713
0.922131
-0.888812
0.417115
-0.795981
-0.162584
0.37682
0.498483
-0.116942
0.409158
-0.854577
0.454512
0.216936
0.720419
-0.428304
-0.4244
0.715571
-0.438576
-0.317657
0.123666
0.53339
0.775509
0.815476
0.54258
-0.693415
-0.0954946
-0.531536
-0.423005
-0.330407
0.14991
0.927859
0.918792
0.22822
-0.140871
0.578281
-0.896524
-0.902486
-0.421741
-0.0704615
0.169131
0.778173
0.756615
0.540015
