1431655766
1060
1
0
-0.272232
0.170154
0.172135
-0.265961
0.30406
0.301504
-0.111487
0.279101
-0.201238
-0.0124409
0.396082
-0.0397128
0.431139
-0.484761
0.0793433
0.277412
0.499392
0.407706
0.375136
0.412939
0.0253594
-0.333393
0.327197
0.280147
0.393713
-0.00899785
-0.0474015
-0.45654
-0.141786
-0.38533
0.281722
0.193202
-0.252812
0.0619144
0.304218
0.029213
0.321459
-0.154048
-0.34361
-0.287357
0.275313
-0.294386
0.483429
-0.483286
0.407809
0.443319
0.218593
0.0696967
-0.311124
0.353564
-0.0401393
-0.098191
-0.208447
-0.0544285
0.0647286
-0.462108
-0.274319
-0.488939
-0.398998
-0.0841549
-0.115026
-0.321402
0.413815
-0.356201
0.0822206
-0.444283
0.0283017
-0.235554
-0.201791
0.280531
0.0877716
0.390953
0.288676
-0.306909
-0.0832742
-0.425706
-0.41178
-0.433804
0.437291
-0.294004
0.106724
0.0941579
-0.399296
0.443363
0.0467621
-0.41975
-0.280669
-0.25331
0.472053
-0.0409587
0.299611
-0.0386729
-0.452228
-0.326235
-0.164458
-0.326577
0.352077
-0.247617
0.382372
0.169413
0.151361
-0.294408
-0.0994494
-0.0210561
0.14427
0.137986
0.353465
0.0627625
0.244583
0.0177165
0.3248
0.495503
0.401632
0.203812
-0.338445
-0.0966089
0.488415
-0.337099
-0.0312342
-0.245756
-0.260793
0.413164
0.00718057
-0.191863
-0.264084
0.473275
0.453638
0.458574
-0.250803
0.343851
-0.442643
0.303522
-0.111757
-0.0498799
-0.101832
0.451453
-0.367902
-0.315647
0.362661
-0.201766
0.363259
-0.372039
0.192178
-0.294093
0.0374206
0.144492
0.316303
0.214
-0.0343034
-0.479832
0.41431
-0.451235
0.299941
-0.0921567
0.194896
0.336866
0.468351
0.488641
0.154907
-0.460469
-0.143949
0.00407705
-0.322934
-0.196504
0.140545
-0.103285
0.31449
0.169449
0.129678
-0.488328
-0.251261
0.0208285
-0.206886
-0.297677
0.414125
-0.179745
-0.411644
-0.185092
-0.427084
-0.26747
-0.351603
0.227518
-0.423975
0.227756
-0.0125758
0.233764
-0.273101
0.391921
0.489265
0.200825
0.111066
0.0323043
0.0439747
0.221341
-0.308597
-0.021376
0.0929419
0.310481
0.0844715
-0.133612
-0.0879837
-0.0193575
-0.386305
0.404955
-0.0866121
0.429503
0.321717
-0.171021
-0.133503
-0.208973
-0.339197
0.198131
0.340299
-0.12242
0.0638053
0.126943
-0.453817
-0.445631
-0.27091
-0.284362
-0.366757
-0.429824
-0.115635
0.125731
-0.0459652
0.071959
-0.117124
-0.24634
-0.193758
-0.328179
-0.459403
0.0447305
0.168599
0.345362
-0.342456
0.0422545
0.321109
0.418403
0.145915
0.0570751
0.38108
-0.24202
0.28145
-0.214012
0.437095
0.102391
0.424216
-0.390625
0.440113
0.33875
-0.0537845
0.105047
0.459929
-0.174717
-0.16601
0.363735
-0.440075
0.435401
0.48637
-0.0406199
-0.0649292
-0.486864
0.0351001
0.28261
0.227428
0.0319265
0.217044
-0.102805
0.0380317
-0.136077
-0.488138
0.0264349
-0.370073
-0.366606
0.222344
-0.24079
0.0288344
0.349554
0.163103
0.0146654
0.117523
0.110946
0.0872373
0.291306
-0.341761
0.130728
0.323242
0.212738
0.312897
0.150816
-0.0777862
0.470799
-0.159919
-0.24057
-0.0120267
-0.0493388
0.486078
-0.0165686
-0.457292
0.235326
-0.262895
-0.158321
-0.0160482
-0.14666
-0.277107
-0.117888
-0.16582
0.218372
-0.353101
0.412293
0.443985
0.268404
0.233212
-0.484354
-0.341022
0.041772
-0.279904
-0.366251
0.227512
0.41423
-0.131288
-0.385037
0.142524
-0.30696
-0.405298
-0.427171
-0.139251
-0.160994
-0.450213
-0.428623
-0.18591
-0.475812
0.488477
0.23161
0.16169
-0.31889
-0.162663
-0.47767
-0.128659
0.448713
0.155517
-0.286576
-0.0377623
-0.348283
0.327579
0.200303
-0.211947
-0.0152552
0.383696
0.389803
0.243018
-0.377503
-0.103357
0.321548
-0.409171
-0.105142
0.386408
0.200992
-0.443933
0.194391
0.0765864
-0.426515
0.393356
0.306875
-0.474969
-0.2295
-0.173671
-0.352097
0.00563172
0.323136
0.195664
0.36499
0.287804
-0.156777
0.495042
0.230982
0.462761
0.0136486
-0.46892
-0.343141
0.346309
-0.332954
0.496337
-0.172501
0.470484
-0.158034
0.274977
-0.110173
-0.187467
0.329443
-0.256976
-0.332518
-0.170553
-0.282086
-0.182862
-0.451738
-0.472555
-0.266591
-0.361714
-0.11032
-0.265301
-0.306541
-0.156509
-0.446009
0.326331
-0.148794
-0.372872
0.447706
0.3158
0.0206155
0.173175
0.273135
-0.253391
0.129712
-0.0452875
0.0629143
-0.458387
-0.252546
0.453322
-0.434822
-0.429395
0.4378
-0.391699
-0.329678
0.435472
0.29389
0.0266637
-0.0461214
-0.07121
-0.256
-0.114659
0.0783185
-0.0424222
-0.237581
-0.0440061
0.414699
0.428236
-0.208187
0.152294
0.368554
0.228848
-0.166331
0.0147205
-0.280317
-0.083465
0.400394
0.137146
-0.100673
-0.00592961
-0.0273561
0.434193
-0.241709
0.0432124
-0.340087
-0.466924
-0.356066
0.352108
0.328739
0.336175
-0.238555
-0.261342
0.213785
-0.21838
-0.00511233
-0.182973
0.151088
0.0727856
-0.103882
0.0948508
0.0240038
-0.349293
0.0955377
-0.283601
-0.239461
0.146426
0.269069
-0.0973174
-0.498758
-0.373733
0.222583
-0.218324
0.120526
-0.0113538
-0.0191477
0.277411
-0.352091
0.195712
-0.263911
-0.459601
-0.168678
-0.360382
-0.494938
0.386818
-0.089735
-0.182642
-0.361925
-0.218846
-0.0643455
0.28881
0.332755
0.285872
-0.235252
-0.258017
-0.163644
-0.0704468
0.268368
-0.28734
-0.481671
0.257231
-0.325939
-0.119014
-0.202705
-0.352822
0.208816
-0.123505
0.490657
-0.141347
-0.0598584
-0.399767
0.389227
0.345262
-0.398118
0.355627
0.252061
0.0864107
0.153986
-0.340562
0.367771
-0.408925
0.301994
-0.225485
-0.122251
-0.321941
0.396433
-0.485946
0.134894
-0.422691
0.264252
0.16307
0.049649
-0.401603
0.0793159
-0.150071
0.115507
-0.0765742
0.357733
-0.0143776
0.211078
0.179246
0.333047
-0.469422
0.338532
0.0827988
0.108297
-0.389226
-0.187498
0.216663
0.144497
0.102719
-0.416186
-0.459384
0.39165
0.159305
0.0336705
-0.43154
0.0281736
-0.372189
-0.238116
-0.195105
-0.307801
-0.00751981
0.313694
0.44042
-0.12596
-0.114349
0.0305119
-0.0834152
-0.0808233
-0.415424
-0.00181952
-0.398644
-0.243091
-0.0693662
-0.479831
-0.165362
-0.0712659
0.161117
0.421337
0.225144
-0.0847901
-0.427862
0.439886
-0.41197
-0.160788
0.278277
-0.219035
-0.0778286
-0.188972
-0.40247
-0.234292
-0.470879
-0.0535092
0.46907
0.235594
-0.206917
0.168658
0.459633
-0.324169
0.371374
-0.452685
0.188441
-0.244495
0.0145248
0.155528
-0.289946
0.389673
-0.050691
0.260715
-0.447987
0.393224
-0.450451
0.417177
-0.324397
0.0925648
-0.200245
-0.498886
-0.217767
-0.195938
0.0646346
-0.492883
-0.25292
0.183375
-0.269225
-0.398554
-0.149161
0.0435898
0.0307584
0.362705
0.178061
0.16934
-0.481664
-0.289419
-0.461998
-0.103505
0.287732
-0.130208
0.475857
0.150493
-0.249354
-0.00341213
0.016224
0.250001
0.0590116
0.231763
0.307656
-0.014463
-0.373795
-0.124175
0.110984
0.31513
-0.481548
-0.187341
0.34191
-0.0883596
0.204034
-0.0424054
-0.409654
-0.179666
-0.46901
0.359459
-0.401617
-0.397435
0.203147
0.145068
0.192174
-0.345411
0.115982
0.0251668
-0.310196
0.392696
-0.0467761
-0.134601
-0.389701
-0.17919
-0.485049
0.412231
-0.196077
-0.331037
-0.490417
-0.284549
0.329918
-0.0245001
0.484746
-0.0651025
0.396821
0.238285
0.262923
-0.0957405
0.027732
0.276845
-0.417395
0.159476
0.346651
-0.184881
-0.40206
-0.250663
0.233726
-0.259033
-0.23858
0.423075
-0.24844
-0.358173
0.284825
0.141178
0.0892378
-0.185115
-0.448549
-0.0457706
-0.353652
-0.345999
0.323738
0.328751
0.329871
0.414736
0.469039
-0.077053
-0.340486
-0.466443
-0.0952052
-0.401461
0.0720301
0.249119
0.0633563
0.333036
0.0356395
0.454311
-0.0053176
0.420633
-0.411721
-0.150054
0.18899
0.436196
-0.492366
0.317921
-0.184062
0.417629
0.0194379
0.366992
-0.324837
0.395191
0.219201
-0.197517
0.146038
0.0755448
-0.109741
-0.152634
-0.448327
0.252539
0.269926
-0.398241
-0.0691563
0.460701
0.370747
0.417403
0.387096
-0.128513
0.48375
-0.180104
0.180562
0.332496
0.45659
-0.487955
0.0966074
0.407664
-0.313894
-0.395324
0.496286
-0.0507793
-0.37008
0.0555252
-0.215246
0.0426328
0.115873
-0.248246
-0.138712
-0.447462
0.105506
0.287264
-0.197242
0.164675
-0.404658
0.193004
-0.476349
-0.0140221
0.467731
-0.251884
0.22048
-0.0824973
-0.265304
-0.00600743
-0.104577
0.15379
0.36011
-0.205304
0.339881
0.0541764
-0.242875
-0.271221
0.398389
0.0586898
-0.0981642
-0.106739
-0.290131
0.331364
0.496453
-0.12534
0.0976708
-0.0294514
-0.325258
-0.140302
0.341648
0.258187
-0.258714
0.175115
-0.218239
-0.127224
0.449322
0.15843
0.469209
-0.125755
0.377965
-0.24385
-0.128779
-0.290865
0.299835
0.350614
0.25135
0.373004
-0.2808
0.149394
0.168157
0.110949
0.396259
-0.209234
0.269638
-0.190399
-0.00392273
0.2747
-0.00527509
0.223144
-0.445206
-0.288976
-0.459049
-0.163797
0.238204
-0.134312
-0.288711
-0.0327183
-0.421216
-0.0964895
0.0337894
0.393428
-0.329933
-0.216425
-0.0464868
-0.419258
-0.471576
0.313824
0.354267
-0.447088
0.311264
0.157794
0.18251
-0.446598
0.320255
-0.00753474
0.35071
0.253989
-0.315927
0.316323
0.303347
0.146677
0.476444
0.016046
-0.124928
-0.493479
0.403916
0.0243133
0.174562
-0.47552
0.419008
0.186409
-0.165161
-0.257703
-0.0434377
-0.363484
-0.195017
0.151655
0.43561
-0.456657
-0.0291046
0.388987
0.150522
0.387165
-0.0859673
-0.477342
0.331232
-0.0146396
-0.495185
0.413528
-0.426126
0.190395
0.317831
0.471735
-0.176014
-0.416981
-0.0867125
-0.464115
-0.118143
0.00494683
0.295785
0.285577
-0.0564853
0.490611
-0.392088
0.0495035
-0.105132
0.0287985
-0.309009
-0.409595
0.046888
-0.285476
0.225358
-0.298635
0.29608
-0.267447
0.00266467
-0.482336
-0.420425
0.380412
-0.434138
-0.117593
0.183716
0.0148122
0.139938
-0.0340083
0.378044
-0.443677
-0.0426572
0.458171
-0.144905
-0.431559
-0.176254
-0.12817
0.13572
0.135245
-0.0321341
-0.0701052
-0.0221481
-0.116481
-0.152841
0.277062
-0.36452
-0.241958
-0.0590018
0.257873
-0.261643
0.180975
-0.465587
-0.360764
0.489558
0.26657
-0.213436
-0.398257
-0.351873
-0.0297253
-0.225006
0.268468
0.421688
-0.283215
-0.176407
0.436478
0.436134
-0.144768
-0.048454
-0.00521563
-0.423506
-0.447053
0.242748
-0.0117944
-0.1418
-0.3261
-0.0710127
0.170699
-0.0524112
0.146555
-0.0677145
-0.29943
0.314274
0.0516857
0.027102
-0.104006
-0.221456
-0.462533
-0.00540139
0.490225
-0.119821
-0.0287856
-0.43998
-0.0848068
-0.290174
-0.120344
0.269666
-0.120873
-0.267506
0.0181818
0.0933652
-0.0170889
-0.480003
-0.209629
-0.422775
-0.298343
-0.0264298
-0.450706
0.043499
-0.381739
-0.459071
-0.470993
0.191245
-0.0238013
-0.45177
0.146594
-0.376847
0.0767117
0.214458
-0.309233
0.268297
-0.296331
0.284538
0.371881
0.423898
0.0562821
-0.19813
-0.109749
-0.434336
-0.190439
0.088078
0.0155801
0.118257
0.124659
-0.0422037
-0.268626
-0.194464
0.181461
-0.027471
-0.253656
-0.13708
0.104836
-0.263461
0.212591
